svm_type c_svc
kernel_type rbf
gamma 0.05
nr_class 2
total_sv 159
rho 0.238638
label 1 0
nr_sv 72 87
SV
1 1:-0.28030143 2:-0.43116743 3:0.37734629 4:-0.25959686 5:-0.11983871 6:-0.86056086 7:0.44187371 8:-0.26302943 9:-0.086123571 10:0.212872 11:1.2112466 12:-0.59493214 13:-0.054535 14:-0.297912 15:-0.25861057 16:-0.30189443 17:-0.225084 18:-0.014952 19:-0.08711 20:0.0032881429 21:1.0903459 22:0.54865829 23:-0.021302 24:-0.028883 25:-0.038542 26:-0.023332 27:-0.023412 30:-0.02702 31:-0.198246 32:-0.20685 33:-0.080912 34:-0.327191 35:-0.337 36:-0.26576 37:-0.080866 38:-0.17395614 39:-0.19693571 40:-0.19767043 41:-0.0090087143 42:-0.025787 43:-0.073582 44:-0.042568571 45:1.421369 46:0.78264729 47:0.10069257 49:-0.021708 50:-0.021658 51:-0.041491 52:-0.023797286 53:-0.071887 54:0.61669686 55:-0.014952 60:-0.014952 61:-0.017265 62:-0.024647 63:-0.021215 70:-0.065785 71:-0.049974 72:-0.014952 73:-0.048732 74:-0.173228 75:-0.177573 76:-0.091775 77:-0.050171 78:-0.114846 79:-0.3317 80:-0.40775214 81:-0.263784 82:-0.139878 84:-0.06989 85:-0.26041386 86:0.69978314 87:0.10441886 88:-0.13623571 89:-0.102253 92:-0.040796 93:-0.053987571 94:2.8240674 95:0.27328143 96:0.063938286 97:-0.074486 101:-0.014952 102:-0.014982 103:-0.040764 104:-0.042342 105:-0.027653 106:-0.014952 112:-0.021732 113:-0.021365 114:-0.018 121:-0.017556 122:-0.021126 134:-0.018485 135:-0.01594 138:-0.043134 139:-0.029996 140:-0.09331 141:-0.098605 142:-0.071579 143:-0.017934 144:-0.063725 145:-0.182197 146:-0.255619 147:-0.391468 148:-0.187455 149:-0.077681 150:-0.03269 152:-0.053085 153:-0.053497429 154:0.98138886 155:0.045480143 156:-0.171326 157:-0.072849 158:-0.032187 161:2.6197834 162:1.9129833 163:0.76882714 164:-0.054582 165:-0.032023 169:-0.015029 170:-0.021431 171:-0.018157 178:-0.019294 179:-0.017308 201:-0.032096 202:-0.043388 203:-0.027179 207:-0.099876 208:-0.135405 209:-0.183154 210:-0.106346 211:-0.037709 215:-0.26033357 216:-0.35781886 217:-0.39079971 218:-0.102856 219:-0.017565 223:-0.0024628571 224:-0.019584714 225:-0.078862 226:-0.021452 229:-0.014952 230:-0.021097 
1 1:0.22246838 2:0.24849975 3:-0.021617125 4:-0.086088125 5:-0.235057 6:0.31941837 7:-0.02138925 8:-0.016446625 9:-0.23002387 10:0.023024625 11:0.49878625 12:0.045488125 13:-0.054535 14:0.21261688 15:-0.18309325 16:-0.17174213 17:-0.225084 18:-0.014952 19:-0.08711 20:0.38649238 21:-0.1185245 22:-0.248836 23:-0.021302 24:-0.028883 25:-0.038542 26:0.2897045 27:-0.023412 30:-0.02702 31:0.20987287 32:0.49976175 33:-0.080912 34:-0.01688475 35:0.62220513 36:1.1015066 37:-0.080866 38:-0.17607087 39:-0.35586488 40:-0.41465263 41:-0.309461 42:-0.025787 43:-0.073582 44:1.1762713 45:0.6328025 46:-0.15725687 47:-0.201557 49:-0.021708 50:-0.021658 51:-0.041491 52:-0.032279 53:-0.071887 54:-0.095154 55:-0.014952 60:-0.014952 61:-0.017265 62:-0.024647 63:-0.021215 70:-0.065785 71:-0.049974 72:-0.014952 73:-0.048732 74:-0.15949663 75:0.45250425 76:1.2403963 77:-0.050171 78:-0.114846 79:-0.14457175 80:0.7692695 81:2.6840136 82:2.509152 84:-0.06989 85:-0.2498395 86:-0.23983313 87:-0.451223 88:-0.257148 89:-0.102253 92:-0.040796 93:-0.0194255 94:1.6467021 95:-0.1610165 96:-0.115671 97:-0.074486 101:-0.014952 102:-0.014982 103:-0.040764 104:-0.042342 105:-0.027653 106:-0.014952 112:-0.021732 113:-0.021365 114:-0.018 121:-0.017556 122:-0.021126 134:-0.018485 135:-0.01594 138:-0.043134 139:-0.029996 140:-0.09331 141:0.19343125 142:5.7381177 143:-0.017934 144:-0.063725 145:-0.182197 146:-0.24458812 147:0.09025525 148:3.2711024 149:5.9444611 150:-0.03269 152:-0.053085 153:-0.36407187 154:-0.05254825 155:-0.5093665 156:-0.171326 157:-0.072849 158:-0.032187 161:-0.061848 162:7.686185 163:0.56412425 164:-0.054582 165:-0.032023 169:-0.015029 170:-0.021431 171:-0.018157 178:-0.019294 179:-0.017308 201:-0.032096 202:-0.043388 203:2.3451434 207:-0.099876 208:-0.135405 209:-0.14804762 210:1.3667253 211:2.1871796 215:-0.265739 216:-0.35520913 217:0.12173813 218:-0.102856 219:-0.017565 223:-0.049855 224:0.68095538 225:-0.078862 226:-0.021452 229:-0.014952 230:-0.021097 
1 1:-0.21875625 2:-0.20197513 3:0.009449875 4:0.44204437 5:-0.16889325 6:-0.1133865 7:-0.003264 8:0.46842025 9:-0.2563 10:0.25044925 11:0.42795312 12:0.39805113 13:-0.054535 14:-0.297912 15:-0.261335 16:-0.21660663 17:-0.21543975 18:-0.014952 19:-0.08711 20:-0.167402 21:-0.07799075 22:1.1006475 23:-0.021302 24:-0.028883 25:-0.038542 26:-0.023332 27:-0.023412 30:-0.02702 31:-0.198246 32:-0.20685 33:-0.080912 34:-0.327191 35:-0.347995 36:-0.26576 37:-0.080866 38:-0.16262863 39:0.47889688 40:0.043395 41:0.33049975 42:-0.025787 43:-0.073582 44:-0.114571 45:0.24424988 46:0.27955537 47:0.768499 49:-0.021708 50:-0.021658 51:-0.041491 52:-0.032279 53:-0.071887 54:-0.095154 55:-0.014952 60:-0.014952 61:-0.017265 62:-0.024647 63:-0.021215 70:-0.065785 71:-0.049974 72:-0.014952 73:-0.048732 74:-0.173228 75:-0.177573 76:-0.091775 77:-0.050171 78:-0.114846 79:-0.3317 80:-0.408478 81:-0.263784 82:-0.139878 84:-0.06989 85:-0.26041588 86:0.4067875 87:0.33109912 88:0.25998563 89:0.095080625 92:-0.040796 93:-0.056023 94:-0.16148813 95:-0.16966675 96:-0.11319825 97:-0.074486 101:-0.014952 102:-0.014982 103:-0.040764 104:-0.042342 105:-0.027653 106:-0.014952 112:-0.021732 113:-0.021365 114:-0.018 121:-0.017556 122:-0.021126 134:-0.018485 135:-0.01594 138:-0.043134 139:-0.029996 140:-0.09331 141:-0.098605 142:-0.071579 143:-0.017934 144:-0.063725 145:-0.182197 146:-0.255619 147:-0.391468 148:-0.187455 149:-0.077681 150:-0.03269 152:-0.053085 153:-0.277865 154:0.053717125 155:0.90208438 156:-0.092514375 157:-0.072849 158:-0.032187 161:-0.061848 162:0.028831125 163:-0.19078975 164:-0.054582 165:-0.032023 169:-0.015029 170:-0.021431 171:-0.018157 178:-0.019294 179:-0.017308 201:-0.032096 202:-0.043388 203:-0.027179 207:-0.099876 208:-0.135405 209:-0.183154 210:-0.106346 211:-0.037709 215:1.4181268 216:-0.48634462 217:0.13160475 218:-0.10118688 219:-0.017565 223:-0.049855 224:-0.114025 225:-0.078862 226:-0.021452 229:-0.014952 230:-0.021097 
1 1:-0.4365955 2:-0.309658 3:-0.2005905 4:-0.094560333 5:0.19446167 6:0.7540785 7:-0.18209483 8:-0.097355 9:0.0843695 10:0.6745065 11:0.072134333 12:-0.44628483 13:-0.054535 14:0.28412383 15:-0.11359817 16:0.40470217 17:0.2198935 18:-0.014952 19:-0.08711 20:-0.167402 21:-0.200329 22:-0.248836 23:-0.021302 24:-0.028883 25:-0.038542 26:-0.023332 27:-0.023412 30:-0.02702 31:-0.198246 32:-0.20685 33:0.034017333 34:0.26769067 35:0.13930533 36:-0.26576 37:-0.080866 38:-0.092348333 39:0.44118483 40:0.09773 41:-0.309461 42:-0.025787 43:-0.073582 44:-0.114571 45:-0.18949 46:-0.160794 47:-0.201557 49:-0.021708 50:-0.021658 51:-0.041491 52:-0.032279 53:-0.071887 54:-0.095154 55:-0.014952 60:-0.014952 61:-0.017265 62:-0.024647 63:-0.021215 70:-0.065785 71:-0.049974 72:-0.014952 73:-0.048732 74:-0.173228 75:-0.177573 76:-0.091775 77:-0.050171 78:-0.11423567 79:0.18008067 80:0.50477233 81:-0.263784 82:-0.139878 84:-0.06989 85:-0.251854 86:-0.35068283 87:-0.55391433 88:-0.260113 89:-0.102253 92:-0.040796 93:-0.056023 94:-0.168633 95:-0.188284 96:-0.115671 97:-0.074486 101:-0.014952 102:-0.014982 103:-0.040764 104:-0.042342 105:-0.027653 106:-0.014952 112:-0.021732 113:-0.021365 114:-0.018 121:-0.017556 122:-0.021126 134:-0.018485 135:-0.01594 138:-0.043134 139:-0.029996 140:-0.09331 141:-0.098605 142:-0.071579 143:-0.017934 144:-0.063725 145:-0.182197 146:-0.20973133 147:-0.38640017 148:-0.187455 149:-0.077681 150:-0.03269 152:-0.053085 153:-0.19914683 154:-0.351095 155:-0.65271067 156:-0.171326 157:-0.072849 158:-0.032187 161:-0.061848 162:-0.174962 163:-0.192699 164:-0.054582 165:-0.032023 169:-0.015029 170:-0.021431 171:-0.018157 178:-0.019294 179:-0.017308 201:-0.032096 202:-0.043388 203:-0.027179 207:-0.099876 208:-0.135405 209:-0.183154 210:-0.106346 211:-0.037709 215:0.45397667 216:1.4639685 217:-0.412626 218:-0.102856 219:-0.017565 223:-0.049855 224:-0.114025 225:-0.078862 226:-0.021452 229:-0.014952 230:-0.021097 
1 1:-0.048892857 2:-0.080959857 3:0.13270014 4:0.21218043 5:-0.24206471 6:-0.16235686 7:0.12702543 8:0.20579343 9:-0.15066943 10:0.62742371 11:0.58089214 12:-0.052865286 13:-0.054535 14:-0.297912 15:-0.261335 16:-0.302051 17:-0.225084 18:-0.014952 19:-0.08711 20:-0.167402 21:-0.200329 22:-0.248836 23:-0.021302 24:-0.028883 25:-0.038542 26:-0.023332 27:-0.023412 30:-0.02702 31:-0.198246 32:-0.20685 33:-0.080912 34:-0.327191 35:-0.347995 36:-0.26576 37:-0.080866 38:-0.224814 39:-0.52815686 40:-0.451394 41:-0.309461 42:-0.025787 43:-0.073582 44:-0.114571 45:-0.18949 46:-0.160794 47:-0.088009286 49:-0.021708 50:-0.021658 51:-0.041491 52:-0.032279 53:-0.071887 54:-0.095154 55:-0.014952 60:-0.014952 61:-0.017265 62:-0.024647 63:-0.021215 70:-0.065785 71:-0.049974 72:-0.014952 73:-0.048732 74:-0.173228 75:-0.177573 76:-0.091775 77:-0.050171 78:-0.114846 79:-0.32439343 80:-0.408309 81:-0.263784 82:-0.139878 84:-0.06989 85:-0.24984043 86:-0.64813714 87:-0.58279171 88:-0.260113 89:-0.102253 92:-0.040796 93:-0.056023 94:-0.15262943 95:-0.18737 96:-0.115671 97:-0.074486 101:-0.014952 102:-0.014982 103:-0.040764 104:-0.042342 105:-0.027653 106:-0.014952 112:-0.021732 113:-0.021365 114:-0.018 121:-0.017556 122:-0.021126 134:-0.018485 135:-0.01594 138:-0.043134 139:-0.029996 140:-0.09331 141:-0.098605 142:-0.071579 143:-0.017934 144:-0.063725 145:-0.182197 146:-0.21272014 147:-0.38399114 148:-0.187455 149:-0.077681 150:-0.03269 152:-0.053085 153:-0.27337643 154:1.0193149 155:-0.473291 156:-0.171326 157:-0.072849 158:-0.032187 161:-0.061848 162:-0.038352286 163:-0.192699 164:-0.054582 165:-0.032023 169:-0.015029 170:-0.021431 171:-0.018157 178:-0.019294 179:-0.017308 201:-0.032096 202:-0.043388 203:-0.027179 207:-0.099876 208:-0.135405 209:-0.183154 210:-0.106346 211:-0.037709 215:-0.083085143 216:1.4964303 217:0.071747 218:-0.102856 219:-0.017565 223:-0.049855 224:0.066372286 225:-0.078862 226:-0.021452 229:-0.014952 230:-0.021097 
1 1:-0.7633245 2:-0.668169 3:0.2266265 4:-0.065767125 5:-0.34973088 6:-0.016234375 7:0.21980137 8:-0.109376 9:-0.21936475 10:0.41782175 11:0.033886875 12:-0.0431095 13:-0.054535 14:-0.297912 15:-0.261335 16:-0.028276875 17:0.84198838 18:-0.014952 19:-0.08711 20:-0.167402 21:-0.200329 22:-0.248836 23:-0.021302 24:-0.028883 25:-0.038542 26:-0.023332 27:-0.023412 30:-0.02702 31:-0.198246 32:-0.20685 33:-0.080912 34:-0.327191 35:-0.34259213 36:-0.26576 37:-0.080866 38:-0.224814 39:0.3714645 40:0.286914 41:-0.26968863 42:-0.025787 43:-0.073582 44:-0.114571 45:-0.18949 46:-0.160794 47:-0.201557 49:-0.021708 50:-0.021658 51:-0.041491 52:-0.032279 53:-0.071887 54:-0.095154 55:-0.014952 60:-0.014952 61:-0.017265 62:-0.024647 63:-0.021215 70:-0.065785 71:-0.049974 72:-0.014952 73:-0.048732 74:-0.173228 75:-0.177573 76:-0.091775 77:-0.050171 78:-0.114846 79:-0.3317 80:-0.408478 81:-0.263784 82:-0.139878 84:-0.06989 85:-0.263975 86:-0.50786338 87:-0.2000805 88:-0.2600755 89:-0.102253 92:-0.040796 93:-0.056023 94:-0.168633 95:-0.188284 96:-0.115671 97:-0.074486 101:-0.014952 102:-0.014982 103:-0.040764 104:-0.042342 105:-0.027653 106:-0.014952 112:-0.021732 113:-0.021365 114:-0.018 121:-0.017556 122:-0.021126 134:-0.018485 135:-0.01594 138:-0.043134 139:-0.029996 140:-0.09331 141:-0.098605 142:-0.071579 143:-0.017934 144:-0.063725 145:-0.182197 146:-0.255619 147:-0.391468 148:-0.187455 149:-0.077681 150:-0.03269 152:-0.053085 153:-0.36220938 154:1.0468715 155:-0.26163912 156:-0.171326 157:-0.072849 158:-0.032187 161:-0.061848 162:-0.174962 163:-0.192699 164:-0.054582 165:-0.032023 169:-0.015029 170:-0.021431 171:-0.018157 178:-0.019294 179:-0.017308 201:-0.032096 202:-0.043388 203:-0.027179 207:-0.099876 208:0.2700295 209:-0.183154 210:-0.106346 211:-0.037709 215:0.15334525 216:0.71194388 217:-0.14298912 218:-0.102856 219:-0.017565 223:-0.049855 224:-0.114025 225:-0.078862 226:-0.021452 229:-0.014952 230:-0.021097 
1 1:-0.063249429 2:-0.026923 3:-0.122003 4:-0.012222857 5:-0.016237857 6:-0.46332829 7:-0.146918 8:-0.019676857 9:-0.11308486 10:0.064042857 11:-0.29483014 12:1.0507994 13:-0.054535 14:0.65165157 15:0.050552 16:0.10231986 17:0.698415 18:-0.014952 19:-0.08711 20:0.14672643 21:-0.200329 22:-0.197116 23:-0.021302 24:-0.028883 25:-0.038542 26:-0.023332 27:-0.023412 30:-0.02702 31:-0.19500414 32:0.18782557 33:-0.080912 34:-0.11426414 35:0.30322829 36:-0.18062614 37:-0.080866 38:-0.198463 39:-0.11561714 40:0.39983171 41:2.1063663 42:-0.025787 43:-0.073582 44:-0.008424 45:-0.18949 46:-0.052367286 47:0.18493943 49:-0.021708 50:-0.021658 51:-0.041491 52:-0.032279 53:-0.071887 54:-0.095154 55:-0.014952 60:-0.014952 61:-0.017265 62:-0.024647 63:-0.021215 70:-0.065785 71:-0.049974 72:-0.014952 73:-0.048732 74:-0.13191957 75:-0.152305 76:-0.091775 77:-0.050171 78:-0.114846 79:-0.18595729 80:0.44712986 81:-0.24351986 82:-0.139878 84:-0.06989 85:-0.263975 86:-0.63263071 87:0.16121586 88:1.1284841 89:0.26597343 92:-0.040796 93:-0.056023 94:-0.168633 95:-0.188284 96:-0.115671 97:-0.074486 101:-0.014952 102:-0.014982 103:-0.040764 104:-0.042342 105:-0.027653 106:-0.014952 112:-0.021732 113:-0.021365 114:-0.018 121:-0.017556 122:-0.021126 134:-0.018485 135:-0.01594 138:-0.043134 139:-0.029996 140:-0.09331 141:-0.098605 142:-0.071579 143:-0.017934 144:-0.063725 145:-0.182197 146:0.079799429 147:0.083076857 148:-0.187455 149:-0.077681 150:-0.03269 152:-0.053085 153:-0.364504 154:-0.80442614 155:2.6142114 156:0.10565186 157:-0.072849 158:-0.032187 161:-0.061848 162:-0.174962 163:-0.192699 164:-0.054582 165:-0.032023 169:-0.015029 170:-0.021431 171:-0.018157 178:-0.019294 179:-0.017308 201:-0.032096 202:-0.043388 203:-0.027179 207:-0.099876 208:-0.135405 209:-0.183154 210:-0.106346 211:-0.037709 215:-0.265739 216:-0.738959 217:0.77662943 218:-0.10081743 219:-0.017565 223:-0.049855 224:-0.114025 225:-0.078862 226:-0.021452 229:-0.014952 230:-0.021097 
1 1:-0.77403918 2:-0.68380909 3:0.30395436 4:-0.084789545 5:-0.26377445 6:-0.38518945 7:0.329313 8:-0.065771818 9:-0.42184173 10:0.44721009 11:-0.56427355 12:0.50102373 13:-0.054535 14:-0.297912 15:-0.261335 16:-0.302051 17:-0.225084 18:-0.014952 19:-0.08711 20:-0.167402 21:-0.200329 22:-0.248836 23:-0.021302 24:-0.028883 25:-0.038542 26:-0.023332 27:-0.023412 30:-0.02702 31:-0.198246 32:-0.065779091 33:-0.080912 34:-0.327191 35:-0.347995 36:-0.25613164 37:-0.080866 38:-0.224814 39:-0.529019 40:-0.451394 41:-0.309461 42:-0.025787 43:-0.073582 44:-0.114571 45:-0.18949 46:-0.160794 47:-0.201557 49:-0.021708 50:-0.021658 51:-0.041491 52:-0.032279 53:-0.071887 54:-0.095154 55:-0.014952 60:-0.014952 61:-0.017265 62:-0.024647 63:-0.021215 70:-0.065785 71:-0.049974 72:-0.014952 73:-0.048732 74:-0.17223736 75:0.0068871818 76:-0.052482909 77:-0.050171 78:-0.114846 79:-0.3317 80:-0.28804827 81:-0.12372955 82:-0.139878 84:-0.06989 85:-0.263975 86:-0.785786 87:-0.58825264 88:-0.260113 89:-0.102253 92:-0.040796 93:-0.056023 94:-0.168633 95:-0.188284 96:-0.115671 97:-0.074486 101:-0.014952 102:-0.014982 103:-0.040764 104:-0.042342 105:-0.027653 106:-0.014952 112:-0.021732 113:-0.021365 114:-0.018 121:-0.017556 122:-0.021126 134:-0.018485 135:-0.01594 138:-0.043134 139:-0.029996 140:-0.09331 141:0.14216827 142:-0.063602 143:-0.017934 144:-0.063725 145:-0.182197 146:-0.25124755 147:1.6231544 148:2.0454279 149:-0.077681 150:-0.03269 152:-0.053085 153:-0.364504 154:-0.44867391 155:-0.58954191 156:-0.171326 157:-0.072849 158:-0.032187 161:-0.061848 162:0.43334955 163:-0.192699 164:-0.054582 165:-0.032023 169:-0.015029 170:-0.021431 171:-0.018157 178:-0.019294 179:-0.017308 201:-0.032096 202:2.2943796 203:-0.027179 207:-0.099876 208:-0.11326573 209:12.579884 210:8.6192181 211:-0.037709 215:-0.265739 216:-0.59292055 217:-0.16690336 218:-0.102856 219:-0.017565 223:-0.049855 224:0.17309109 225:-0.078862 226:-0.021452 229:-0.014952 230:-0.021097 
1 1:0.2666882 2:0.2018536 3:-0.158388 4:-0.067198 5:0.228038 6:-0.057448 7:-0.2009488 8:-0.0563176 9:0.321472 10:0.385466 11:-0.0871352 12:0.2001106 13:-0.054535 14:-0.2343738 15:-0.261335 16:-0.302051 17:-0.225084 18:-0.014952 19:-0.08711 20:-0.167402 21:-0.200329 22:-0.248836 23:-0.021302 24:-0.028883 25:-0.038542 26:-0.023332 27:-0.023412 30:-0.02702 31:-0.1457354 32:0.3585202 33:-0.080912 34:-0.322094 35:-0.2908184 36:-0.0051924 37:-0.080866 38:-0.224814 39:-0.5267448 40:-0.4217176 41:-0.2733692 42:-0.025787 43:-0.073582 44:-0.114571 45:-0.18949 46:-0.160794 47:-0.201557 49:-0.021708 50:-0.021658 51:-0.041491 52:-0.032279 53:-0.071887 54:-0.095154 55:-0.014952 60:-0.014952 61:-0.017265 62:-0.024647 63:-0.021215 70:-0.065785 71:-0.049974 72:-0.014952 73:-0.048732 74:-0.173228 75:0.3331644 76:0.7475652 77:-0.050171 78:-0.114846 79:-0.3007726 80:0.0115342 81:0.2637918 82:0.0338766 84:-0.06989 85:-0.263975 86:-0.7518974 87:-0.4180468 88:-0.222077 89:-0.102253 92:-0.040796 93:-0.056023 94:-0.168633 95:-0.188284 96:-0.115671 97:-0.074486 101:-0.014952 102:-0.014982 103:-0.040764 104:-0.042342 105:-0.027653 106:-0.014952 112:-0.021732 113:-0.021365 114:-0.018 121:-0.017556 122:-0.021126 134:-0.018485 135:-0.01594 138:-0.043134 139:-0.029996 140:-0.09331 141:-0.0887336 142:-0.071579 143:-0.017934 144:-0.063725 145:-0.182197 146:-0.1755502 147:0.4194186 148:-0.0789146 149:-0.077681 150:-0.03269 152:-0.053085 153:-0.2721666 154:1.0811032 155:0.9290726 156:-0.1705982 157:-0.072849 158:-0.032187 161:-0.061848 162:-0.174962 163:-0.1829028 164:-0.054582 165:-0.032023 169:-0.015029 170:-0.021431 171:-0.018157 178:-0.019294 179:-0.017308 201:-0.032096 202:-0.043388 203:-0.027179 207:-0.099876 208:-0.1235442 209:-0.0274688 210:-0.106346 211:-0.037709 215:-0.258299 216:-0.0292248 217:0.1624154 218:-0.102856 219:-0.017565 223:-0.049855 224:-0.114025 225:-0.078862 226:-0.021452 229:-0.014952 230:-0.021097 
0.8222642486558732 1:-0.41396855 2:-0.26792864 3:-0.81625109 4:0.69273955 5:-0.37649409 6:0.0050528182 7:-0.88273318 8:0.70245173 9:-0.422623 10:0.33838073 11:0.16421955 12:0.39721755 13:-0.054535 14:-0.297912 15:-0.22188736 16:-0.29640073 17:-0.225084 18:-0.014952 19:-0.08711 20:0.35051227 21:-0.200329 22:-0.248836 23:-0.021302 24:-0.028883 25:-0.038542 26:-0.023332 27:-0.023412 30:-0.02702 31:-0.198246 32:-0.20685 33:-0.080912 34:-0.327191 35:-0.347995 36:-0.26576 37:-0.080866 38:0.31873127 39:0.58624182 40:-0.090338727 41:-0.19940618 42:-0.025787 43:-0.073582 44:0.30598227 45:-0.12079782 46:-0.160794 47:-0.201557 49:-0.021708 50:-0.021658 51:-0.041491 52:-0.032279 53:-0.071887 54:-0.095154 55:-0.014952 60:-0.014952 61:-0.017265 62:-0.024647 63:-0.021215 70:-0.065785 71:-0.049974 72:-0.014952 73:-0.048732 74:-0.173228 75:-0.177573 76:-0.091775 77:-0.050171 78:-0.114846 79:-0.33078155 80:-0.40408227 81:-0.234519 82:-0.139878 84:-0.06989 85:-0.26229518 86:-0.61100509 87:-0.013025909 88:0.35672882 89:0.15728882 92:-0.040796 93:-0.056023 94:-0.168633 95:-0.188284 96:-0.115671 97:-0.074486 101:-0.014952 102:-0.014982 103:-0.040764 104:-0.042342 105:-0.027653 106:-0.014952 112:-0.021732 113:-0.021365 114:-0.018 121:-0.017556 122:-0.021126 134:-0.018485 135:-0.01594 138:-0.043134 139:-0.029996 140:-0.09331 141:-0.098605 142:-0.071579 143:-0.017934 144:-0.063725 145:-0.182197 146:-0.25011545 147:-0.39027791 148:-0.18734118 149:-0.077681 150:-0.03269 152:-0.053085 153:-0.30334555 154:-0.055140182 155:1.0599255 156:0.44929445 157:-0.072849 158:-0.032187 161:-0.061848 162:-0.174962 163:-0.192699 164:-0.054582 165:-0.032023 169:-0.015029 170:-0.021431 171:-0.018157 178:-0.019294 179:-0.017308 201:-0.032096 202:-0.043388 203:-0.027179 207:-0.099876 208:-0.084475273 209:-0.183154 210:-0.106346 211:-0.037709 215:-0.19324518 216:0.0058197273 217:1.2449475 218:0.018024727 219:-0.017565 223:-0.049855 224:-0.114025 225:-0.078862 226:-0.021452 229:-0.014952 230:-0.021097 
1 1:-0.2454642 2:-0.2197145 3:0.467927 4:-0.0601423 5:-0.3426064 6:-0.1615049 7:0.4853729 8:-0.0378538 9:-0.3730809 10:0.3829356 11:0.6084762 12:0.4510032 13:-0.054535 14:-0.297912 15:-0.261335 16:-0.302051 17:-0.225084 18:-0.014952 19:-0.08711 20:-0.167402 21:-0.200329 22:-0.248836 23:-0.021302 24:-0.028883 25:-0.038542 26:-0.023332 27:-0.023412 30:-0.02702 31:-0.198246 32:-0.20685 33:-0.080912 34:-0.327191 35:-0.347995 36:-0.26576 37:-0.080866 38:-0.224814 39:-0.5290131 40:-0.4305136 41:-0.2911945 42:-0.025787 43:-0.073582 44:-0.114571 45:-0.18949 46:-0.160794 47:-0.1553933 49:-0.021708 50:-0.021658 51:-0.041491 52:-0.032279 53:-0.071887 54:-0.095154 55:-0.014952 60:-0.014952 61:-0.017265 62:-0.024647 63:-0.021215 70:-0.065785 71:-0.049974 72:-0.014952 73:-0.048732 74:-0.173228 75:-0.177573 76:-0.091775 77:-0.050171 78:-0.114846 79:-0.3317 80:-0.4084354 81:-0.263784 82:-0.139878 84:-0.06989 85:-0.263975 86:-0.665405 87:-0.046603 88:-0.2353787 89:-0.102253 92:-0.040796 93:-0.056023 94:-0.168633 95:-0.1557754 96:-0.0972361 97:-0.074486 101:-0.014952 102:-0.014982 103:-0.040764 104:-0.042342 105:-0.027653 106:-0.014952 112:-0.021732 113:-0.021365 114:-0.018 121:-0.017556 122:-0.021126 134:-0.018485 135:-0.01594 138:-0.043134 139:-0.029996 140:-0.09331 141:-0.098605 142:-0.071579 143:-0.017934 144:-0.063725 145:-0.182197 146:-0.255619 147:-0.391468 148:-0.187455 149:-0.077681 150:-0.03269 152:-0.053085 153:-0.364504 154:0.8557466 155:1.1667714 156:-0.171326 157:-0.072849 158:-0.032187 161:-0.061848 162:-0.174962 163:0.2686333 164:-0.054582 165:-0.032023 169:-0.015029 170:-0.021431 171:-0.018157 178:-0.019294 179:-0.017308 201:-0.032096 202:-0.043388 203:-0.027179 207:-0.099876 208:-0.135405 209:-0.183154 210:-0.106346 211:-0.037709 215:-0.265739 216:0.2435756 217:0.6228161 218:-0.102856 219:-0.017565 223:-0.049855 224:-0.114025 225:0.173357 226:-0.021452 229:-0.014952 230:-0.021097 
1 1:1.265468 2:1.3680613 3:-0.1225005 4:-0.18187675 5:0.81497225 6:-0.0930205 7:-0.31591775 8:-0.12599825 9:0.61614675 10:-0.10073025 11:0.329139 12:0.41249075 13:-0.054535 14:0.027433 15:-0.2042275 16:-0.1837785 17:-0.225084 18:-0.014952 19:-0.08711 20:-0.167402 21:0.24704975 22:1.1819235 23:-0.021302 24:-0.028883 25:-0.038542 26:-0.023332 27:-0.023412 30:-0.02702 31:-0.198246 32:-0.20143275 33:-0.080912 34:-0.293719 35:-0.14185325 36:0.28676525 37:-0.080866 38:-0.22103325 39:-0.22460425 40:0.39148525 41:1.4228945 42:-0.025787 43:-0.073582 44:-0.114571 45:0.02900575 46:0.17862925 47:0.10535075 49:-0.021708 50:-0.021658 51:-0.041491 52:-0.032279 53:-0.071887 54:-0.095154 55:-0.014952 60:-0.014952 61:-0.017265 62:-0.024647 63:-0.021215 70:-0.065785 71:-0.049974 72:-0.014952 73:-0.048732 74:-0.11430225 75:0.01553125 76:-0.091775 77:-0.050171 78:-0.114846 79:-0.30287025 80:0.1132575 81:0.490302 82:-0.0451865 84:-0.06989 85:-0.26397075 86:-0.17030775 87:0.88493175 88:0.7802645 89:0.0716405 92:-0.040796 93:-0.056023 94:-0.1566025 95:-0.18476 96:-0.115671 97:-0.074486 101:-0.014952 102:-0.014982 103:-0.040764 104:-0.042342 105:-0.027653 106:-0.014952 112:-0.021732 113:-0.021365 114:-0.018 121:-0.017556 122:-0.021126 134:-0.018485 135:-0.01594 138:-0.043134 139:-0.029996 140:-0.09331 141:-0.098605 142:-0.071579 143:-0.017934 144:-0.063725 145:-0.182197 146:-0.24670225 147:-0.05497475 148:-0.08873175 149:-0.077681 150:-0.03269 152:-0.053085 153:-0.36412625 154:-0.37092525 155:0.2418425 156:-0.10426575 157:-0.072849 158:-0.032187 161:-0.061848 162:-0.1636585 163:-0.19088075 164:-0.054582 165:-0.032023 169:-0.015029 170:-0.021431 171:-0.018157 178:-0.019294 179:-0.017308 201:-0.032096 202:-0.043388 203:-0.027179 207:-0.099876 208:-0.135405 209:-0.17753625 210:-0.106346 211:-0.037709 215:-0.25880625 216:0.30546825 217:0.964901 218:-0.102856 219:-0.017565 223:-0.049855 224:-0.114025 225:-0.078862 226:-0.021452 229:-0.014952 230:-0.021097 
0.01284000017819761 1:-0.42203036 2:-0.34198082 3:0.14693482 4:-0.58212564 5:-0.36804045 6:-0.55238382 7:0.18977682 8:-0.59083682 9:-0.405436 10:0.65644555 11:1.2518176 12:-0.070922273 13:-0.054535 14:-0.297912 15:-0.261335 16:-0.302051 17:-0.225084 18:-0.014952 19:-0.08711 20:-0.167402 21:-0.200329 22:-0.248836 23:-0.021302 24:-0.028883 25:-0.038542 26:-0.023332 27:-0.023412 30:-0.02702 31:-0.198246 32:-0.20685 33:-0.080912 34:-0.327191 35:-0.347995 36:-0.26576 37:-0.080866 38:-0.224814 39:-0.529019 40:-0.451394 41:-0.309461 42:-0.025787 43:-0.073582 44:-0.114571 45:-0.17665355 46:-0.13244045 47:-0.19905782 49:-0.021708 50:-0.021658 51:-0.041491 52:-0.032279 53:-0.04221 54:-0.095154 55:-0.014952 60:-0.014952 61:-0.017265 62:-0.024647 63:-0.021215 70:-0.065785 71:-0.049974 72:-0.014952 73:-0.048732 74:-0.173228 75:-0.177573 76:-0.091775 77:-0.050171 78:-0.114846 79:-0.3317 80:-0.408478 81:-0.263784 82:-0.139878 84:-0.06989 85:-0.263975 86:-0.68733991 87:-0.53295845 88:-0.260113 89:-0.102253 92:-0.040796 93:-0.049548545 94:1.4634448 95:0.10448355 96:-0.10484864 97:-0.074486 101:-0.014952 102:-0.014982 103:-0.040764 104:-0.042342 105:-0.027653 106:-0.014952 112:-0.021732 113:-0.021365 114:-0.018 121:-0.017556 122:-0.021126 134:-0.018485 135:-0.01594 138:-0.043134 139:-0.029996 140:-0.09331 141:-0.098605 142:-0.071579 143:-0.017934 144:-0.063725 145:-0.182197 146:-0.255619 147:-0.391468 148:-0.187455 149:-0.077681 150:-0.03269 152:-0.053085 153:-0.14282218 154:0.78199964 155:-0.28978264 156:-0.171326 157:-0.072849 158:-0.032187 161:-0.061848 162:3.6846222 163:-0.089841727 164:-0.054582 165:-0.032023 169:-0.015029 170:-0.021431 171:-0.018157 178:-0.019294 179:-0.017308 201:-0.032096 202:-0.043388 203:-0.027179 207:-0.099876 208:-0.135405 209:-0.183154 210:-0.106346 211:-0.037709 215:1.3024099 216:0.70958836 217:0.57358673 218:-0.102856 219:-0.017565 223:-0.049855 224:-0.10235236 225:-0.078862 226:-0.021452 229:-0.014952 230:-0.021097 
1 1:-0.29959433 2:-0.3713495 3:0.14918967 4:0.37736267 5:0.14671267 6:-0.35634433 7:0.21135967 8:0.3417725 9:0.0578715 10:0.76121967 11:0.52475783 12:0.37237683 13:-0.054535 14:-0.2928335 15:-0.25765033 16:-0.295061 17:-0.225084 18:-0.014952 19:-0.08711 20:-0.167402 21:-0.200329 22:-0.24599233 23:-0.021302 24:-0.028883 25:-0.038542 26:-0.023332 27:-0.023412 30:-0.02702 31:-0.198246 32:-0.20685 33:-0.053978833 34:-0.31622533 35:-0.330981 36:-0.24025983 37:-0.080866 38:-0.17626 39:-0.51072967 40:-0.4467975 41:-0.23602067 42:-0.025787 43:-0.073582 44:-0.114571 45:-0.18451117 46:-0.1040635 47:0.10646283 49:-0.021708 50:-0.021658 51:-0.041491 52:-0.032279 53:-0.071887 54:0.207355 55:-0.014952 60:-0.014952 61:-0.017265 62:-0.024647 63:-0.021215 70:-0.065785 71:-0.049974 72:-0.014952 73:-0.048732 74:-0.173228 75:-0.177573 76:-0.091775 77:-0.050171 78:-0.114846 79:-0.243492 80:-0.30203317 81:-0.18746967 82:-0.13811983 84:-0.06989 85:-0.244678 86:-0.43204267 87:-0.1327095 88:0.6127535 89:0.025102167 92:-0.040796 93:-0.056023 94:-0.1127135 95:0.62841883 96:2.4826607 97:2.702055 101:-0.014952 102:-0.014982 103:-0.040764 104:-0.042342 105:-0.027653 106:-0.014952 112:-0.021732 113:-0.021365 114:-0.018 121:-0.017556 122:-0.021126 134:-0.018485 135:-0.01594 138:-0.043134 139:-0.029996 140:-0.09331 141:-0.098605 142:-0.071579 143:-0.017934 144:-0.063725 145:-0.182197 146:-0.24567433 147:-0.3293555 148:-0.11707283 149:-0.077681 150:-0.03269 152:-0.053085 153:-0.36211917 154:-0.46046117 155:1.5747482 156:2.9664295 157:0.31380633 158:-0.032187 161:-0.061848 162:0.064379 163:5.6963783 164:3.8653608 165:0.60615833 169:-0.015029 170:-0.021431 171:-0.018157 178:-0.019294 179:-0.017308 201:-0.032096 202:-0.043388 203:-0.027179 207:-0.099876 208:-0.1340225 209:-0.17777033 210:-0.095717833 211:-0.037709 215:-0.26400983 216:-0.024295167 217:0.316581 218:0.11970017 219:-0.017565 223:-0.049855 224:-0.114025 225:2.8996322 226:-0.021452 229:-0.014952 230:-0.021097 
1 1:-0.61038775 2:-0.71095712 3:0.46648387 4:-0.22228387 5:-0.234574 6:-0.10114275 7:0.453496 8:-0.14377362 9:-0.21634875 10:0.750975 11:-0.066728875 12:1.6425131 13:-0.054535 14:-0.297912 15:-0.261335 16:-0.302051 17:-0.225084 18:-0.014952 19:-0.08711 20:-0.167402 21:-0.200329 22:-0.248836 23:-0.021302 24:-0.028883 25:-0.038542 26:-0.023332 27:-0.023412 30:-0.02702 31:-0.198246 32:-0.20685 33:-0.080912 34:-0.327191 35:-0.347995 36:-0.26576 37:-0.080866 38:-0.224814 39:-0.529019 40:-0.451394 41:-0.2826535 42:-0.025787 43:-0.073582 44:-0.114571 45:-0.18949 46:-0.160794 47:-0.201557 49:-0.021708 50:-0.021658 51:-0.041491 52:-0.032279 53:-0.071887 54:-0.095154 55:-0.014952 60:-0.014952 61:-0.017265 62:-0.024647 63:-0.021215 70:-0.065785 71:-0.049974 72:-0.014952 73:-0.048732 74:-0.173228 75:-0.177573 76:-0.091775 77:-0.050171 78:-0.114846 79:-0.3317 80:-0.3732925 81:-0.11008625 82:4.2759152 84:-0.06989 85:-0.263975 86:-0.78536775 87:-0.54754762 88:-0.047352875 89:0.76354188 92:-0.040796 93:-0.056023 94:-0.168633 95:-0.188284 96:-0.115671 97:-0.074486 101:-0.014952 102:-0.014982 103:-0.040764 104:-0.042342 105:-0.027653 106:-0.014952 112:-0.021732 113:-0.021365 114:-0.018 121:-0.017556 122:-0.021126 134:-0.018485 135:-0.01594 138:-0.043134 139:-0.029996 140:-0.09331 141:-0.098605 142:-0.071579 143:-0.017934 144:-0.063725 145:-0.182197 146:-0.255619 147:-0.22421463 148:2.6821269 149:15.544466 150:14.742728 152:-0.053085 153:-0.36186513 154:-0.73074675 155:-0.14696562 156:3.4064494 157:3.2662313 158:-0.032187 161:-0.061848 162:-0.174962 163:-0.192699 164:-0.054582 165:-0.032023 169:-0.015029 170:-0.021431 171:-0.018157 178:-0.019294 179:-0.017308 201:-0.032096 202:-0.043388 203:-0.027179 207:-0.099876 208:-0.135405 209:-0.039423375 210:3.2970273 211:1.2454744 215:-0.260977 216:0.51388888 217:1.0506755 218:6.439445 219:-0.017565 223:-0.049855 224:-0.114025 225:-0.078862 226:-0.021452 229:-0.014952 230:-0.021097 
0.9962148770483265 1:-0.16477291 2:-0.270922 3:0.17065027 4:-0.17812618 5:-0.42156509 6:0.23870791 7:0.17047864 8:-0.19589145 9:-0.45312091 10:0.27773836 11:-0.91473818 12:1.5030759 13:-0.054535 14:0.19292636 15:-0.24704555 16:0.034900182 17:0.95949745 18:-0.014952 19:-0.08711 20:-0.167402 21:-0.200329 22:-0.248836 23:-0.021302 24:-0.028883 25:-0.038542 26:-0.023332 27:-0.023412 30:-0.02702 31:0.268417 32:0.28180136 33:-0.080912 34:-0.086764818 35:0.37601545 36:0.83376018 37:-0.080866 38:-0.22366209 39:-0.010501636 40:0.53893945 41:0.88653727 42:-0.025787 43:-0.073582 44:-0.114571 45:-0.18949 46:-0.15766982 47:-0.19934491 49:-0.021708 50:-0.021658 51:-0.041491 52:-0.032279 53:-0.071887 54:-0.095154 55:-0.014952 60:-0.014952 61:-0.017265 62:-0.024647 63:-0.021215 70:-0.065785 71:-0.049974 72:-0.014952 73:-0.048732 74:-0.084715636 75:0.16846827 76:-0.091775 77:-0.050171 78:-0.114846 79:0.22711891 80:1.4010449 81:0.19471209 82:-0.139878 84:-0.06989 85:-0.263975 86:-0.56906 87:0.077237909 88:2.3122146 89:5.3666176 92:-0.040796 93:-0.056023 94:-0.168633 95:-0.188284 96:-0.115671 97:-0.074486 101:-0.014952 102:-0.014982 103:-0.040764 104:-0.042342 105:-0.027653 106:-0.014952 112:-0.021732 113:-0.021365 114:-0.018 121:-0.017556 122:-0.021126 134:-0.018485 135:-0.01594 138:-0.043134 139:-0.029996 140:-0.09331 141:-0.075734909 142:-0.071579 143:-0.017934 144:-0.063725 145:-0.182197 146:-0.060361455 147:0.56124055 148:-0.029949909 149:-0.077681 150:-0.03269 152:-0.053085 153:-0.364504 154:-0.98118073 155:0.40957745 156:4.0625801 157:3.1777257 158:4.7247834 161:-0.061848 162:-0.174962 163:-0.192699 164:-0.054582 165:-0.032023 169:-0.015029 170:-0.021431 171:-0.018157 178:-0.019294 179:-0.017308 201:-0.032096 202:-0.043388 203:-0.027179 207:-0.099876 208:-0.12433464 209:-0.16660573 210:-0.029244182 211:-0.037709 215:-0.265739 216:-0.74507618 217:0.31607927 218:7.9899639 219:0.10923464 223:-0.049855 224:-0.114025 225:-0.078862 226:-0.021452 229:-0.014952 230:-0.021097 
0.931434142033118 1:-0.2104855 2:-0.1636065 3:0.10570075 4:0.0605985 5:-0.1570345 6:-0.63186125 7:0.12372175 8:0.10682075 9:0.651266 10:0.01186125 11:-0.100327 12:0.910193 13:-0.054535 14:-0.21705425 15:-0.257728 16:-0.22255775 17:-0.122781 18:-0.014952 19:-0.08711 20:-0.16450475 21:-0.199381 22:-0.09646525 23:-0.021302 24:-0.028883 25:-0.038542 26:-0.023332 27:-0.023412 30:-0.02702 31:-0.198246 32:0.15166625 33:-0.080912 34:-0.325587 35:-0.24005175 36:0.90498 37:-0.080866 38:-0.224814 39:-0.21264625 40:-0.20511075 41:-0.09914575 42:-0.025787 43:-0.073582 44:-0.114571 45:-0.15117675 46:-0.13968825 47:-0.201557 49:-0.021708 50:-0.021658 51:-0.041491 52:-0.032279 53:-0.071887 54:-0.095154 55:-0.014952 60:-0.014952 61:-0.017265 62:-0.024647 63:-0.021215 70:-0.065785 71:-0.049974 72:-0.014952 73:-0.048732 74:-0.173228 75:-0.164803 76:-0.0801755 77:-0.050171 78:-0.114846 79:-0.25353375 80:0.489657 81:0.97441325 82:0.0178265 84:-0.06989 85:-0.26238175 86:-0.36228425 87:-0.14899175 88:-0.09712925 89:-0.102253 92:-0.040796 93:-0.05345625 94:-0.16491025 95:-0.185831 96:-0.115671 97:-0.074486 101:-0.014952 102:-0.014982 103:-0.040764 104:-0.042342 105:-0.027653 106:-0.014952 112:-0.021732 113:-0.021365 114:-0.018 121:-0.017556 122:-0.021126 134:-0.018485 135:-0.01594 138:-0.043134 139:-0.029996 140:-0.09331 141:-0.098605 142:-0.071579 143:-0.017934 144:-0.063725 145:-0.182197 146:-0.2512575 147:1.5872548 148:0.55992675 149:-0.068492 150:-0.03269 152:-0.053085 153:-0.364504 154:-0.72137775 155:1.6147335 156:0.701419 157:-0.072849 158:-0.032187 161:-0.061848 162:-0.1462345 163:-0.19256675 164:-0.054582 165:-0.032023 169:-0.015029 170:-0.021431 171:-0.018157 178:-0.019294 179:-0.017308 201:-0.032096 202:-0.043388 203:-0.027179 207:-0.099876 208:-0.135405 209:-0.130317 210:-0.10586 211:-0.037709 215:-0.265739 216:-0.69275225 217:1.0716188 218:-0.10273 219:-0.017565 223:-0.049855 224:-0.114025 225:-0.078862 226:-0.021452 229:-0.014952 230:-0.021097 
1 1:0.04565925 2:-0.071632 3:0.22199525 4:-0.48591675 5:0.7450345 6:-1.26362 7:0.220224 8:-0.49804175 9:0.6463905 10:0.6100225 11:-0.07274875 12:0.53759125 13:-0.054535 14:-0.297912 15:-0.2601555 16:-0.296548 17:-0.212371 18:-0.014952 19:-0.08711 20:-0.16520125 21:-0.200329 22:-0.2438335 23:-0.021302 24:-0.028883 25:-0.038542 26:-0.023332 27:-0.023412 30:-0.02702 31:-0.198246 32:-0.20685 33:-0.080912 34:-0.31624475 35:-0.325491 36:-0.26576 37:-0.080866 38:-0.224344 39:-0.498618 40:-0.42466525 41:-0.20512575 42:-0.025787 43:-0.073582 44:-0.114571 45:-0.18949 46:-0.160794 47:-0.19074675 49:-0.021708 50:-0.021658 51:-0.041491 52:-0.032279 53:-0.071887 54:-0.095154 55:-0.014952 60:-0.014952 61:-0.017265 62:-0.024647 63:-0.021215 70:-0.065785 71:-0.049974 72:-0.014952 73:-0.048732 74:-0.173228 75:-0.177573 76:-0.091775 77:-0.050171 78:-0.114846 79:-0.3317 80:-0.40643475 81:-0.2237315 82:0.28682525 84:-0.06989 85:-0.263975 86:-0.77272525 87:-0.53777225 88:-0.0424865 89:0.353016 92:-0.040796 93:-0.056023 94:-0.1681545 95:-0.188284 96:-0.115671 97:-0.074486 101:-0.014952 102:-0.014982 103:-0.040764 104:-0.042342 105:-0.027653 106:-0.014952 112:-0.021732 113:-0.021365 114:-0.018 121:-0.017556 122:-0.021126 134:-0.018485 135:-0.01594 138:-0.043134 139:-0.029996 140:-0.09331 141:-0.098605 142:-0.071579 143:-0.017934 144:-0.063725 145:-0.182197 146:-0.255619 147:-0.3901705 148:-0.16278375 149:0.04597575 150:-0.03269 152:-0.053085 153:0.5771065 154:-1.0147062 155:-0.4393905 156:0.3238175 157:0.195955 158:-0.032187 161:-0.061848 162:-0.174962 163:-0.192699 164:-0.054582 165:-0.032023 169:-0.015029 170:-0.021431 171:-0.018157 178:-0.019294 179:-0.017308 201:-0.032096 202:-0.043388 203:-0.027179 207:-0.099876 208:-0.135405 209:-0.08669075 210:2.5042505 211:-0.037709 215:6.91614 216:-0.69975075 217:2.1535785 218:7.0043975 219:-0.017565 223:-0.049855 224:-0.114025 225:-0.078862 226:-0.021452 229:-0.014952 230:-0.021097 
0.817896368625875 1:-0.24320631 2:-0.12458169 3:0.089416538 4:-0.12508131 5:-0.55268462 6:-0.23598431 7:0.071468231 8:-0.13776115 9:-0.54178346 10:0.65049508 11:0.28851815 12:0.26928023 13:-0.054535 14:-0.297912 15:-0.261335 16:-0.302051 17:-0.225084 18:-0.014952 19:-0.08711 20:-0.167402 21:-0.200329 22:-0.21596423 23:-0.021302 24:-0.028883 25:-0.038542 26:-0.023332 27:-0.023412 30:-0.02702 31:1.3780591 32:0.49047508 33:-0.080912 34:-0.327191 35:-0.19537 36:-0.23822946 37:-0.080866 38:-0.224814 39:-0.52419385 40:-0.39102415 41:-0.15263638 42:-0.025787 43:-0.073582 44:-0.114571 45:-0.18867362 46:-0.13798823 47:-0.14563108 49:-0.021708 50:-0.021658 51:-0.041491 52:-0.032279 53:-0.071887 54:-0.095154 55:-0.014952 60:-0.014952 61:-0.017265 62:-0.024647 63:-0.021215 70:-0.065785 71:-0.049974 72:-0.014952 73:-0.048732 74:1.8766715 75:1.4595523 76:-0.091775 77:-0.050171 78:-0.114846 79:-0.31059438 80:0.38133562 81:0.15122238 82:-0.139878 84:-0.06989 85:-0.26263185 86:-0.50354862 87:-0.41974123 88:-0.23982177 89:-0.102253 92:-0.040796 93:-0.056023 94:-0.14118685 95:-0.18428462 96:-0.115671 97:-0.074486 101:-0.014952 102:-0.014982 103:-0.040764 104:-0.042342 105:-0.027653 106:-0.014952 112:-0.021732 113:-0.021365 114:-0.018 121:-0.017556 122:-0.021126 134:-0.018485 135:-0.01594 138:-0.043134 139:-0.029996 140:-0.09331 141:-0.042724154 142:-0.071579 143:-0.017934 144:-0.063725 145:-0.182197 146:-0.25533585 147:0.29717046 148:0.14284685 149:-0.077681 150:-0.03269 152:-0.053085 153:0.009891 154:0.063030154 155:-0.24994385 156:-0.16948146 157:-0.072849 158:-0.032187 161:0.21048823 162:-0.14223015 163:-0.19224469 164:-0.054582 165:-0.032023 169:-0.015029 170:-0.021431 171:-0.018157 178:-0.019294 179:-0.017308 201:-0.032096 202:-0.043388 203:-0.027179 207:-0.099876 208:-0.135405 209:-0.182969 210:-0.106346 211:-0.037709 215:0.96115308 216:0.028897077 217:1.6718689 218:-0.102856 219:-0.017565 223:4.6378788 224:-0.10054608 225:-0.078862 226:-0.021452 229:-0.014952 230:-0.021097 
1 1:-0.0448357 2:-0.1153626 3:-0.5112595 4:0.5173386 5:-0.4785672 6:-0.4527534 7:-0.5032059 8:0.5397675 9:-0.3407564 10:0.6810894 11:-1.0170422 12:-0.206719 13:-0.054535 14:-0.297912 15:-0.261335 16:-0.302051 17:-0.1731349 18:-0.014952 19:-0.08711 20:-0.167402 21:-0.200329 22:-0.240674 23:-0.021302 24:-0.028883 25:-0.038542 26:-0.023332 27:-0.023412 30:-0.02702 31:-0.1861973 32:-0.1501287 33:-0.0623344 34:-0.3189605 35:-0.342743 36:0.0088278 37:-0.080866 38:-0.224814 39:-0.5287848 40:-0.3831625 41:0.8909383 42:-0.025787 43:-0.073582 44:-0.114571 45:-0.18949 46:-0.142676 47:-0.201557 49:-0.021708 50:-0.021658 51:-0.041491 52:-0.032279 53:-0.071887 54:-0.095154 55:-0.014952 60:-0.014952 61:-0.017265 62:-0.024647 63:-0.021215 70:-0.065785 71:-0.049974 72:-0.014952 73:-0.048732 74:-0.171353 75:-0.1526866 76:-0.091775 77:-0.050171 78:-0.0811599 79:-0.1192887 80:-0.1473926 81:0.4706556 82:0.1229536 84:-0.06989 85:-0.25993 86:-0.7531628 87:0.1290196 88:2.6428388 89:0.1088326 92:-0.040796 93:-0.056023 94:-0.168633 95:-0.188284 96:-0.115671 97:-0.074486 101:-0.014952 102:-0.014982 103:-0.040764 104:-0.042342 105:-0.027653 106:-0.014952 112:-0.021732 113:-0.021365 114:-0.018 121:-0.017556 122:-0.021126 134:-0.018485 135:-0.01594 138:-0.043134 139:-0.029996 140:-0.09331 141:-0.098605 142:-0.071579 143:-0.017934 144:-0.045519 145:1.378673 146:0.8095724 147:0.0045234 148:-0.0871359 149:-0.077681 150:-0.03269 152:-0.053085 153:-0.1600903 154:-0.7009553 155:0.5213303 156:0.8777137 157:0.1441386 158:-0.032187 161:-0.061848 162:-0.174962 163:-0.192699 164:-0.054582 165:-0.032023 169:-0.015029 170:-0.021431 171:-0.018157 178:-0.019294 179:-0.017308 201:-0.032096 202:-0.043388 203:-0.027179 207:6.1931781 208:2.0326333 209:-0.1778118 210:-0.106346 211:-0.037709 215:0.1850177 216:-0.6090259 217:0.5556892 218:0.4703156 219:-0.017565 223:-0.049855 224:-0.114025 225:-0.078862 226:-0.021452 229:-0.014952 230:-0.021097 
1 1:-0.481458 2:-0.2955684 3:-0.1177726 4:-0.1012424 5:0.3030372 6:0.2791682 7:-0.1850804 8:-0.1470592 9:0.2565592 10:0.1451732 11:0.2224378 12:1.6115044 13:-0.054535 14:-0.297912 15:-0.261335 16:-0.2987114 17:-0.1857094 18:-0.014952 19:-0.08711 20:-0.167402 21:-0.200329 22:-0.2336564 23:-0.021302 24:-0.028883 25:-0.038542 26:-0.023332 27:-0.023412 30:-0.02702 31:-0.198246 32:-0.20685 33:-0.080912 34:-0.327191 35:-0.3457578 36:-0.26576 37:-0.080866 38:-0.224814 39:-0.4678336 40:0.08719 41:0.6561854 42:-0.025787 43:-0.073582 44:-0.114571 45:-0.18949 46:-0.1553796 47:-0.201557 49:-0.021708 50:-0.021658 51:-0.041491 52:-0.032279 53:-0.071887 54:-0.095154 55:-0.014952 60:-0.014952 61:-0.017265 62:-0.024647 63:-0.021215 70:-0.065785 71:-0.049974 72:-0.014952 73:-0.048732 74:-0.173228 75:-0.177573 76:-0.091775 77:-0.050171 78:-0.114846 79:-0.3317 80:-0.408478 81:-0.263784 82:-0.139878 84:-0.06989 85:-0.263975 86:-0.7540706 87:1.0618002 88:4.5904198 89:0.6049112 92:-0.040796 93:-0.056023 94:-0.168633 95:-0.1882012 96:-0.115671 97:-0.074486 101:-0.014952 102:-0.014982 103:-0.040764 104:-0.042342 105:-0.027653 106:-0.014952 112:-0.021732 113:-0.021365 114:-0.018 121:-0.017556 122:-0.021126 134:-0.018485 135:-0.01594 138:-0.043134 139:-0.029996 140:-0.09331 141:-0.098605 142:-0.071579 143:-0.017934 144:-0.063725 145:-0.182197 146:-0.255619 147:-0.391468 148:-0.187455 149:-0.077681 150:-0.03269 152:-0.053085 153:-0.364173 154:-0.4372956 155:2.67453 156:5.841256 157:-0.0334642 158:-0.032187 161:-0.061848 162:-0.174962 163:-0.192699 164:-0.054582 165:-0.032023 169:-0.015029 170:-0.021431 171:-0.018157 178:-0.019294 179:-0.017308 201:-0.032096 202:-0.043388 203:-0.027179 207:-0.099876 208:-0.135405 209:-0.183154 210:-0.106346 211:-0.037709 215:-0.2656188 216:-0.585781 217:-0.138096 218:-0.0174386 219:-0.017565 223:-0.049855 224:-0.114025 225:-0.078862 226:-0.021452 229:-0.014952 230:-0.021097 
1 1:-0.1482664 2:-0.2416025 3:-0.1016041 4:-0.0380878 5:-0.2463881 6:0.1530667 7:-0.1067811 8:-0.0846684 9:-0.3336502 10:0.1028289 11:-0.4228253 12:0.7246924 13:-0.054535 14:-0.297912 15:-0.261335 16:-0.2974664 17:-0.225084 18:-0.014952 19:-0.08711 20:-0.167402 21:-0.200329 22:-0.248836 23:-0.021302 24:-0.028883 25:-0.038542 26:-0.023332 27:-0.023412 30:-0.02702 31:-0.198246 32:-0.20685 33:-0.080912 34:-0.324 35:-0.345682 36:-0.2178058 37:-0.080866 38:-0.224814 39:-0.2466151 40:-0.3700907 41:-0.2691125 42:-0.025787 43:-0.073582 44:-0.114571 45:-0.18949 46:-0.1574033 47:-0.1950604 49:-0.021708 50:-0.021658 51:-0.041491 52:-0.032279 53:-0.071887 54:-0.095154 55:-0.014952 60:-0.014952 61:-0.017265 62:-0.024647 63:-0.021215 70:-0.065785 71:-0.049974 72:-0.014952 73:-0.048732 74:-0.173228 75:-0.177573 76:-0.091775 77:-0.050171 78:-0.114846 79:-0.3299222 80:-0.3473288 81:-0.198468 82:-0.139878 84:-0.06989 85:-0.263975 86:-0.2079094 87:-0.3293395 88:-0.0719386 89:0.025481 92:-0.040796 93:-0.056023 94:-0.168633 95:-0.1879334 96:-0.115671 97:-0.074486 101:-0.014952 102:-0.014982 103:-0.040764 104:-0.042342 105:-0.027653 106:-0.014952 112:-0.021732 113:-0.021365 114:-0.018 121:-0.017556 122:-0.021126 134:-0.018485 135:-0.01594 138:-0.043134 139:-0.029996 140:-0.09331 141:-0.098605 142:-0.071579 143:-0.017934 144:-0.063725 145:-0.182197 146:-0.255619 147:0.4964832 148:-0.0694721 149:-0.077681 150:-0.03269 152:-0.053085 153:-0.364504 154:-0.4098704 155:1.5077796 156:0.4290293 157:-0.072849 158:-0.032187 161:-0.061848 162:-0.1569697 163:-0.1692286 164:-0.054582 165:-0.032023 169:-0.015029 170:-0.021431 171:-0.018157 178:-0.019294 179:-0.017308 201:-0.032096 202:-0.043388 203:-0.027179 207:-0.099876 208:-0.135405 209:-0.1829209 210:-0.106346 211:-0.037709 215:-0.265739 216:0.6685839 217:-0.2785053 218:-0.102856 219:-0.017565 223:-0.049855 224:-0.0497527 225:-0.078862 226:-0.021452 229:-0.014952 230:-0.021097 
1 1:-0.69217017 2:-0.50481017 3:-0.67186717 4:0.19529267 5:0.46818783 6:0.98052133 7:-0.68486717 8:0.16994117 9:0.10728567 10:-0.31861733 11:-0.184642 12:-0.50758817 13:-0.054535 14:-0.16788583 15:-0.20796467 16:-0.0992975 17:0.178263 18:-0.014952 19:-0.08711 20:-0.167402 21:-0.200329 22:-0.248836 23:-0.021302 24:-0.028883 25:-0.038542 26:-0.023332 27:-0.023412 30:-0.02702 31:-0.198246 32:-0.20685 33:-0.080912 34:0.013091833 35:-0.310099 36:-0.26576 37:-0.080866 38:-0.18704333 39:0.14228917 40:-0.27233833 41:-0.30858833 42:-0.025787 43:-0.073582 44:-0.114571 45:-0.18949 46:-0.160794 47:-0.201557 49:-0.021708 50:-0.021658 51:-0.041491 52:-0.032279 53:-0.071887 54:-0.095154 55:-0.014952 60:-0.014952 61:-0.017265 62:-0.024647 63:-0.021215 70:-0.065785 71:-0.049974 72:-0.014952 73:-0.048732 74:-0.173228 75:-0.177573 76:-0.091775 77:-0.050171 78:-0.114846 79:-0.149837 80:-0.408478 81:-0.263784 82:-0.139878 84:-0.06989 85:-0.24974233 86:-0.52863017 87:-0.58871767 88:-0.260113 89:-0.102253 92:-0.040796 93:-0.056023 94:-0.168633 95:-0.188284 96:-0.115671 97:-0.074486 101:-0.014952 102:-0.014982 103:-0.040764 104:-0.042342 105:-0.027653 106:-0.014952 112:-0.021732 113:-0.021365 114:-0.018 121:-0.017556 122:-0.021126 134:-0.018485 135:-0.01594 138:-0.043134 139:-0.029996 140:-0.09331 141:-0.098605 142:-0.071579 143:-0.017934 144:-0.063725 145:-0.182197 146:-0.19881983 147:-0.391468 148:-0.187455 149:-0.077681 150:-0.03269 152:-0.053085 153:-0.24933367 154:-0.3418275 155:-0.64967633 156:-0.171326 157:-0.072849 158:-0.032187 161:-0.061848 162:-0.174962 163:-0.192699 164:-0.054582 165:-0.032023 169:-0.015029 170:-0.021431 171:-0.018157 178:-0.019294 179:-0.017308 201:-0.032096 202:-0.043388 203:-0.027179 207:-0.099876 208:-0.135405 209:-0.183154 210:-0.106346 211:-0.037709 215:1.3885107 216:2.0677417 217:-0.412626 218:-0.102856 219:-0.017565 223:-0.049855 224:-0.114025 225:-0.078862 226:-0.021452 229:-0.014952 230:-0.021097 
1 1:-0.1265256 2:0.0206606 3:-0.7488464 4:0.9560972 5:0.3266982 6:0.215696 7:-0.7945692 8:0.986607 9:0.255236 10:0.3724516 11:0.2952846 12:0.0897322 13:-0.054535 14:-0.0913102 15:-0.2231134 16:-0.251435 17:-0.0650486 18:-0.014952 19:-0.08711 20:-0.167402 21:-0.1866444 22:-0.1045606 23:-0.021302 24:-0.028883 25:-0.038542 26:-0.023332 27:-0.023412 30:-0.02702 31:-0.169735 32:-0.20685 33:0.0600384 34:-0.128377 35:-0.1249336 36:-0.2337334 37:-0.080866 38:-0.124777 39:-0.122192 40:-0.1728506 41:-0.1062538 42:-0.025787 43:-0.073582 44:-0.114571 45:-0.174904 46:-0.1481486 47:-0.201557 49:-0.021708 50:-0.021658 51:-0.041491 52:-0.032279 53:-0.071887 54:-0.095154 55:-0.014952 60:-0.014952 61:-0.017265 62:-0.024647 63:-0.021215 70:-0.065785 71:-0.049974 72:-0.014952 73:-0.048732 74:-0.079789 75:-0.145266 76:-0.091775 77:-0.050171 78:-0.114846 79:-0.2053216 80:0.7711686 81:-0.2412942 82:-0.139878 84:-0.06989 85:-0.1114558 86:0.2424692 87:-0.3439278 88:-0.2385954 89:-0.102253 92:-0.040796 93:-0.056023 94:-0.1055438 95:-0.1875522 96:-0.115671 97:-0.074486 101:-0.014952 102:-0.014982 103:-0.040764 104:-0.042342 105:-0.027653 106:-0.014952 112:-0.021732 113:-0.021365 114:-0.018 121:-0.017556 122:-0.021126 134:-0.018485 135:-0.01594 138:-0.043134 139:-0.029996 140:-0.09331 141:-0.098605 142:-0.071579 143:-0.017934 144:-0.063725 145:-0.182197 146:-0.2454948 147:-0.2592456 148:-0.187455 149:-0.077681 150:-0.03269 152:-0.053085 153:-0.1742156 154:0.447788 155:-0.5711692 156:-0.171326 157:-0.072849 158:-0.032187 161:-0.061848 162:0.3228796 163:-0.1886422 164:-0.054582 165:-0.032023 169:-0.015029 170:-0.021431 171:-0.018157 178:-0.019294 179:-0.017308 201:-0.032096 202:-0.043388 203:-0.027179 207:-0.099876 208:-0.135405 209:-0.183154 210:-0.106346 211:-0.037709 215:-0.1637336 216:0.7152452 217:-0.398647 218:-0.102856 219:-0.017565 223:-0.049855 224:7.081014 225:-0.078862 226:-0.021452 229:-0.014952 230:-0.021097 
0.4137911591588189 1:0.16612889 2:0.19741056 3:-0.14128022 4:-0.21189456 5:-0.244165 6:-0.29681122 7:-0.19897856 8:-0.19295378 9:-0.266441 10:0.28803689 11:0.95978967 12:0.28109856 13:-0.054535 14:-0.12947656 15:-0.012627778 16:0.067720556 17:0.14944767 18:-0.014952 19:-0.08711 20:-0.167402 21:-0.17921856 22:1.4978948 23:-0.021302 24:-0.028883 25:-0.038542 26:-0.023332 27:-0.023412 30:-0.02702 31:-0.198246 32:-0.20685 33:-0.080912 34:-0.327191 35:-0.32770989 36:-0.26576 37:-0.080866 38:0.065198778 39:0.19248611 40:0.447092 41:0.657964 42:-0.025787 43:-0.073582 44:-0.114571 45:-0.016945333 46:0.66978478 47:2.9955952 49:-0.021708 50:-0.021658 51:-0.041491 52:-0.032279 53:-0.071887 54:-0.095154 55:-0.014952 60:-0.014952 61:-0.017265 62:-0.024647 63:-0.021215 70:-0.065785 71:-0.049974 72:-0.014952 73:-0.048732 74:-0.173228 75:-0.177573 76:-0.091775 77:-0.050171 78:-0.114846 79:-0.3317 80:-0.40509222 81:-0.22925156 82:-0.10703544 84:-0.06989 85:-0.23083633 86:-0.34657167 87:0.316857 88:0.87091233 89:-0.020057222 92:-0.040796 93:-0.055280778 94:-0.079273111 95:0.11288678 96:-0.040908889 97:-0.074486 101:-0.014952 102:-0.014982 103:-0.040764 104:-0.042342 105:-0.027653 106:-0.014952 112:-0.021732 113:-0.021365 114:-0.018 121:-0.017556 122:-0.021126 134:-0.018485 135:-0.01594 138:-0.043134 139:-0.029996 140:-0.09331 141:-0.098605 142:-0.071579 143:-0.017934 144:-0.063725 145:-0.182197 146:-0.255619 147:-0.39102633 148:-0.187455 149:-0.077681 150:-0.03269 152:-0.053085 153:-0.23471856 154:-0.25450922 155:1.5039352 156:0.31887944 157:-0.072849 158:-0.032187 161:-0.047019889 162:-0.16279322 163:-0.067195889 164:-0.052858222 165:-0.032023 169:-0.015029 170:-0.021431 171:-0.018157 178:-0.019294 179:-0.017308 201:-0.032096 202:-0.043388 203:-0.027179 207:-0.099876 208:-0.135405 209:-0.183154 210:-0.106346 211:-0.037709 215:0.91335878 216:-0.38838678 217:0.28943611 218:-0.10279911 219:-0.017565 223:0.043647 224:-0.114025 225:-0.078862 226:-0.021452 229:-0.014952 230:-0.021097 
1 1:-0.14619508 2:-0.023366462 3:-0.124835 4:-0.25605077 5:-0.47778954 6:0.15906492 7:-0.11920869 8:-0.25029854 9:-0.56019092 10:0.204685 11:0.62285469 12:-0.75578215 13:-0.054535 14:-0.297912 15:-0.25726908 16:-0.29814492 17:-0.225084 18:-0.014952 19:-0.08711 20:-0.16694708 21:-0.200329 22:-0.248836 23:-0.021302 24:-0.028883 25:-0.038542 26:-0.023332 27:-0.023412 30:-0.02702 31:-0.198246 32:-0.20685 33:-0.080912 34:-0.327191 35:-0.347995 36:-0.26576 37:-0.080412923 38:0.050689846 39:-0.38367654 40:-0.44659177 41:-0.309461 42:-0.025787 43:-0.041572462 44:-0.052538231 45:-0.17594931 46:-0.160794 47:-0.201557 49:-0.021708 50:-0.021658 51:-0.041491 52:-0.032279 53:-0.071887 54:-0.095154 55:-0.014952 60:-0.014952 61:-0.017265 62:-0.024647 63:-0.021215 70:-0.065785 71:-0.049974 72:-0.014952 73:-0.048732 74:-0.173228 75:-0.177573 76:-0.091775 77:-0.050171 78:-0.114846 79:-0.32879915 80:-0.408478 81:-0.263784 82:-0.139878 84:-0.06989 85:0.19580608 86:0.11881608 87:-0.58802162 88:-0.260113 89:-0.102253 92:-0.040796 93:-0.054203923 94:-0.14850323 95:-0.188284 96:-0.115671 97:-0.074486 101:-0.014952 102:-0.014982 103:-0.040764 104:-0.042342 105:-0.027653 106:-0.014952 112:-0.021732 113:-0.021365 114:-0.018 121:-0.017556 122:-0.021126 134:-0.018485 135:-0.01594 138:-0.043134 139:-0.029996 140:-0.09331 141:-0.098605 142:-0.071579 143:-0.017934 144:-0.063725 145:-0.182197 146:-0.255619 147:-0.391468 148:-0.187455 149:-0.077681 150:-0.03269 152:-0.053085 153:0.49417823 154:0.536204 155:-0.62038546 156:-0.171326 157:-0.072849 158:-0.032187 161:0.020582077 162:-0.17291923 163:-0.192699 164:-0.054582 165:-0.032023 169:-0.015029 170:-0.021431 171:-0.018157 178:-0.019294 179:-0.017308 201:-0.032096 202:-0.043388 203:-0.027179 207:-0.099876 208:-0.135405 209:-0.183154 210:-0.106346 211:-0.037709 215:-0.263386 216:1.1731333 217:-0.34850062 218:-0.102856 219:-0.017565 223:-0.049855 224:-0.114025 225:-0.078862 226:-0.021452 229:-0.014952 230:-0.021097 
1 1:-0.094630273 2:-0.23280482 3:0.54302445 4:-0.036579909 5:-0.62421227 6:-0.039711455 7:0.58063864 8:-0.034695182 9:-0.40116909 10:-0.0046853636 11:-0.12622009 12:0.65859755 13:-0.054535 14:-0.297912 15:-0.261335 16:-0.302051 17:-0.225084 18:-0.014952 19:-0.08711 20:-0.167402 21:-0.200329 22:-0.248836 23:-0.021302 24:-0.028883 25:-0.038542 26:-0.023332 27:-0.023412 30:-0.02702 31:-0.198246 32:-0.20685 33:-0.080912 34:-0.327191 35:-0.347995 36:-0.26576 37:-0.080866 38:-0.224814 39:-0.51513273 40:-0.451394 41:-0.309461 42:-0.025787 43:-0.073582 44:-0.095522273 45:0.15480564 46:-0.15960073 47:-0.20147418 49:-0.021708 50:-0.021658 51:-0.041491 52:-0.032279 53:-0.071887 54:-0.095154 55:-0.014952 60:-0.014952 61:-0.017265 62:-0.024647 63:-0.021215 70:-0.065785 71:-0.049974 72:-0.014952 73:-0.048732 74:-0.173228 75:-0.17747891 76:-0.091775 77:-0.050171 78:-0.114846 79:-0.33116118 80:-0.36865836 81:-0.24964073 82:-0.139878 84:-0.06989 85:-0.26352345 86:-0.13298609 87:-0.50050473 88:-0.050652091 89:-0.094925 92:-0.040796 93:-0.055688273 94:2.1661125 95:-0.18699382 96:-0.083155364 97:-0.040434091 101:-0.014952 102:-0.014982 103:-0.040764 104:-0.042342 105:-0.027653 106:-0.014952 112:-0.021732 113:-0.021365 114:-0.018 121:-0.017556 122:-0.021126 134:-0.018485 135:-0.01594 138:-0.043134 139:-0.029996 140:-0.09331 141:-0.098605 142:-0.071579 143:-0.017934 144:-0.063725 145:-0.182197 146:-0.23787155 147:0.63496482 148:-0.082681727 149:-0.077681 150:-0.03269 152:-0.053085 153:-0.364504 154:-0.56470709 155:2.557743 156:1.4274125 157:-0.072849 158:-0.032187 161:-0.061848 162:0.90634855 163:-0.15687891 164:-0.054582 165:-0.032023 169:-0.015029 170:-0.021431 171:-0.018157 178:-0.019294 179:-0.017308 201:-0.032096 202:-0.043388 203:-0.027179 207:-0.099876 208:-0.135405 209:-0.18210973 210:-0.106346 211:-0.037709 215:-0.265739 216:-0.20066636 217:-0.037362091 218:-0.102856 219:-0.017565 223:-0.049855 224:-0.114025 225:-0.078862 226:-0.021452 229:-0.014952 230:-0.021097 
1 1:-0.35513575 2:-0.3403445 3:0.01138575 4:0.51726 5:0.415343 6:-0.7253995 7:-0.05396725 8:0.5618965 9:0.62276025 10:0.535589 11:1.0266375 12:-0.68084425 13:-0.054535 14:-0.297912 15:-0.20532475 16:-0.2739395 17:-0.225084 18:-0.014952 19:-0.08711 20:-0.1488125 21:0.38343075 22:0.56276375 23:-0.021302 24:-0.028883 25:-0.038542 26:-0.023332 27:-0.023412 30:-0.02702 31:-0.198246 32:-0.20685 33:-0.080912 34:-0.327191 35:-0.347995 36:-0.26576 37:-0.080866 38:-0.1844485 39:-0.30162925 40:-0.2721285 41:-0.1169145 42:-0.025787 43:-0.073582 44:-0.092111 45:0.286092 46:0.7174905 47:3.3514707 49:-0.021708 50:-0.021658 51:-0.041491 52:-0.032279 53:-0.071887 54:0.0070245 55:-0.014952 60:-0.014952 61:-0.017265 62:-0.024647 63:-0.021215 70:-0.065785 71:-0.049974 72:-0.014952 73:-0.048732 74:-0.173228 75:-0.177573 76:-0.091775 77:-0.050171 78:-0.114846 79:-0.3317 80:-0.408478 81:-0.263784 82:-0.139878 84:-0.06989 85:-0.26325825 86:-0.57818525 87:-0.101911 88:-0.17535 89:-0.102253 92:-0.040796 93:-0.056023 94:0.03441475 95:0.4839025 96:0.10677575 97:0.00528025 101:-0.014952 102:-0.014982 103:-0.040764 104:-0.042342 105:-0.027653 106:-0.014952 112:-0.021732 113:-0.021365 114:-0.018 121:-0.017556 122:-0.021126 134:-0.018485 135:-0.01594 138:-0.043134 139:-0.029996 140:-0.09331 141:-0.098605 142:-0.071579 143:-0.017934 144:-0.063725 145:-0.182197 146:-0.255619 147:-0.391468 148:-0.187455 149:-0.077681 150:-0.03269 152:-0.053085 153:0.765911 154:0.0002685 155:1.1540138 156:-0.1636065 157:-0.072849 158:-0.032187 161:1.5194785 162:-0.0788135 163:0.24817625 164:-0.054582 165:-0.032023 169:-0.015029 170:-0.021431 171:-0.018157 178:-0.019294 179:-0.017308 201:-0.032096 202:-0.043388 203:-0.027179 207:-0.099876 208:-0.135405 209:-0.183154 210:-0.106346 211:-0.037709 215:2.718722 216:-0.44730125 217:0.051181 218:-0.102856 219:-0.017565 223:17.564111 224:-0.10759125 225:-0.078862 226:-0.021452 229:-0.014952 230:-0.021097 
0.3877675537669946 1:-0.6220766 2:-0.4133804 3:0.4417198 4:-0.4976632 5:-0.1588996 6:-1.0897044 7:0.4223042 8:-0.5724614 9:0.268723 10:0.6786348 11:0.9592896 12:0.3410722 13:-0.054535 14:-0.297912 15:-0.261335 16:-0.302051 17:-0.225084 18:-0.014952 19:-0.08711 20:-0.167402 21:-0.200329 22:-0.248836 23:-0.021302 24:-0.028883 25:-0.038542 26:-0.023332 27:-0.023412 30:-0.02702 31:-0.198246 32:-0.20685 33:-0.080912 34:-0.327191 35:-0.347995 36:-0.26576 37:-0.080866 38:-0.224814 39:-0.529019 40:-0.451394 41:-0.309461 42:-0.025787 43:-0.073582 44:-0.114571 45:-0.1879702 46:-0.1566902 47:-0.201557 49:-0.021708 50:-0.021658 51:-0.041491 52:-0.032279 53:-0.071887 54:-0.095154 55:-0.014952 60:-0.014952 61:-0.017265 62:-0.024647 63:-0.021215 70:-0.065785 71:-0.049974 72:-0.014952 73:-0.048732 74:-0.173228 75:-0.177573 76:-0.091775 77:-0.050171 78:-0.114846 79:-0.3317 80:-0.408478 81:-0.263784 82:-0.139878 84:-0.06989 85:-0.263975 86:-0.775724 87:-0.5688734 88:-0.260113 89:-0.102253 92:-0.040796 93:-0.056023 94:-0.0888956 95:-0.1700414 96:-0.115671 97:-0.074486 101:-0.014952 102:-0.014982 103:-0.040764 104:-0.042342 105:-0.027653 106:-0.014952 112:-0.021732 113:-0.021365 114:-0.018 121:-0.017556 122:-0.021126 134:-0.018485 135:-0.01594 138:-0.043134 139:-0.029996 140:-0.09331 141:-0.098605 142:-0.071579 143:-0.017934 144:-0.063725 145:-0.182197 146:-0.255619 147:-0.391468 148:-0.187455 149:-0.077681 150:-0.03269 152:-0.053085 153:-0.364504 154:-0.7039218 155:-0.1079866 156:-0.171326 157:-0.072849 158:-0.032187 161:-0.061848 162:2.7427376 163:-0.0548186 164:-0.054582 165:-0.032023 169:-0.015029 170:-0.021431 171:-0.018157 178:-0.019294 179:-0.017308 201:-0.032096 202:-0.043388 203:-0.027179 207:-0.099876 208:-0.135405 209:-0.183154 210:-0.106346 211:-0.037709 215:-0.2578422 216:1.6159832 217:2.393458 218:-0.102856 219:-0.017565 223:-0.049855 224:3.46077 225:-0.078862 226:-0.021452 229:-0.014952 230:-0.021097 
1 1:0.28629483 2:0.072851167 3:0.070645333 4:-0.17422583 5:-0.30971583 6:-0.6045045 7:0.06758 8:-0.14109933 9:0.0926315 10:0.41916583 11:-0.93574683 12:1.3417743 13:-0.054535 14:0.048334667 15:-0.261335 16:-0.29155783 17:-0.20383317 18:-0.014952 19:-0.08711 20:-0.167402 21:-0.19721417 22:-0.24713717 23:-0.021302 24:-0.028883 25:-0.038542 26:-0.023332 27:-0.023412 30:-0.02702 31:-0.198246 32:1.1989745 33:-0.080912 34:-0.3130045 35:-0.0012498333 36:3.06695 37:-0.080866 38:-0.224814 39:-0.525086 40:-0.410252 41:-0.258595 42:-0.025787 43:-0.073582 44:-0.114571 45:-0.18727633 46:-0.160794 47:-0.201557 49:-0.021708 50:-0.021658 51:-0.041491 52:-0.032279 53:-0.071887 54:-0.095154 55:-0.014952 60:-0.014952 61:-0.017265 62:-0.024647 63:-0.021215 70:-0.065785 71:-0.049974 72:-0.014952 73:-0.048732 74:-0.124739 75:0.8210595 76:3.3369407 77:-0.050171 78:-0.114846 79:-0.2415415 80:0.895288 81:3.5764033 82:2.9759433 84:-0.06989 85:-0.23853917 86:-0.72301767 87:-0.32536633 88:-0.172166 89:-0.102253 92:-0.040796 93:-0.056023 94:-0.168633 95:-0.188284 96:-0.115671 97:-0.074486 101:-0.014952 102:-0.014982 103:-0.040764 104:-0.042342 105:-0.027653 106:-0.014952 112:-0.021732 113:-0.021365 114:-0.018 121:-0.017556 122:-0.021126 134:-0.018485 135:-0.01594 138:-0.043134 139:-0.029996 140:-0.09331 141:1.5293762 142:1.7839765 143:-0.017934 144:-0.063725 145:-0.182197 146:0.059439667 147:2.9258367 148:2.6825993 149:0.69302317 150:-0.03269 152:-0.053085 153:-0.33505667 154:-0.8291945 155:-0.047696833 156:-0.1690015 157:-0.072849 158:-0.032187 161:-0.061848 162:-0.174962 163:-0.192699 164:-0.054582 165:-0.032023 169:-0.015029 170:-0.021431 171:-0.018157 178:-0.019294 179:-0.017308 201:-0.032096 202:-0.043388 203:-0.027179 207:-0.099876 208:-0.012067667 209:3.1757675 210:0.7530915 211:-0.037709 215:-0.20957483 216:-0.55085183 217:-0.04396 218:-0.102856 219:-0.017565 223:-0.049855 224:-0.114025 225:-0.078862 226:-0.021452 229:-0.014952 230:-0.021097 
1 1:0.053123 2:0.30917133 3:-0.42952217 4:0.19142317 5:0.20189233 6:0.92292033 7:-0.44736183 8:0.159906 9:0.0897675 10:0.773289 11:0.22703367 12:-0.2353535 13:-0.054535 14:-0.297912 15:-0.24537383 16:-0.28936433 17:-0.1779965 18:-0.014952 19:-0.08711 20:-0.167402 21:-0.19968033 22:-0.24635967 23:-0.021302 24:-0.028883 25:-0.038542 26:-0.023332 27:-0.023412 30:-0.02702 31:-0.198246 32:-0.20685 33:-0.080912 34:-0.313794 35:-0.342749 36:-0.26576 37:-0.080866 38:-0.1932585 39:-0.28906517 40:-0.40063433 41:-0.30836633 42:-0.025787 43:-0.073582 44:-0.114571 45:-0.18817467 46:-0.1604285 47:-0.201557 49:-0.021708 50:-0.021658 51:-0.041491 52:-0.032279 53:-0.071887 54:-0.095154 55:-0.014952 60:-0.014952 61:-0.017265 62:-0.024647 63:-0.021215 70:-0.065785 71:-0.049974 72:-0.014952 73:-0.048732 74:-0.173228 75:-0.177573 76:-0.091775 77:-0.050171 78:-0.114846 79:-0.30761483 80:-0.408478 81:-0.263784 82:-0.139878 84:-0.06989 85:-0.25885733 86:-0.14419533 87:-0.58204617 88:-0.260113 89:-0.102253 92:-0.040796 93:-0.056023 94:-0.168633 95:-0.188284 96:-0.115671 97:-0.074486 101:-0.014952 102:-0.014982 103:-0.040764 104:-0.042342 105:-0.027653 106:-0.014952 112:-0.021732 113:-0.021365 114:-0.018 121:-0.017556 122:-0.021126 134:-0.018485 135:-0.01594 138:-0.043134 139:-0.029996 140:-0.09331 141:-0.098605 142:-0.071579 143:-0.017934 144:-0.063725 145:-0.182197 146:-0.255619 147:-0.391468 148:-0.187455 149:-0.077681 150:-0.03269 152:-0.053085 153:-0.28019467 154:-0.55396667 155:-0.637709 156:-0.171326 157:-0.072849 158:-0.032187 161:-0.061848 162:-0.076014667 163:-0.192699 164:-0.054582 165:-0.032023 169:-0.015029 170:-0.021431 171:-0.018157 178:-0.019294 179:-0.017308 201:-0.032096 202:-0.043388 203:-0.027179 207:-0.099876 208:-0.135362 209:-0.183154 210:-0.106346 211:-0.037709 215:-0.10086567 216:2.6754633 217:-0.41142483 218:-0.102856 219:-0.017565 223:-0.049855 224:-0.114025 225:-0.078862 226:-0.021452 229:-0.014952 230:-0.021097 
0.8657830481874262 1:0.23211925 2:0.21720883 3:-0.63386675 4:0.83883092 5:-0.43725033 6:-0.0192895 7:-0.63259283 8:0.8206785 9:-0.459914 10:0.53559717 11:-0.1939005 12:0.25338692 13:-0.054535 14:-0.291615 15:-0.25586775 16:-0.29980717 17:-0.20322725 18:-0.014952 19:-0.08711 20:-0.167402 21:-0.200329 22:-0.248836 23:-0.021302 24:-0.028883 25:-0.038542 26:-0.023332 27:-0.023412 30:-0.02702 31:-0.198246 32:-0.20685 33:0.070931833 34:-0.207441 35:-0.33723817 36:-0.24128967 37:-0.080866 38:-0.211708 39:-0.42372183 40:-0.42939967 41:-0.18542592 42:-0.025787 43:-0.073582 44:-0.114571 45:-0.18949 46:-0.160794 47:-0.201557 49:-0.021708 50:-0.021658 51:-0.041491 52:-0.032279 53:-0.071887 54:-0.095154 55:-0.014952 60:-0.014952 61:-0.017265 62:-0.024647 63:-0.021215 70:-0.065785 71:-0.049974 72:-0.014952 73:-0.048732 74:-0.173228 75:-0.177573 76:-0.091775 77:-0.050171 78:-0.1131445 79:-0.26100592 80:-0.40108242 81:-0.11899067 82:1.8576437 84:-0.06989 85:-0.2554335 86:-0.49162517 87:-0.46563375 88:1.7402053 89:5.4200739 92:-0.040796 93:-0.056023 94:-0.168633 95:-0.18200683 96:-0.115671 97:-0.074486 101:-0.014952 102:-0.014982 103:-0.040764 104:-0.042342 105:-0.027653 106:-0.014952 112:-0.021732 113:-0.021365 114:-0.018 121:-0.017556 122:-0.021126 134:-0.018485 135:-0.01594 138:-0.043134 139:-0.029996 140:-0.09331 141:-0.098605 142:-0.071579 143:-0.017934 144:-0.063725 145:-0.18177158 146:-0.24815517 147:-0.37447817 148:-0.031123417 149:0.10508908 150:-0.03269 152:-0.053085 153:-0.31537125 154:-0.77696792 155:0.68107733 156:2.0791932 157:0.13198942 158:-0.032187 161:-0.061848 162:-0.174962 163:-0.19247083 164:-0.054582 165:-0.032023 169:-0.015029 170:-0.021431 171:-0.018157 178:-0.019294 179:-0.017308 201:-0.032096 202:-0.043388 203:-0.027179 207:-0.095529583 208:0.25272633 209:-0.16757308 210:-0.099054167 211:-0.037709 215:1.4512576 216:0.48801258 217:1.2625268 218:2.3519975 219:-0.017565 223:-0.049855 224:-0.114025 225:-0.078862 226:-0.021452 229:-0.014952 230:-0.021097 
1 1:-0.56052025 2:-0.4966135 3:0.0624065 4:-0.139086 5:0.4984255 6:-0.8570255 7:-0.0528375 8:-0.1651445 9:0.598135 10:0.261059 11:-0.60687225 12:0.57036625 13:-0.054535 14:0.022284 15:-0.2350235 16:-0.0054755 17:0.14894475 18:-0.014952 19:-0.08711 20:-0.167402 21:-0.200329 22:-0.248836 23:-0.021302 24:-0.028883 25:-0.038542 26:-0.023332 27:-0.023412 30:-0.02702 31:-0.198246 32:-0.0083585 33:-0.080912 34:-0.27486675 35:-0.05315025 36:0.65171325 37:-0.080866 38:-0.214697 39:1.1160143 40:-0.03689475 41:-0.309461 42:-0.025787 43:-0.073582 44:-0.114571 45:-0.175654 46:-0.160794 47:-0.201557 49:-0.021708 50:-0.021658 51:-0.041491 52:-0.032279 53:-0.071887 54:-0.095154 55:-0.014952 60:-0.014952 61:-0.017265 62:-0.024647 63:-0.021215 70:-0.065785 71:-0.049974 72:-0.014952 73:-0.048732 74:-0.173228 75:-0.11594 76:0.04331725 77:-0.050171 78:-0.114846 79:-0.31528 80:0.08477425 81:0.48203175 82:-0.0481385 84:-0.06989 85:-0.26197975 86:0.52976875 87:-0.273158 88:-0.260113 89:-0.102253 92:-0.040796 93:-0.056023 94:-0.168633 95:-0.188284 96:-0.115671 97:-0.074486 101:-0.014952 102:-0.014982 103:-0.040764 104:-0.042342 105:-0.027653 106:-0.014952 112:-0.021732 113:-0.021365 114:-0.018 121:-0.017556 122:-0.021126 134:-0.018485 135:-0.01594 138:-0.043134 139:-0.029996 140:-0.09331 141:0.078216 142:0.0954915 143:-0.017934 144:-0.063725 145:-0.182197 146:-0.24740625 147:0.7778475 148:0.43871525 149:-0.077681 150:-0.03269 152:-0.053085 153:-0.36407025 154:-0.43514825 155:-0.56331925 156:-0.171326 157:-0.072849 158:-0.032187 161:-0.061848 162:-0.174962 163:-0.192699 164:-0.054582 165:-0.032023 169:-0.015029 170:-0.021431 171:-0.018157 178:-0.019294 179:-0.017308 201:-0.032096 202:-0.043388 203:-0.027179 207:-0.099876 208:-0.135405 209:-0.09343525 210:-0.0815675 211:-0.037709 215:-0.25718575 216:0.67986925 217:-0.4116205 218:-0.102856 219:-0.017565 223:-0.049855 224:-0.114025 225:-0.078862 226:-0.021452 229:-0.014952 230:-0.021097 
0.276691683904117 1:0.13847723 2:0.33612031 3:0.23697246 4:-0.21119031 5:-0.49534408 6:0.24778608 7:0.21929238 8:-0.20600177 9:-0.53090185 10:0.249771 11:0.206568 12:0.33093508 13:-0.054535 14:-0.297912 15:-0.261335 16:-0.302051 17:-0.085841615 18:-0.014952 19:-0.08711 20:-0.167402 21:-0.19328585 22:0.0020283077 23:-0.021302 24:-0.028883 25:-0.038542 26:-0.023332 27:-0.023412 30:-0.02702 31:0.83499692 32:-0.15779269 33:-0.080912 34:-0.32179531 35:0.15652423 36:-0.085837615 37:-0.080866 38:-0.224814 39:-0.48360823 40:-0.18151592 41:0.31057615 42:-0.025787 43:-0.073582 44:-0.114571 45:-0.13714608 46:-0.051051769 47:-0.18408354 49:-0.021708 50:-0.021658 51:-0.041491 52:-0.032279 53:-0.071887 54:-0.095154 55:-0.014952 60:-0.014952 61:-0.017265 62:-0.024647 63:-0.021215 70:-0.065785 71:-0.049974 72:-0.014952 73:-0.048732 74:0.30110446 75:-0.13071285 76:-0.091775 77:-0.050171 78:-0.114846 79:-0.22476792 80:1.1266958 81:-0.043629154 82:-0.139878 84:-0.06989 85:-0.26369685 86:-0.45415315 87:-0.019313692 88:1.1197629 89:-0.102253 92:-0.040796 93:-0.056023 94:-0.11394831 95:-0.18622808 96:-0.115671 97:-0.074486 101:-0.014952 102:-0.014982 103:-0.040764 104:-0.042342 105:-0.027653 106:-0.014952 112:-0.021732 113:-0.021365 114:-0.018 121:-0.017556 122:-0.021126 134:-0.018485 135:-0.01594 138:-0.043134 139:-0.029996 140:-0.09331 141:-0.098605 142:-0.071579 143:-0.017934 144:-0.063725 145:-0.182197 146:-0.255619 147:-0.10428162 148:-0.15316331 149:-0.077681 150:-0.03269 152:-0.053085 153:-0.329317 154:0.44488169 155:0.031472769 156:-0.040023923 157:-0.072849 158:-0.032187 161:-0.061848 162:-0.11946938 163:-0.17334623 164:-0.054582 165:-0.032023 169:-0.015029 170:-0.021431 171:-0.018157 178:-0.019294 179:-0.017308 201:-0.032096 202:-0.043388 203:-0.027179 207:-0.099876 208:-0.135405 209:-0.183154 210:-0.106346 211:-0.037709 215:-0.24543308 216:0.57391323 217:-0.046679 218:-0.102856 219:-0.017565 223:0.19558692 224:1.5543925 225:-0.078862 226:-0.021452 229:-0.014952 230:-0.021097 
1 1:-0.48419375 2:-0.46579175 3:0.11026075 4:-0.14830925 5:0.420874 6:-0.502495 7:0.08542175 8:-0.12085775 9:0.64217525 10:0.42531925 11:-0.4859215 12:0.73483725 13:-0.054535 14:-0.297912 15:-0.261335 16:-0.302051 17:-0.225084 18:-0.014952 19:-0.08711 20:-0.167402 21:-0.200329 22:-0.248836 23:-0.021302 24:-0.028883 25:-0.038542 26:-0.023332 27:-0.023412 30:-0.02702 31:-0.198246 32:-0.20685 33:-0.080912 34:-0.327191 35:-0.347995 36:-0.22746575 37:-0.080866 38:-0.224814 39:-0.529019 40:-0.450156 41:-0.292603 42:-0.025787 43:-0.073582 44:-0.114571 45:-0.18949 46:-0.160794 47:-0.201557 49:-0.021708 50:-0.021658 51:-0.041491 52:-0.032279 53:-0.071887 54:-0.095154 55:-0.014952 60:-0.014952 61:-0.017265 62:-0.024647 63:-0.021215 70:-0.065785 71:-0.049974 72:-0.014952 73:-0.048732 74:-0.173228 75:-0.177573 76:-0.091775 77:-0.050171 78:-0.114846 79:-0.3317 80:-0.40748375 81:-0.250775 82:1.4985395 84:-0.06989 85:-0.263975 86:-0.785786 87:-0.5891975 88:-0.25112475 89:-0.065147 92:-0.040796 93:-0.056023 94:-0.168633 95:-0.188284 96:-0.115671 97:-0.074486 101:-0.014952 102:-0.014982 103:-0.040764 104:-0.042342 105:-0.027653 106:-0.014952 112:-0.021732 113:-0.021365 114:-0.018 121:-0.017556 122:-0.021126 134:-0.018485 135:-0.01594 138:-0.043134 139:-0.029996 140:-0.09331 141:-0.098605 142:-0.05166775 143:-0.017934 144:-0.063725 145:-0.182197 146:-0.25486075 147:-0.10499775 148:4.1456375 149:11.274674 150:1.3540637 152:-0.053085 153:-0.364504 154:-0.79793975 155:-0.58650775 156:0.7231765 157:0.1446835 158:-0.032187 161:-0.061848 162:-0.174962 163:-0.192699 164:-0.054582 165:-0.032023 169:-0.015029 170:-0.021431 171:-0.018157 178:-0.019294 179:-0.017308 201:-0.032096 202:-0.043388 203:-0.027179 207:-0.099876 208:-0.118559 209:0.8016125 210:8.890885 211:3.8032995 215:-0.26088675 216:1.3047655 217:0.14926925 218:1.9383725 219:-0.017565 223:-0.049855 224:-0.114025 225:-0.078862 226:-0.021452 229:-0.014952 230:-0.021097 
0.1464815397680378 1:0.044315818 2:0.086106273 3:0.36350055 4:-0.31496727 5:-0.40658445 6:0.035666364 7:0.40200773 8:-0.31458673 9:-0.474154 10:0.22040336 11:0.95531327 12:-0.24751582 13:-0.054535 14:-0.297912 15:-0.24914964 16:-0.18040645 17:-0.091729545 18:-0.014952 19:-0.08711 20:-0.054613727 21:0.86161764 22:-0.044291455 23:-0.021302 24:-0.028883 25:-0.038542 26:-0.023332 27:-0.023412 30:-0.02702 31:-0.198246 32:-0.20685 33:-0.080912 34:-0.327191 35:-0.34578455 36:-0.25922873 37:-0.080866 38:-0.17525464 39:0.041209273 40:-0.24266655 41:-0.12988391 42:-0.025787 43:-0.073582 44:-0.10451818 45:1.5430244 46:0.080008182 47:-0.166161 49:-0.021708 50:-0.021658 51:-0.041491 52:-0.032279 53:-0.071887 54:-0.095154 55:-0.014952 60:-0.014952 61:-0.017265 62:-0.024647 63:-0.021215 70:-0.065785 71:-0.049974 72:-0.014952 73:-0.048732 74:-0.173228 75:-0.177573 76:-0.091775 77:-0.050171 78:-0.114846 79:-0.33147682 80:-0.40841691 81:-0.263784 82:-0.139878 84:-0.06989 85:-0.25696036 86:-0.24700973 87:-0.45283691 88:-0.090030909 89:-0.102253 92:-0.040796 93:-0.056023 94:0.744663 95:-0.14080482 96:-0.115671 97:-0.074486 101:-0.014952 102:-0.014982 103:-0.040764 104:-0.042342 105:-0.027653 106:-0.014952 112:-0.021732 113:-0.021365 114:-0.018 121:-0.017556 122:-0.021126 134:-0.018485 135:-0.01594 138:-0.043134 139:-0.029996 140:-0.09331 141:-0.098605 142:-0.071579 143:-0.017934 144:-0.063725 145:-0.182197 146:-0.255619 147:-0.391468 148:-0.187455 149:-0.077681 150:-0.03269 152:-0.053085 153:-0.36346264 154:0.374867 155:-0.30448227 156:-0.16668227 157:-0.072849 158:-0.032187 161:-0.061848 162:1.2060894 163:-0.19117673 164:-0.054582 165:-0.032023 169:-0.015029 170:-0.021431 171:-0.018157 178:-0.019294 179:-0.017308 201:-0.032096 202:-0.043388 203:-0.027179 207:-0.099876 208:-0.135405 209:-0.183154 210:-0.106346 211:-0.037709 215:-0.265739 216:0.908235 217:0.64475273 218:-0.102856 219:-0.017565 223:-0.049855 224:3.647176 225:-0.078862 226:-0.021452 229:-0.014952 230:-0.021097 
0.5987876029370036 1:0.5679202 2:0.2382392 3:0.056867 4:-0.5521514 5:0.3065332 6:-1.2030458 7:0.0394948 8:-0.5751058 9:0.2714992 10:0.5240652 11:0.5833066 12:0.066848 13:-0.054535 14:-0.297912 15:-0.2371692 16:-0.1966256 17:0.100435 18:-0.014952 19:-0.08711 20:-0.167329 21:-0.0730012 22:0.621907 23:-0.021302 24:-0.028883 25:-0.038542 26:-0.023332 27:-0.023412 30:-0.02702 31:-0.198246 32:-0.20685 33:-0.080912 34:-0.3156828 35:-0.3450264 36:-0.26576 37:-0.080866 38:-0.1596918 39:-0.2943274 40:0.0693798 41:0.3003346 42:-0.025787 43:-0.073582 44:-0.1087236 45:-0.14986 46:-0.014192 47:0.0472264 49:-0.021708 50:-0.021658 51:-0.041491 52:-0.032279 53:-0.071887 54:-0.095154 55:-0.014952 60:-0.014952 61:-0.017265 62:-0.024647 63:-0.021215 70:-0.065785 71:-0.049974 72:-0.014952 73:-0.048732 74:-0.173228 75:-0.177573 76:-0.091775 77:-0.050171 78:-0.114846 79:-0.3273308 80:-0.4074526 81:-0.263784 82:-0.139878 84:-0.06989 85:-0.2483238 86:-0.4816052 87:0.056708 88:0.138525 89:-0.0748828 92:-0.040796 93:-0.052962 94:-0.168633 95:-0.1803896 96:-0.1022284 97:-0.074486 101:-0.014952 102:-0.014982 103:-0.040764 104:-0.042342 105:-0.027653 106:-0.014952 112:-0.021732 113:-0.021365 114:-0.018 121:-0.017556 122:-0.021126 134:-0.018485 135:-0.01594 138:-0.043134 139:-0.029996 140:-0.09331 141:-0.098605 142:-0.071579 143:-0.017934 144:-0.063725 145:-0.182197 146:-0.255619 147:-0.391468 148:-0.187455 149:-0.077681 150:-0.03269 152:-0.053085 153:-0.2798202 154:-0.4284742 155:-0.0131984 156:-0.163943 157:-0.072849 158:-0.032187 161:-0.061848 162:-0.1723092 163:-0.1910498 164:-0.054582 165:-0.032023 169:-0.015029 170:-0.021431 171:-0.018157 178:-0.019294 179:-0.017308 201:-0.032096 202:-0.043388 203:-0.027179 207:-0.099876 208:-0.135405 209:-0.183154 210:-0.106346 211:-0.037709 215:7.427602 216:-0.013762 217:-0.0144448 218:-0.102856 219:-0.017565 223:-0.049855 224:-0.114025 225:-0.078862 226:-0.021452 229:-0.014952 230:-0.021097 
1 1:0.063444429 2:0.134411 3:0.25155886 4:-0.068931714 5:-0.073441857 6:0.12518757 7:0.27272114 8:-0.067347571 9:-0.086454571 10:0.019315857 11:0.973906 12:-0.44033329 13:-0.054535 14:-0.21000529 15:-0.21290129 16:-0.28329657 17:-0.225084 18:-0.014952 19:-0.058289 20:0.13980643 21:-0.123321 22:-0.15016586 23:-0.021302 24:-0.028883 25:-0.038542 26:-0.023332 27:-0.023412 30:-0.02702 31:0.16858171 32:-0.093252286 33:-0.080912 34:1.5437393 35:0.554278 36:-0.21456271 37:-0.080866 38:-0.025620143 39:0.21860486 40:-0.42444143 41:-0.309461 42:-0.025787 43:-0.073582 44:1.2644399 45:4.1451231 46:0.12364414 47:-0.20027114 49:-0.021708 50:-0.021658 51:1.7748929 52:0.00091242857 53:-0.041786571 54:-0.095154 55:-0.014952 60:-0.014952 61:-0.017265 62:-0.024647 63:-0.021215 70:-0.065785 71:-0.049974 72:-0.014952 73:-0.048732 74:-0.12902857 75:-0.130266 76:-0.091775 77:-0.050171 78:-0.114846 79:0.683646 80:1.0414289 81:-0.14501771 82:-0.139878 84:-0.06989 85:-0.22712771 86:0.50824086 87:-0.41674743 88:-0.260113 89:-0.102253 92:-0.040796 93:0.195953 94:1.964266 95:-0.12042657 96:-0.115671 97:-0.074486 101:-0.014952 102:-0.014982 103:-0.040764 104:-0.042342 105:-0.027653 106:-0.014952 112:-0.021732 113:-0.021365 114:-0.018 121:-0.017556 122:-0.021126 134:-0.018485 135:-0.01594 138:-0.043134 139:-0.029996 140:-0.09331 141:-0.098605 142:-0.071579 143:-0.017934 144:-0.063725 145:-0.182197 146:-0.25114271 147:-0.16239943 148:-0.17249729 149:-0.077681 150:-0.03269 152:-0.053085 153:-0.36327343 154:0.11187986 155:-0.53431929 156:-0.171326 157:-0.072849 158:-0.032187 161:-0.061848 162:1.983818 163:-0.17536143 164:-0.054582 165:-0.032023 169:-0.015029 170:-0.021431 171:-0.018157 178:-0.019294 179:-0.017308 201:-0.032096 202:-0.043388 203:-0.027179 207:-0.099876 208:-0.135405 209:-0.183154 210:-0.106346 211:-0.037709 215:-0.265739 216:-0.10526971 217:-0.24118371 218:-0.102856 219:-0.017565 223:-0.049855 224:0.70945829 225:-0.078862 226:-0.021452 229:-0.014952 230:-0.021097 
0.927766292588509 1:-0.39582618 2:-0.37449955 3:-0.382149 4:-0.033757091 5:-0.33442409 6:0.68520027 7:-0.40443818 8:-0.030704545 9:-0.40047836 10:0.19942091 11:-0.74675164 12:0.94624018 13:-0.054535 14:-0.297912 15:-0.261335 16:-0.29789273 17:-0.16014673 18:-0.014952 19:-0.08711 20:-0.167402 21:-0.200329 22:-0.10148945 23:-0.021302 24:-0.028883 25:-0.038542 26:-0.023332 27:-0.023412 30:-0.02702 31:-0.198246 32:-0.20685 33:-0.080912 34:-0.30679264 35:-0.302705 36:-0.050583909 37:-0.080866 38:-0.224814 39:-0.32789555 40:-0.19713591 41:0.53768645 42:-0.025787 43:-0.073582 44:-0.114571 45:-0.15780009 46:-0.11985036 47:-0.0025340909 49:-0.021708 50:-0.021658 51:-0.041491 52:-0.032279 53:-0.071887 54:-0.095154 55:-0.014952 60:-0.014952 61:-0.017265 62:-0.024647 63:-0.021215 70:-0.065785 71:-0.049974 72:-0.014952 73:-0.048732 74:-0.171078 75:-0.177573 76:-0.091775 77:-0.050171 78:-0.114846 79:0.58915673 80:-0.075194091 81:-0.12957482 82:-0.139878 84:-0.06989 85:-0.263975 86:-0.23871827 87:-0.044080545 88:1.0337481 89:1.9048649 92:-0.040796 93:-0.056023 94:-0.168633 95:-0.188284 96:-0.115671 97:-0.074486 101:-0.014952 102:-0.014982 103:-0.040764 104:-0.042342 105:-0.027653 106:-0.014952 112:-0.021732 113:-0.021365 114:-0.018 121:-0.017556 122:-0.021126 134:-0.018485 135:-0.01594 138:-0.043134 139:-0.029996 140:-0.09331 141:-0.098605 142:-0.071579 143:-0.017934 144:-0.063725 145:-0.182197 146:-0.015755364 147:0.15321755 148:-0.18542827 149:-0.077681 150:-0.03269 152:-0.053085 153:-0.36445173 154:-0.27935445 155:0.56786764 156:0.71196482 157:1.2859465 158:4.0271209 161:-0.061848 162:-0.174962 163:-0.19261091 164:-0.054582 165:0.12831455 169:-0.015029 170:-0.021431 171:-0.018157 178:-0.019294 179:-0.017308 201:-0.032096 202:-0.043388 203:-0.027179 207:-0.099876 208:-0.135405 209:-0.081459182 210:0.11600927 211:0.099279545 215:-0.26510391 216:-0.55899791 217:1.4639867 218:7.6085766 219:0.88492036 223:-0.049855 224:-0.114025 225:-0.078862 226:-0.021452 229:-0.014952 230:-0.021097 
0.01344275954437115 1:-0.42796688 2:-0.28896625 3:-0.61122413 4:0.31027512 5:-0.09843675 6:0.59417787 7:-0.64661163 8:0.29949962 9:-0.173546 10:0.85085362 11:0.58154737 12:0.80290562 13:-0.054535 14:-0.297912 15:-0.261335 16:-0.302051 17:-0.225084 18:-0.014952 19:-0.08711 20:-0.167402 21:-0.200329 22:-0.248836 23:-0.021302 24:-0.028883 25:-0.038542 26:-0.023332 27:-0.023412 30:-0.02702 31:-0.198246 32:-0.20685 33:-0.080912 34:-0.327191 35:-0.347995 36:-0.26576 37:-0.080866 38:-0.224814 39:-0.529019 40:-0.451394 41:-0.309461 42:-0.025787 43:-0.073582 44:-0.114571 45:-0.18949 46:-0.160794 47:-0.201557 49:-0.021708 50:-0.021658 51:-0.041491 52:-0.032279 53:-0.071887 54:-0.095154 55:-0.014952 60:-0.014952 61:-0.017265 62:-0.024647 63:-0.021215 70:-0.065785 71:-0.049974 72:-0.014952 73:-0.048732 74:-0.173228 75:-0.177573 76:-0.091775 77:-0.050171 78:-0.114846 79:-0.3317 80:-0.39166688 81:-0.18893313 82:-0.139878 84:-0.06989 85:-0.263975 86:-0.78268088 87:-0.52644163 88:-0.20178125 89:-0.079483875 92:-0.040796 93:-0.056023 94:-0.168633 95:-0.188284 96:-0.115671 97:0.12085625 101:-0.014952 102:-0.014982 103:-0.040764 104:-0.042342 105:-0.027653 106:-0.014952 112:-0.021732 113:-0.021365 114:-0.018 121:-0.017556 122:-0.021126 134:-0.018485 135:-0.01594 138:-0.043134 139:-0.029996 140:-0.09331 141:-0.098605 142:-0.071579 143:-0.017934 144:-0.063725 145:-0.182197 146:-0.255619 147:-0.34652275 148:-0.187455 149:-0.077681 150:-0.03269 152:-0.053085 153:-0.364504 154:-0.949492 155:-0.012051875 156:0.036743375 157:-0.008973625 158:-0.032187 161:-0.061848 162:-0.174962 163:-0.18042425 164:0.002249625 165:-0.032023 169:-0.015029 170:-0.021431 171:-0.018157 178:-0.019294 179:-0.017308 201:-0.032096 202:-0.043388 203:-0.027179 207:0.03847725 208:2.794356 209:-0.183154 210:-0.106346 211:-0.037709 215:-0.24273212 216:0.90922975 217:4.148795 218:-0.102856 219:-0.017565 223:-0.049855 224:-0.114025 225:-0.019782 226:-0.021452 229:-0.014952 230:-0.021097 
1 1:-0.4018615 2:-0.30623075 3:-0.2713375 4:-0.7327625 5:-0.16191763 6:-0.2697245 7:-0.28776475 8:-0.738173 9:-0.23708875 10:0.46616863 11:0.067576125 12:0.00645525 13:-0.054535 14:-0.26929413 15:-0.261335 16:-0.29941913 17:-0.225084 18:-0.014952 19:-0.08711 20:-0.167402 21:-0.200329 22:-0.248836 23:-0.021302 24:-0.028883 25:-0.038542 26:-0.023332 27:-0.023412 30:-0.02702 31:-0.0820625 32:0.26379725 33:-0.080912 34:-0.12656962 35:-0.035791125 36:0.601116 37:-0.080866 38:-0.224814 39:-0.50973225 40:-0.38445937 41:-0.13068938 42:-0.025787 43:-0.073582 44:-0.114571 45:-0.18949 46:-0.160794 47:-0.201557 49:-0.021708 50:-0.021658 51:-0.041491 52:-0.032279 53:-0.071887 54:-0.095154 55:-0.014952 60:-0.014952 61:-0.017265 62:-0.024647 63:-0.021215 70:-0.065785 71:-0.049974 72:-0.014952 73:-0.048732 74:-0.1520395 75:-0.12519725 76:-0.091775 77:-0.050171 78:-0.114846 79:0.2072665 80:0.13897888 81:0.0542935 82:-0.139878 84:-0.06989 85:-0.263975 86:-0.62095238 87:-0.244619 88:-0.12168738 89:-0.102253 92:-0.040796 93:-0.056023 94:-0.168633 95:-0.188284 96:-0.115671 97:-0.074486 101:-0.014952 102:-0.014982 103:-0.040764 104:-0.042342 105:-0.027653 106:-0.014952 112:-0.021732 113:-0.021365 114:-0.018 121:-0.017556 122:-0.021126 134:-0.018485 135:-0.01594 138:-0.043134 139:-0.029996 140:-0.09331 141:-0.098605 142:-0.071579 143:-0.017934 144:-0.063725 145:-0.182197 146:-0.16335963 147:0.054113625 148:-0.15087775 149:-0.077681 150:-0.03269 152:-0.053085 153:0.10382413 154:0.83916788 155:0.46927063 156:-0.171326 157:-0.072849 158:-0.032187 161:-0.061848 162:-0.1748875 163:-0.19251937 164:-0.054582 165:-0.032023 169:-0.015029 170:-0.021431 171:-0.018157 178:-0.019294 179:-0.017308 201:-0.032096 202:-0.043388 203:-0.027179 207:-0.099876 208:-0.13507312 209:-0.0353635 210:-0.106346 211:-0.037709 215:-0.050090375 216:0.12331463 217:0.11176775 218:-0.102856 219:-0.017565 223:-0.049855 224:-0.114025 225:-0.078862 226:-0.021452 229:-0.014952 230:-0.021097 
0.8066223923417784 1:-0.313158 2:-0.37453933 3:0.046027667 4:-0.143673 5:0.012973167 6:-0.48215367 7:0.030567833 8:-0.14893383 9:0.062279667 10:0.39997217 11:-0.41141283 12:1.1420688 13:-0.054535 14:0.52106883 15:-0.24780933 16:-0.034455 17:-0.225084 18:-0.014952 19:-0.08711 20:-0.167402 21:-0.094552167 22:-0.248836 23:-0.021302 24:-0.028883 25:-0.038542 26:-0.023332 27:-0.023412 30:-0.02702 31:0.35158267 32:0.47302067 33:-0.080912 34:0.2742155 35:0.5744725 36:0.3074675 37:-0.080866 38:-0.224814 39:-0.047099 40:0.25228383 41:1.4748985 42:-0.025787 43:-0.073582 44:-0.114571 45:-0.18949 46:-0.160794 47:0.0179925 49:-0.021708 50:-0.021658 51:-0.041491 52:-0.032279 53:-0.071887 54:-0.095154 55:-0.014952 60:-0.014952 61:-0.017265 62:-0.024647 63:-0.021215 70:-0.065785 71:-0.049974 72:-0.014952 73:-0.048732 74:-0.12946983 75:-0.0682675 76:-0.091775 77:-0.050171 78:-0.114846 79:0.32728483 80:0.884883 81:0.0042196667 82:-0.139878 84:-0.06989 85:-0.263975 86:-0.38010117 87:0.32025433 88:2.2086535 89:2.9429065 92:-0.040796 93:-0.056023 94:-0.168633 95:-0.188284 96:-0.115671 97:1.4188818 101:-0.014952 102:-0.014982 103:-0.040764 104:-0.042342 105:-0.027653 106:-0.014952 112:-0.021732 113:-0.021365 114:-0.018 121:-0.017556 122:-0.021126 134:-0.018485 135:-0.01594 138:-0.043134 139:-0.029996 140:-0.09331 141:-0.098605 142:-0.071579 143:-0.017934 144:-0.063725 145:-0.182197 146:-0.16435667 147:0.21201283 148:-0.15341667 149:-0.077681 150:-0.03269 152:-0.053085 153:-0.364504 154:-0.983062 155:0.9521405 156:3.3431467 157:1.6100697 158:-0.032187 161:-0.061848 162:-0.174962 163:-0.192699 164:-0.054582 165:-0.032023 169:-0.015029 170:-0.021431 171:-0.018157 178:-0.019294 179:-0.017308 201:-0.032096 202:-0.043388 203:-0.027179 207:-0.099876 208:-0.135405 209:-0.18222067 210:-0.098917167 211:-0.037709 215:-0.265739 216:-0.7452455 217:0.454333 218:6.4354783 219:-0.017565 223:-0.049855 224:-0.114025 225:-0.078862 226:-0.021452 229:-0.014952 230:-0.021097 
1 1:-0.52278788 2:-0.48533987 3:0.48897812 4:-0.21797725 5:-0.1992075 6:-0.58224162 7:0.5204215 8:-0.22574575 9:-0.19833538 10:0.57117288 11:0.21822913 12:-0.12545838 13:-0.054535 14:-0.2849125 15:-0.25666187 16:-0.28715313 17:-0.17088925 18:-0.014952 19:-0.08711 20:-0.167402 21:-0.19484863 22:-0.1454085 23:-0.021302 24:-0.028883 25:-0.038542 26:-0.023332 27:-0.023412 30:-0.02702 31:-0.198246 32:-0.008752375 33:-0.080912 34:-0.32109963 35:-0.3304635 36:-0.01119725 37:-0.080866 38:-0.20886775 39:-0.4308725 40:-0.32182462 41:-0.28609887 42:-0.025787 43:-0.073582 44:-0.114571 45:-0.15833263 46:-0.054891125 47:-0.02866975 49:-0.021708 50:-0.021658 51:-0.041491 52:-0.032279 53:-0.071887 54:0.0418665 55:-0.014952 60:-0.014952 61:-0.017265 62:-0.024647 63:-0.021215 70:-0.065785 71:-0.049974 72:-0.014952 73:-0.048732 74:-0.173228 75:-0.17661325 76:-0.091775 77:-0.050171 78:-0.114846 79:-0.32619688 80:-0.2097485 81:-0.086305 82:-0.139878 84:-0.06989 85:-0.26130775 86:-0.34517988 87:-0.21670713 88:-0.25365837 89:-0.102253 92:-0.040796 93:-0.056023 94:-0.13900688 95:-0.036158625 96:-0.072026125 97:-0.074486 101:-0.014952 102:-0.014982 103:-0.040764 104:-0.042342 105:-0.027653 106:-0.014952 112:-0.021732 113:-0.021365 114:-0.018 121:-0.017556 122:-0.021126 134:-0.018485 135:-0.01594 138:-0.043134 139:-0.029996 140:-0.09331 141:-0.098605 142:-0.071579 143:-0.017934 144:-0.063725 145:-0.182197 146:-0.25119238 147:-0.14544188 148:-0.16498088 149:-0.077681 150:-0.03269 152:-0.053085 153:0.397123 154:1.0349973 155:0.2800995 156:-0.1440365 157:-0.072849 158:-0.032187 161:-0.061848 162:-0.165384 163:-0.1690215 164:-0.054582 165:-0.032023 169:-0.015029 170:-0.021431 171:-0.018157 178:-0.019294 179:-0.017308 201:-0.032096 202:-0.043388 203:-0.027179 207:-0.099876 208:-0.135405 209:-0.18223638 210:-0.106346 211:-0.037709 215:0.029062125 216:-0.02905075 217:0.42365513 218:-0.102856 219:-0.017565 223:-0.049855 224:-0.114025 225:0.16722375 226:-0.021452 229:-0.014952 230:-0.021097 
0.4410965885052742 1:0.251789 2:0.071435 3:0.012578833 4:-0.16793483 5:0.15433017 6:-0.42381967 7:0.0728285 8:-0.15507133 9:0.0838735 10:0.22431817 11:0.7823975 12:-0.20882917 13:-0.054535 14:-0.297912 15:-0.25125783 16:-0.25021033 17:-0.21976317 18:-0.014952 19:-0.08711 20:-0.167402 21:-0.19783733 22:0.86376633 23:-0.021302 24:-0.028883 25:-0.038542 26:-0.023332 27:-0.023412 30:-0.02702 31:-0.198246 32:-0.20685 33:-0.080912 34:-0.32512017 35:-0.338789 36:-0.25643633 37:-0.080866 38:-0.20559033 39:-0.3822855 40:-0.108824 41:-0.2937835 42:-0.025787 43:-0.073582 44:-0.11208983 45:-0.11671717 46:0.24713683 47:-0.023457 49:-0.021708 50:-0.021658 51:-0.041491 52:-0.032279 53:-0.071887 54:-0.095154 55:-0.014952 60:-0.014952 61:-0.017265 62:-0.024647 63:-0.021215 70:-0.065785 71:-0.049974 72:-0.014952 73:-0.048732 74:-0.173228 75:-0.177573 76:-0.091775 77:-0.050171 78:-0.114846 79:-0.33063633 80:-0.40784933 81:-0.263784 82:-0.139878 84:-0.06989 85:-0.25440783 86:-0.1771265 87:0.050186 88:-0.216403 89:-0.102253 92:-0.040796 93:-0.0500245 94:-0.103559 95:-0.080810333 96:-0.115671 97:-0.074486 101:-0.014952 102:-0.014982 103:-0.040764 104:-0.042342 105:-0.027653 106:-0.014952 112:-0.021732 113:-0.021365 114:-0.018 121:-0.017556 122:-0.021126 134:-0.018485 135:-0.01594 138:-0.043134 139:-0.029996 140:-0.09331 141:-0.098605 142:-0.071579 143:-0.017934 144:-0.063725 145:-0.182197 146:-0.255619 147:-0.3913365 148:-0.187455 149:-0.077681 150:-0.03269 152:-0.053085 153:-0.0243565 154:1.136096 155:-0.29153383 156:-0.171326 157:-0.072849 158:-0.032187 161:-0.061848 162:-0.047412333 163:-0.19062267 164:-0.054582 165:-0.032023 169:-0.015029 170:-0.021431 171:-0.018157 178:-0.019294 179:-0.017308 201:-0.032096 202:-0.043388 203:-0.027179 207:-0.099876 208:-0.135405 209:-0.183154 210:-0.106346 211:-0.037709 215:1.5328163 216:0.33615417 217:-0.401452 218:-0.102856 219:-0.017565 223:-0.049855 224:-0.11370117 225:-0.078862 226:-0.021452 229:-0.014952 230:-0.021097 
0.08979495666369913 1:0.36469717 2:0.062000167 3:0.034288 4:-0.071198333 5:0.061211167 6:-1.2250535 7:0.052993167 8:-0.065610167 9:0.070266667 10:0.36817517 11:0.83039183 12:-0.19073667 13:-0.054535 14:-0.28967617 15:-0.25276683 16:-0.21955717 17:-0.2191545 18:-0.014952 19:-0.08711 20:-0.16300033 21:0.046524 22:0.91941767 23:-0.021302 24:-0.028883 25:-0.038542 26:-0.023332 27:-0.023412 30:-0.02702 31:-0.198246 32:-0.20685 33:-0.080912 34:-0.327191 35:-0.34668117 36:-0.26576 37:-0.080866 38:-0.20656833 39:-0.44443733 40:-0.027579333 41:-0.11837867 42:-0.025787 43:-0.073582 44:-0.077537333 45:0.026455 46:0.62408683 47:1.2551062 49:-0.021708 50:-0.021658 51:-0.041491 52:-0.032279 53:-0.071887 54:-0.095154 55:-0.014952 60:-0.014952 61:-0.017265 62:-0.024647 63:-0.021215 70:-0.065785 71:-0.049974 72:-0.014952 73:-0.048732 74:-0.173228 75:-0.177573 76:-0.091775 77:-0.050171 78:-0.114846 79:-0.3317 80:-0.408478 81:-0.263784 82:-0.139878 84:-0.06989 85:-0.25958467 86:-0.49355067 87:-0.1607805 88:-0.23330033 89:-0.102253 92:-0.040796 93:-0.036602333 94:-0.1057215 95:-0.079263 96:-0.045058 97:-0.074486 101:-0.014952 102:-0.014982 103:-0.040764 104:-0.042342 105:-0.027653 106:-0.014952 112:-0.021732 113:-0.021365 114:-0.018 121:-0.017556 122:-0.021126 134:-0.018485 135:-0.01594 138:-0.043134 139:-0.029996 140:-0.09331 141:-0.098605 142:-0.071579 143:-0.017934 144:-0.063725 145:-0.182197 146:-0.255619 147:-0.391468 148:-0.187455 149:-0.077681 150:-0.03269 152:-0.053085 153:0.6971175 154:0.093375167 155:0.012952667 156:-0.171326 157:-0.072849 158:-0.032187 161:0.53229333 162:-0.142674 163:-0.18451133 164:-0.054582 165:-0.032023 169:-0.015029 170:-0.021431 171:-0.018157 178:-0.019294 179:-0.017308 201:-0.032096 202:-0.043388 203:-0.027179 207:-0.099876 208:-0.135405 209:-0.183154 210:-0.106346 211:-0.037709 215:4.739121 216:0.0079888333 217:-0.307392 218:-0.102856 219:-0.017565 223:2.698815 224:-0.114025 225:-0.078862 226:-0.021452 229:-0.014952 230:-0.021097 
1 1:-0.4576725 2:-0.50610125 3:0.13162025 4:-0.0175675 5:0.54715125 6:-0.054385 7:0.048441 8:-0.02012525 9:0.61309025 10:0.561223 11:1.0282923 12:-0.52837375 13:-0.054535 14:-0.06064725 15:-0.142664 16:-0.2516725 17:-0.225084 18:-0.014952 19:-0.08711 20:-0.156894 21:-0.186404 22:-0.24472575 23:-0.021302 24:-0.028883 25:-0.038542 26:-0.023332 27:-0.023412 30:-0.02702 31:1.761781 32:0.05485025 33:-0.07569 34:0.873237 35:0.12745675 36:-0.26576 37:-0.080866 38:-0.123851 39:-0.2018145 40:-0.451394 41:-0.309461 42:-0.025787 43:-0.073582 44:-0.09233775 45:-0.0941115 46:-0.13681475 47:-0.201557 49:-0.021708 50:-0.021658 51:-0.041491 52:-0.02904025 53:-0.071887 54:-0.095154 55:-0.014952 60:-0.014952 61:-0.017265 62:-0.024647 63:-0.021215 70:-0.065785 71:-0.049974 72:-0.014952 73:-0.0372065 74:0.82617375 75:-0.081953 76:-0.091775 77:-0.050171 78:-0.114846 79:0.987692 80:0.370341 81:-0.263784 82:-0.139878 84:-0.06989 85:-0.2416725 86:-0.3272945 87:-0.590402 88:-0.260113 89:-0.102253 92:-0.040796 93:-0.056023 94:0.14564075 95:-0.1604075 96:-0.115671 97:-0.074486 101:-0.014952 102:-0.014982 103:-0.040764 104:-0.042342 105:-0.027653 106:-0.014952 112:-0.021732 113:-0.021365 114:-0.018 121:-0.017556 122:-0.021126 134:-0.018485 135:-0.01594 138:-0.043134 139:-0.029996 140:-0.09331 141:-0.098605 142:-0.071579 143:-0.017934 144:-0.063725 145:-0.182197 146:0.5421215 147:-0.05238175 148:-0.187455 149:-0.077681 150:-0.03269 152:-0.053085 153:-0.3382735 154:0.22881525 155:-0.58861675 156:-0.171326 157:-0.072849 158:-0.032187 161:-0.0529375 162:6.712815 163:-0.0093715 164:-0.054582 165:-0.032023 169:-0.015029 170:-0.021431 171:-0.018157 178:-0.019294 179:-0.017308 201:-0.032096 202:-0.043388 203:-0.027179 207:-0.099876 208:-0.12564725 209:-0.179409 210:-0.106346 211:-0.037709 215:-0.265739 216:0.33854125 217:-0.1157015 218:-0.102856 219:-0.017565 223:-0.049855 224:15.908383 225:-0.078862 226:-0.021452 229:-0.014952 230:-0.021097 
1 1:-0.43349867 2:-0.44441217 3:0.10126433 4:-0.2309535 5:0.108899 6:-0.56690283 7:0.13151567 8:-0.19845317 9:0.0705425 10:0.2983895 11:-0.79694183 12:1.0325098 13:-0.054535 14:0.0438715 15:-0.261335 16:0.023487667 17:0.86321333 18:-0.014952 19:-0.08711 20:-0.167402 21:-0.067413333 22:-0.248836 23:-0.021302 24:-0.028883 25:-0.038542 26:-0.023332 27:-0.023412 30:-0.02702 31:-0.198246 32:-0.16521067 33:-0.080912 34:-0.325152 35:-0.12256733 36:0.76040083 37:-0.080866 38:-0.224814 39:0.30553233 40:0.26053017 41:1.044505 42:-0.025787 43:-0.073582 44:-0.114571 45:0.044119167 46:-0.160794 47:-0.201557 49:-0.021708 50:-0.021658 51:-0.041491 52:-0.032279 53:-0.071887 54:-0.095154 55:-0.014952 60:-0.014952 61:-0.017265 62:-0.024647 63:-0.021215 70:-0.065785 71:-0.049974 72:-0.014952 73:-0.048732 74:-0.173228 75:-0.177573 76:-0.091775 77:-0.050171 78:-0.114846 79:-0.32521617 80:0.063132667 81:0.44768067 82:-0.139878 84:-0.06989 85:-0.263975 86:-0.088031667 87:0.6766995 88:0.32598033 89:-0.102253 92:-0.040796 93:-0.056023 94:-0.168633 95:-0.188284 96:-0.115671 97:-0.074486 101:-0.014952 102:-0.014982 103:-0.040764 104:-0.042342 105:-0.027653 106:-0.014952 112:-0.021732 113:-0.021365 114:-0.018 121:-0.017556 122:-0.021126 134:-0.018485 135:-0.01594 138:-0.043134 139:-0.029996 140:-0.09331 141:-0.098605 142:-0.071579 143:-0.017934 144:-0.063725 145:-0.182197 146:-0.254092 147:2.304859 148:-0.086235833 149:-0.077681 150:-0.03269 152:-0.053085 153:-0.364504 154:-0.6619905 155:0.875741 156:-0.16895117 157:-0.072849 158:-0.032187 161:-0.061848 162:-0.17491017 163:-0.192699 164:-0.054582 165:-0.032023 169:-0.015029 170:-0.021431 171:-0.018157 178:-0.019294 179:-0.017308 201:-0.032096 202:-0.043388 203:-0.027179 207:-0.099876 208:-0.135405 209:-0.11895667 210:-0.106346 211:-0.037709 215:-0.265739 216:-0.45621883 217:-0.20490717 218:-0.102856 219:-0.017565 223:-0.049855 224:-0.114025 225:-0.078862 226:-0.021452 229:-0.014952 230:-0.021097 
0.9815737815799001 1:-0.19613143 2:-0.075394857 3:0.44260014 4:-0.023199143 5:-0.13928214 6:-0.136459 7:0.553088 8:-0.063962 9:-0.071392286 10:0.552903 11:-0.37097614 12:0.13889414 13:-0.054535 14:-0.297912 15:-0.261335 16:-0.302051 17:-0.21952886 18:-0.014952 19:-0.08711 20:-0.167402 21:-0.200329 22:-0.24781729 23:-0.021302 24:-0.028883 25:-0.038542 26:-0.023332 27:-0.023412 30:0.0097532857 31:-0.198246 32:-0.20685 33:-0.077134714 34:-0.30808471 35:-0.34675514 36:-0.26576 37:-0.080866 38:-0.223195 39:-0.524347 40:-0.44839214 41:-0.28868186 42:-0.025787 43:-0.073582 44:-0.114571 45:-0.18949 46:-0.160794 47:-0.201557 49:-0.021708 50:-0.021658 51:-0.041491 52:-0.032279 53:-0.071887 54:-0.095154 55:-0.014952 60:-0.014952 61:-0.017265 62:-0.024647 63:-0.021215 70:-0.065785 71:-0.049974 72:-0.014952 73:-0.048732 74:-0.173228 75:-0.177573 76:-0.091775 77:-0.050171 78:-0.11136443 79:-0.00048185714 80:-0.39360957 81:-0.255744 82:-0.139878 84:-0.06989 85:-0.26277957 86:-0.63991129 87:-0.35607257 88:-0.19802714 89:-0.102253 92:-0.040796 93:-0.056023 94:-0.168633 95:-0.188284 96:-0.115671 97:-0.074486 101:-0.014952 102:-0.014982 103:-0.040764 104:-0.042342 105:-0.027653 106:-0.014952 112:-0.021732 113:-0.021365 114:-0.018 121:-0.017556 122:-0.021126 134:-0.018485 135:-0.01594 138:-0.043134 139:-0.029996 140:-0.09331 141:-0.098605 142:-0.071579 143:-0.017934 144:-0.063725 145:-0.182118 146:0.20658429 147:-0.39049471 148:-0.187455 149:-0.077681 150:-0.03269 152:-0.053085 153:-0.36446814 154:-0.50896271 155:0.13452586 156:-0.15121943 157:-0.072849 158:-0.032187 161:-0.061848 162:-0.174962 163:-0.192699 164:-0.054582 165:-0.032023 169:-0.015029 170:-0.021431 171:-0.018157 178:-0.019294 179:-0.017308 201:-0.032096 202:-0.043388 203:-0.027179 207:0.99594357 208:8.2102066 209:-0.183154 210:-0.106346 211:-0.037709 215:-0.26190471 216:-0.17974143 217:3.8069214 218:-0.102856 219:-0.017565 223:-0.049855 224:-0.114025 225:-0.078862 226:-0.021452 229:-0.014952 230:-0.021097 
0.5819095663115057 1:-0.55296443 2:-0.40475543 3:-0.074529714 4:-0.596706 5:-0.00024114286 6:0.061433429 7:-0.13389157 8:-0.58557086 9:-0.056991571 10:0.44702829 11:-0.52834557 12:-0.51319871 13:-0.054535 14:-0.25037014 15:-0.25854671 16:-0.260525 17:-0.130725 18:-0.014952 19:-0.08711 20:-0.167402 21:-0.200329 22:-0.248836 23:-0.021302 24:-0.028883 25:-0.038542 26:-0.023332 27:-0.023412 30:-0.02702 31:-0.198246 32:-0.20685 33:-0.061412286 34:-0.28763429 35:-0.30860657 36:-0.258649 37:-0.080866 38:-0.22316257 39:-0.50147086 40:-0.40222757 41:-0.309461 42:-0.025787 43:-0.073582 44:-0.114571 45:-0.18949 46:-0.160794 47:-0.201557 49:-0.021708 50:-0.021658 51:-0.041491 52:-0.032279 53:-0.071887 54:-0.095154 55:-0.014952 60:-0.014952 61:-0.017265 62:-0.024647 63:-0.021215 70:-0.065785 71:-0.049974 72:-0.014952 73:-0.048732 74:-0.173228 75:-0.177573 76:-0.091775 77:-0.050171 78:-0.093329571 79:0.24509771 80:-0.401472 81:-0.263784 82:-0.139878 84:-0.06989 85:-0.26011114 86:-0.69304386 87:-0.54573729 88:-0.260113 89:-0.102253 92:-0.040796 93:-0.056023 94:-0.168633 95:-0.188284 96:-0.115671 97:-0.074486 101:-0.014952 102:-0.014982 103:-0.040764 104:-0.042342 105:-0.027653 106:-0.014952 112:-0.021732 113:-0.021365 114:-0.018 121:-0.017556 122:-0.021126 134:-0.018485 135:-0.01594 138:-0.043134 139:-0.029996 140:-0.09331 141:-0.098605 142:-0.071579 143:-0.017934 144:-0.063725 145:-0.092480143 146:0.547866 147:-0.391468 148:-0.187455 149:-0.077681 150:-0.03269 152:-0.053085 153:1.8542303 154:0.16142529 155:-0.634485 156:-0.171326 157:-0.072849 158:-0.032187 161:-0.061848 162:-0.174962 163:-0.192699 164:-0.054582 165:-0.032023 169:-0.015029 170:-0.021431 171:-0.018157 178:-0.019294 179:-0.017308 201:-0.032096 202:-0.043388 203:-0.027179 207:0.072211857 208:-0.135405 209:-0.183154 210:-0.106346 211:-0.037709 215:4.8770106 216:-0.032098571 217:-0.41202614 218:-0.102856 219:-0.017565 223:-0.049855 224:-0.114025 225:-0.078862 226:-0.021452 229:-0.014952 230:-0.021097 
1 1:0.040326 2:0.30735371 3:-0.221495 4:-0.095186857 5:-0.073106 6:0.51128 7:-0.240518 8:-0.064179571 9:-0.16582571 10:0.17348871 11:0.21387 12:0.018750571 13:-0.054535 14:-0.297912 15:-0.25998543 16:-0.26797186 17:-0.083895571 18:-0.014952 19:-0.08711 20:-0.167402 21:-0.19825329 22:-0.20881257 23:-0.021302 24:-0.028883 25:-0.038542 26:-0.023332 27:-0.023412 30:-0.02702 31:-0.198246 32:-0.20685 33:-0.080912 34:-0.327191 35:-0.34129914 36:-0.26576 37:-0.080866 38:-0.198443 39:0.56022229 40:0.40092714 41:0.15287471 42:-0.025787 43:-0.073582 44:-0.114571 45:-0.169356 46:-0.14089229 47:-0.19339557 49:-0.021708 50:-0.021658 51:-0.041491 52:-0.032279 53:-0.071887 54:-0.095154 55:-0.014952 60:-0.014952 61:-0.017265 62:-0.024647 63:-0.021215 70:-0.065785 71:-0.049974 72:-0.014952 73:-0.048732 74:-0.173228 75:-0.177573 76:-0.091775 77:-0.050171 78:-0.114846 79:-0.33146257 80:-0.400697 81:-0.26335114 82:-0.139878 84:-0.06989 85:-0.263975 86:0.049136143 87:-0.082885286 88:-0.24785157 89:-0.102253 92:-0.040796 93:-0.056023 94:-0.168633 95:-0.188284 96:-0.115671 97:-0.074486 101:-0.014952 102:-0.014982 103:-0.040764 104:-0.042342 105:-0.027653 106:-0.014952 112:-0.021732 113:-0.021365 114:-0.018 121:-0.017556 122:-0.021126 134:-0.018485 135:-0.01594 138:-0.043134 139:-0.029996 140:-0.09331 141:-0.098605 142:-0.071579 143:-0.017934 144:-0.063725 145:-0.182197 146:-0.25315157 147:-0.39138814 148:-0.187455 149:-0.077681 150:-0.03269 152:-0.053085 153:-0.17129271 154:0.79475086 155:0.066373429 156:-0.17107043 157:-0.072849 158:-0.032187 161:-0.061848 162:-0.174962 163:-0.192699 164:-0.054582 165:-0.032023 169:-0.015029 170:-0.021431 171:-0.018157 178:-0.019294 179:-0.017308 201:-0.032096 202:-0.043388 203:-0.027179 207:-0.099876 208:-0.135405 209:-0.183154 210:-0.106346 211:-0.037709 215:1.4538859 216:-0.062897429 217:-0.15097871 218:-0.102856 219:-0.017565 223:-0.049855 224:-0.114025 225:-0.078862 226:-0.021452 229:-0.014952 230:-0.021097 
