svm_type c_svc
kernel_type polynomial
degree 1
gamma 10
coef0 0
nr_class 2
total_sv 408
rho 0.39967
label 1 0
nr_sv 180 228
SV
1.955360722564689 103:0.071097 350:0.071097 650:0.071097 1236:0.071097 2981:0.071097 4158:0.071097 5271:0.071097 5468:0.071097 7038:0.071097 16242:0.14683 23702:0.071097 25944:0.071097 38822:0.071097 
0.295347768148683 18:0.047035 62:0.047035 260:0.097136 276:0.047035 337:0.047035 395:0.047035 603:0.047035 653:0.047035 790:0.097136 791:0.097136 828:0.047035 1935:0.047035 1982:0.047035 2238:0.047035 5471:0.047035 5672:0.097136 16964:0.047035 
0.9722995482400468 1565:0.24752 2738:0.12541 3216:0.12541 6745:0.12541 6968:0.12541 13535:0.12541 20786:0.12541 
0.4345694448271625 103:0.043158 439:0.043158 698:0.043158 964:0.043158 1383:0.043158 1565:0.13403 2395:0.043158 2482:0.043158 2738:0.043158 3216:0.043158 3507:0.043158 6179:0.043158 6745:0.043158 6968:0.043158 8024:0.043158 8903:0.043158 13427:0.08913 13535:0.043158 20786:0.043158 38685:0.043158 
0.658170805802701 30:0.035714 103:0.035714 373:0.035714 392:0.035714 439:0.035714 698:0.035714 928:0.035714 1194:0.035714 1425:0.035714 1803:0.035714 2292:0.035714 2462:0.035714 2469:0.035714 2916:0.035714 4014:0.035714 4636:0.035714 4886:0.035714 6745:0.035714 7189:0.035714 7202:0.035714 7558:0.035714 10100:0.035714 10484:0.035714 10780:0.035714 11187:0.035714 13427:0.035714 20786:0.035714 38691:0.035714 
2.347515967224575 171:0.034483 260:0.034483 373:0.034483 592:0.034483 629:0.034483 646:0.034483 698:0.034483 790:0.034483 852:0.034483 928:0.034483 1039:0.034483 1194:0.034483 2292:0.034483 2462:0.034483 2675:0.034483 2916:0.034483 3320:0.034483 3326:0.034483 3521:0.034483 4014:0.034483 4018:0.034483 4636:0.034483 4886:0.034483 5702:0.034483 7189:0.034483 7286:0.034483 10780:0.034483 11187:0.034483 41059:0.034483 
0.7193758472884105 178:0.25 1191:0.25 1328:0.25 9249:0.25 
3.755820608536663 14:0.041667 91:0.041667 103:0.041667 121:0.041667 171:0.041667 218:0.041667 708:0.041667 722:0.041667 914:0.041667 1021:0.041667 2077:0.041667 2137:0.041667 2260:0.041667 2270:0.041667 2396:0.041667 2746:0.041667 4823:0.041667 6421:0.041667 7769:0.041667 7960:0.041667 8014:0.041667 11231:0.041667 16306:0.041667 26550:0.041667 
1.249820108938812 121:0.033117 171:0.033117 183:0.033117 246:0.068394 543:0.033117 646:0.033117 771:0.033117 914:0.033117 1068:0.033117 1366:0.033117 1425:0.068394 1701:0.033117 2137:0.033117 2205:0.033117 2260:0.033117 2270:0.033117 2482:0.068394 2746:0.033117 2933:0.033117 4676:0.033117 4679:0.033117 6975:0.033117 7286:0.033117 8014:0.033117 16306:0.033117 23799:0.033117 26550:0.033117 
2.36731646201637 95:0.034483 104:0.034483 246:0.034483 269:0.034483 439:0.034483 564:0.034483 735:0.034483 986:0.034483 1039:0.034483 1599:0.034483 2260:0.034483 2270:0.034483 2482:0.034483 2981:0.034483 3629:0.034483 3995:0.034483 4991:0.034483 5868:0.034483 6304:0.034483 6944:0.034483 7267:0.034483 10214:0.034483 10818:0.034483 10845:0.034483 12312:0.034483 17244:0.034483 19745:0.034483 20081:0.034483 23806:0.034483 
1.366141523198586 40:0.038501 95:0.038501 246:0.038501 269:0.038501 414:0.038501 439:0.038501 462:0.038501 463:0.038501 986:0.038501 1039:0.038501 2260:0.038501 2270:0.038501 2482:0.075987 3629:0.038501 3987:0.038501 3995:0.038501 4991:0.038501 6139:0.038501 6304:0.038501 10214:0.038501 10818:0.038501 10845:0.038501 17244:0.038501 19745:0.038501 20081:0.038501 
0.3077283093060619 40:0.11628 95:0.058915 414:0.058915 462:0.058915 463:0.058915 465:0.058915 473:0.058915 1234:0.058915 1453:0.058915 2237:0.058915 2482:0.058915 3657:0.058915 3987:0.058915 6139:0.058915 7494:0.058915 10214:0.058915 
0.707230533201887 40:0.055637 180:0.055637 304:0.055637 384:0.055637 439:0.055637 473:0.055637 645:0.055637 709:0.055637 941:0.055637 2237:0.10981 3095:0.055637 3657:0.055637 3660:0.055637 3987:0.055637 4945:0.055637 10324:0.055637 25763:0.055637 
1.414179901786354 102:0.052705 104:0.052705 180:0.052705 283:0.052705 304:0.052705 384:0.052705 439:0.052705 666:0.052705 709:0.052705 722:0.052705 941:0.052705 1425:0.052705 2053:0.052705 2237:0.10402 2404:0.052705 3987:0.052705 10214:0.052705 10324:0.052705 
0.1527764175326309 31:0.092502 62:0.044791 127:0.044791 472:0.044791 608:0.044791 631:0.044791 663:0.092502 1125:0.044791 1510:0.092502 2670:0.044791 3320:0.092502 4186:0.044791 4950:0.092502 7242:0.044791 10343:0.044791 12710:0.044791 19034:0.044791 
0.4057162278354313 31:0.10431 127:0.052851 183:0.052851 188:0.052851 304:0.052851 524:0.052851 663:0.10431 862:0.052851 928:0.052851 1125:0.052851 1510:0.052851 3320:0.052851 4186:0.052851 4950:0.10431 12710:0.052851 19034:0.052851 
2.735286595942506 31:0.05 32:0.05 62:0.05 176:0.05 183:0.05 185:0.05 188:0.05 304:0.05 524:0.05 663:0.05 862:0.05 928:0.05 1696:0.05 1715:0.05 1837:0.05 2294:0.05 2341:0.05 4917:0.05 4950:0.05 12710:0.05 
1.415604058338851 31:0.084897 32:0.041108 62:0.084897 127:0.041108 176:0.041108 183:0.041108 185:0.041108 663:0.041108 928:0.041108 1518:0.041108 1696:0.084897 1715:0.041108 1837:0.041108 2294:0.041108 2341:0.041108 4917:0.084897 4950:0.084897 10621:0.041108 12710:0.041108 
1.87807447709389 40:0.049838 62:0.049838 645:0.049838 814:0.049838 894:0.049838 1177:0.049838 2000:0.049838 2732:0.049838 3084:0.049838 3650:0.049838 3704:0.049838 3780:0.049838 3864:0.049838 3894:0.049838 4412:0.049838 5136:0.10292 5137:0.049838 14580:0.049838 19278:0.049838 
0.2329081163202107 40:0.077271 91:0.077271 104:0.077271 110:0.077271 119:0.077271 645:0.22933 2278:0.077271 3894:0.077271 5136:0.077271 5137:0.15251 
0.04638970100324757 14580:1 
1.37310589097378 9:0.043478 62:0.043478 103:0.043478 110:0.043478 119:0.043478 268:0.043478 394:0.043478 395:0.043478 2278:0.043478 2294:0.043478 2970:0.043478 4412:0.043478 5136:0.043478 5137:0.043478 5624:0.043478 5800:0.043478 6417:0.043478 8414:0.043478 9339:0.043478 10752:0.043478 19278:0.043478 20422:0.043478 25686:0.043478 
0.2065762437408958 62:0.10239 267:0.049577 311:0.049577 484:0.049577 509:0.049577 572:0.049577 727:0.049577 1550:0.049577 2422:0.049577 2697:0.049577 2743:0.049577 4689:0.049577 5671:0.049577 7183:0.049577 7242:0.15396 8951:0.049577 21848:0.049577 
0.6438871660922005 62:0.14007 84:0.045105 267:0.045105 311:0.045105 383:0.045105 484:0.045105 521:0.045105 1121:0.045105 1670:0.045105 2422:0.045105 4689:0.045105 5671:0.045105 6142:0.045105 7183:0.045105 7242:0.09315 9796:0.045105 21848:0.045105 35919:0.045105 46084:0.045105 
0.9274410727446667 62:0.10997 84:0.055719 383:0.055719 436:0.055719 521:0.055719 627:0.055719 1121:0.055719 1225:0.055719 1670:0.055719 6142:0.055719 7242:0.055719 8925:0.055719 9796:0.055719 25302:0.10997 35919:0.055719 46084:0.055719 
1.065036263861205 64:0.044841 103:0.044841 198:0.044841 269:0.044841 494:0.13925 521:0.044841 536:0.044841 649:0.044841 1664:0.044841 2490:0.044841 3095:0.044841 4158:0.044841 4823:0.092605 5560:0.044841 6868:0.092605 7960:0.092605 24288:0.044841 
1.294047993809207 62:0.089034 64:0.043112 198:0.043112 269:0.043112 431:0.043112 521:0.043112 649:0.043112 763:0.043112 1664:0.043112 2217:0.043112 2490:0.043112 3095:0.043112 4158:0.043112 4823:0.089034 5560:0.043112 5596:0.043112 6868:0.043112 7960:0.089034 7961:0.043112 35805:0.043112 
0.8625634810112132 103:0.066667 171:0.066667 183:0.066667 260:0.066667 559:0.066667 945:0.066667 1068:0.066667 2041:0.066667 3914:0.066667 4822:0.066667 5234:0.066667 7242:0.066667 7930:0.066667 46000:0.066667 64696:0.066667 
2.585337020593968 2:0.058935 50:0.058935 53:0.058935 62:0.17491 236:0.058935 515:0.058935 571:0.058935 727:0.058935 791:0.058935 841:0.058935 1211:0.058935 1221:0.058935 1438:0.058935 2046:0.058935 5370:0.058935 
0.5695268645434871 117:1 
3.235291414404244 103:0.045238 110:0.045238 142:0.045238 276:0.045238 449:0.045238 466:0.045238 536:0.045238 822:0.045238 849:0.14048 881:0.045238 963:0.045238 1078:0.045238 1295:0.045238 1563:0.045238 1584:0.045238 1979:0.045238 1980:0.045238 2821:0.045238 3235:0.045238 8473:0.045238 
3.04235314937701 62:0.039832 67:0.039832 435:0.039832 696:0.039832 770:0.039832 841:0.039832 843:0.039832 1054:0.039832 1453:0.039832 1476:0.039832 1982:0.039832 2234:0.039832 2464:0.039832 2560:0.039832 3907:0.039832 4317:0.039832 5972:0.039832 7189:0.039832 7962:0.039832 8361:0.039832 8472:0.039832 8481:0.1237 12034:0.039832 
1.074298854806023 608:0.2 4109:0.2 4627:0.2 5684:0.2 7955:0.2 
0.9683743789865363 121:0.045187 127:0.093319 186:0.045187 423:0.045187 1140:0.045187 1150:0.045187 1633:0.045187 1898:0.045187 2111:0.045187 2517:0.093319 3911:0.045187 3987:0.045187 3992:0.045187 4030:0.045187 4995:0.045187 5017:0.045187 5672:0.045187 7242:0.045187 8542:0.045187 15622:0.045187 
2.728593791551974 18:0.047035 25:0.047035 43:0.047035 276:0.097136 478:0.097136 480:0.097136 712:0.047035 722:0.047035 1039:0.047035 1492:0.047035 2295:0.047035 3215:0.097136 3755:0.047035 3920:0.047035 7061:0.047035 18251:0.047035 24080:0.047035 
0.2066596776178114 18:0.047619 25:0.047619 43:0.047619 62:0.047619 71:0.047619 84:0.047619 142:0.047619 145:0.047619 276:0.047619 337:0.047619 394:0.047619 478:0.047619 480:0.047619 712:0.047619 722:0.047619 1039:0.047619 2295:0.047619 3037:0.047619 3215:0.047619 3755:0.047619 8220:0.047619 
1.754715022104199 62:0.10446 71:0.052925 84:0.052925 85:0.052925 142:0.052925 145:0.052925 183:0.10446 185:0.10446 276:0.052925 767:0.052925 1039:0.10446 1332:0.052925 1490:0.052925 3215:0.052925 3805:0.052925 
4.556125011737094 62:0.047325 71:0.097736 84:0.047325 113:0.047325 145:0.097736 147:0.047325 185:0.047325 332:0.047325 382:0.047325 394:0.047325 631:0.047325 663:0.047325 767:0.047325 894:0.047325 961:0.047325 3037:0.047325 3415:0.047325 4799:0.047325 12750:0.047325 
0.4085760493273316 62:0.08808 71:0.04265 84:0.04265 145:0.13245 147:0.13245 332:0.04265 382:0.04265 383:0.04265 663:0.04265 894:0.04265 961:0.13245 2372:0.04265 3037:0.04265 3415:0.04265 12750:0.08808 
0.2256703539868432 71:0.1674 309:0.1674 766:0.1674 1062:0.3304 26537:0.1674 
2.652235100848538 62:0.082393 69:0.039896 79:0.039896 126:0.039896 188:0.039896 304:0.039896 389:0.039896 428:0.039896 436:0.039896 643:0.039896 650:0.039896 979:0.039896 1039:0.039896 1058:0.039896 1749:0.039896 2234:0.039896 2804:0.039896 3529:0.039896 5331:0.039896 6548:0.039896 7963:0.039896 8380:0.039896 10560:0.039896 23644:0.039896 
0.8784371718452528 62:0.045455 79:0.045455 276:0.045455 436:0.045455 478:0.045455 480:0.045455 979:0.045455 1039:0.045455 1492:0.045455 2234:0.045455 2804:0.045455 3215:0.045455 3920:0.045455 5331:0.045455 6548:0.045455 7061:0.045455 7963:0.045455 8380:0.045455 10560:0.045455 18251:0.045455 23644:0.045455 24080:0.045455 
2.508142626248574 62:0.038462 79:0.038462 85:0.038462 103:0.038462 119:0.038462 145:0.038462 296:0.038462 517:0.038462 931:0.038462 974:0.038462 1245:0.038462 1510:0.038462 1976:0.038462 3415:0.038462 3728:0.038462 3803:0.038462 4977:0.038462 5331:0.038462 8420:0.038462 8801:0.038462 9258:0.038462 17032:0.038462 23644:0.038462 25917:0.038462 35841:0.038462 35842:0.038462 
1.825194209508295 356:0.066667 711:0.066667 728:0.066667 1221:0.066667 1492:0.066667 2243:0.066667 2864:0.066667 3470:0.066667 3988:0.066667 8249:0.066667 11391:0.066667 12121:0.066667 31256:0.066667 34569:0.066667 42068:0.066667 
1.050043755088248 104:0.045455 182:0.045455 235:0.045455 239:0.045455 516:0.045455 1217:0.045455 1267:0.045455 2074:0.045455 2631:0.045455 3201:0.045455 4317:0.045455 4321:0.045455 4520:0.045455 5652:0.045455 6603:0.045455 7242:0.045455 7267:0.045455 7589:0.045455 7940:0.045455 13649:0.045455 21212:0.045455 25836:0.045455 
1.006527699854134 239:0.041667 566:0.041667 706:0.041667 1217:0.041667 1267:0.041667 1381:0.041667 1694:0.041667 1726:0.041667 1749:0.041667 2074:0.041667 2631:0.041667 2691:0.041667 3489:0.041667 3577:0.041667 3988:0.041667 4317:0.041667 5652:0.041667 6603:0.041667 6888:0.041667 7589:0.041667 8111:0.041667 21212:0.041667 25836:0.041667 31256:0.041667 
1.783509224838746 566:0.043355 706:0.043355 1267:0.043355 1381:0.043355 1692:0.043355 1694:0.043355 1726:0.043355 1749:0.043355 2502:0.043355 2691:0.043355 2711:0.043355 3073:0.043355 3489:0.043355 3577:0.043355 3988:0.043355 6806:0.043355 6888:0.089537 8111:0.043355 8962:0.043355 13703:0.043355 14246:0.043355 31256:0.043355 
0.3097664817744009 18:0.061995 380:0.061995 475:0.061995 478:0.061995 489:0.061995 517:0.061995 854:0.061995 2076:0.061995 3514:0.061995 5791:0.061995 6063:0.12803 8714:0.12803 14101:0.061995 34701:0.061995 
1.187131026675824 5:0.0558 6:0.0558 62:0.11013 126:0.0558 380:0.0558 1425:0.0558 2076:0.0558 3514:0.0558 3666:0.0558 6063:0.11013 7788:0.0558 8714:0.0558 14101:0.0558 27960:0.0558 34701:0.11013 
1.801322163148563 48:0.16667 62:0.16667 91:0.16667 787:0.16667 2002:0.16667 2322:0.16667 
0.09026887259109322 2:0.032395 3:0.032395 14:0.032395 33:0.032395 40:0.12619 48:0.063937 62:0.032395 103:0.032395 111:0.032395 144:0.032395 169:0.032395 198:0.032395 267:0.032395 435:0.032395 829:0.032395 1177:0.032395 2407:0.032395 2571:0.032395 4106:0.032395 4728:0.032395 4823:0.032395 5165:0.032395 5528:0.032395 7159:0.032395 7960:0.032395 7962:0.032395 14101:0.032395 
0.9910879056966001 18:0.041667 40:0.041667 62:0.041667 260:0.041667 313:0.041667 380:0.041667 475:0.041667 829:0.041667 1787:0.041667 1870:0.041667 2238:0.041667 3095:0.041667 3505:0.041667 3514:0.041667 4048:0.041667 4159:0.041667 4418:0.041667 4472:0.041667 4599:0.041667 4945:0.041667 11343:0.041667 13626:0.041667 17659:0.041667 27960:0.041667 
0.7359455517863894 9:0.041667 62:0.041667 124:0.041667 260:0.041667 268:0.041667 380:0.041667 570:0.041667 837:0.041667 1787:0.041667 1870:0.041667 2238:0.041667 3084:0.041667 3505:0.041667 3514:0.041667 3666:0.041667 4048:0.041667 4159:0.041667 4928:0.041667 11343:0.041667 12665:0.041667 17659:0.041667 20927:0.041667 27960:0.041667 42988:0.041667 
0.1016963947198203 276:0.33333 4880:0.33333 12798:0.33333 
1.034674204709096 11:0.070769 78:0.070769 79:0.070769 276:0.070769 372:0.070769 809:0.14615 1039:0.070769 1058:0.070769 2912:0.070769 4728:0.14615 4880:0.070769 12798:0.070769 
0.4793337612344871 556:0.2 1772:0.2 3927:0.2 4520:0.2 18051:0.2 
1.578361139765445 56:0.0625 104:0.0625 281:0.0625 488:0.0625 556:0.0625 791:0.0625 1244:0.0625 1772:0.0625 1902:0.0625 2334:0.0625 2560:0.0625 3089:0.0625 3927:0.0625 4520:0.0625 5360:0.0625 18051:0.0625 
1.349816581425605 9:0.097736 40:0.047325 103:0.047325 198:0.047325 211:0.047325 373:0.047325 382:0.047325 514:0.047325 635:0.047325 1059:0.047325 1770:0.047325 2042:0.047325 3089:0.047325 3654:0.047325 4499:0.097736 5601:0.047325 5830:0.047325 9158:0.047325 16875:0.047325 
0.7973369004615958 122:0.33333 414:0.33333 1339:0.33333 
0.3504526981183361 23:0.090909 40:0.090909 122:0.090909 325:0.090909 414:0.090909 762:0.090909 931:0.090909 1339:0.090909 2503:0.090909 3104:0.090909 4236:0.090909 
1.124985286673504 40:0.04532 96:0.04532 155:0.04532 198:0.093595 414:0.04532 441:0.04532 762:0.04532 796:0.04532 802:0.04532 805:0.04532 916:0.04532 1140:0.04532 1227:0.04532 1418:0.04532 2175:0.04532 2557:0.04532 2560:0.04532 2749:0.04532 4815:0.04532 4884:0.04532 12093:0.04532 
1.353551400651293 23:0.049838 25:0.049838 264:0.049838 341:0.049838 762:0.10292 1976:0.049838 2147:0.049838 2294:0.049838 2408:0.049838 2503:0.049838 3113:0.049838 3780:0.049838 3896:0.049838 4426:0.049838 4653:0.049838 4884:0.049838 7054:0.049838 7432:0.049838 8288:0.049838 
1.396810244756823 40:0.039896 62:0.039896 126:0.039896 203:0.039896 282:0.039896 372:0.039896 373:0.039896 562:0.082393 635:0.039896 1002:0.039896 1951:0.039896 1996:0.039896 2890:0.039896 3063:0.039896 4025:0.039896 5279:0.039896 5814:0.039896 6247:0.039896 7242:0.039896 8132:0.039896 11858:0.039896 13941:0.039896 35863:0.039896 47979:0.039896 
1.446762618190801 40:0.037182 62:0.073385 203:0.037182 282:0.073385 370:0.037182 373:0.073385 562:0.037182 603:0.037182 635:0.037182 1002:0.037182 1425:0.037182 1996:0.037182 2412:0.037182 2565:0.037182 2890:0.037182 4025:0.073385 4520:0.037182 5279:0.037182 5736:0.037182 6759:0.037182 11858:0.037182 13941:0.037182 15036:0.037182 
0.856904167225138 182:0.070391 499:0.14537 517:0.14537 564:0.28691 771:0.070391 1234:0.070391 2585:0.070391 9215:0.070391 13945:0.070391 
1.411506013362056 276:0.06184 453:0.06184 499:0.06184 517:0.06184 564:0.19204 744:0.06184 931:0.06184 1234:0.12771 4290:0.06184 9213:0.06184 9214:0.06184 9215:0.06184 13945:0.06184 
0.550863516204364 248:0.102 276:0.15338 448:0.049391 489:0.049391 499:0.049391 517:0.049391 564:0.20132 597:0.049391 5576:0.049391 6578:0.049391 7189:0.049391 9220:0.049391 9439:0.049391 9834:0.049391 
1.263701712220306 603:0.11111 770:0.11111 787:0.11111 889:0.11111 1713:0.11111 2585:0.11111 4093:0.11111 9220:0.11111 9571:0.11111 
0.02795876684915961 276:0.043037 439:0.043037 448:0.043037 489:0.043037 499:0.043037 564:0.13365 597:0.08888 787:0.043037 2585:0.043037 2696:0.043037 4202:0.043037 4414:0.043037 4823:0.043037 5576:0.043037 5694:0.043037 6578:0.043037 7960:0.043037 9220:0.08888 9834:0.043037 
0.7199484960275353 13:0.04133 62:0.04133 86:0.04133 244:0.04133 359:0.04133 666:0.04133 766:0.04133 805:0.085354 822:0.04133 916:0.04133 1120:0.04133 1277:0.04133 1495:0.085354 2111:0.04133 2514:0.085354 2639:0.04133 2726:0.04133 5017:0.04133 7242:0.04133 12716:0.04133 18455:0.04133 
0.03424413396320014 4:0.027406 40:0.056598 43:0.027406 86:0.027406 185:0.027406 478:0.027406 766:0.027406 782:0.027406 788:0.027406 916:0.11171 1069:0.027406 1140:0.027406 1496:0.056598 1518:0.027406 2514:0.056598 2522:0.027406 2726:0.11171 3916:0.027406 3990:0.027406 5517:0.027406 7065:0.027406 12716:0.056598 18455:0.11171 
1.233211577944253 13:0.034099 40:0.034099 67:0.034099 146:0.034099 171:0.034099 185:0.034099 372:0.034099 614:0.034099 782:0.034099 788:0.034099 809:0.034099 916:0.070422 1069:0.034099 1140:0.034099 1245:0.034099 1496:0.034099 2506:0.034099 2514:0.070422 2726:0.070422 3320:0.034099 3916:0.034099 4390:0.034099 12716:0.070422 18455:0.070422 
1.594420869254022 71:0.034328 145:0.034328 171:0.034328 183:0.070895 260:0.034328 627:0.070895 696:0.034328 698:0.034328 714:0.034328 735:0.034328 755:0.034328 790:0.034328 791:0.034328 852:0.034328 955:0.034328 3103:0.034328 4398:0.034328 4687:0.034328 4834:0.034328 4835:0.034328 8763:0.034328 10573:0.034328 10574:0.034328 10575:0.034328 10576:0.034328 10577:0.034328 10578:0.034328 
3.455050594336294 123:0.04532 198:0.04532 304:0.04532 437:0.04532 448:0.04532 861:0.04532 1069:0.04532 1139:0.04532 1706:0.04532 1822:0.04532 1943:0.04532 2635:0.04532 2725:0.04532 2912:0.04532 5213:0.04532 7012:0.04532 8684:0.04532 16677:0.04532 26538:0.093595 38934:0.04532 48673:0.04532 
1.636666226614196 101:0.059098 171:0.059098 183:0.059098 489:0.059098 642:0.059098 928:0.11664 1078:0.059098 1670:0.059098 5993:0.059098 23727:0.11664 37285:0.059098 48673:0.11664 51240:0.059098 56096:0.059098 
1.683480966615818 41:0.090909 62:0.090909 100:0.090909 1080:0.090909 1086:0.090909 1092:0.090909 1122:0.090909 1123:0.090909 1133:0.090909 3567:0.090909 55353:0.090909 
1.270961593888012 41:0.05 60:0.05 62:0.05 100:0.05 103:0.05 124:0.05 235:0.05 964:0.05 1080:0.05 1086:0.05 1092:0.05 1122:0.05 1123:0.05 1133:0.05 1699:0.05 1701:0.05 2714:0.05 13403:0.05 13992:0.05 55353:0.05 
0.1295860571171409 4:0.16667 658:0.16667 1140:0.16667 1418:0.16667 2079:0.16667 6587:0.16667 
1.189946186306242 19:0.058824 84:0.058824 224:0.058824 244:0.058824 268:0.058824 324:0.058824 372:0.058824 727:0.058824 1234:0.058824 1417:0.058824 2107:0.058824 2514:0.058824 4520:0.058824 4884:0.058824 4952:0.058824 5836:0.058824 7955:0.058824 
1.170519425218901 4:0.055637 40:0.055637 117:0.055637 118:0.055637 127:0.055637 244:0.055637 289:0.055637 295:0.055637 332:0.055637 548:0.055637 894:0.055637 1140:0.055637 2093:0.055637 2514:0.10981 3641:0.055637 9149:0.055637 12564:0.055637 
0.5518945998778793 40:0.10226 571:0.049516 1206:0.049516 1406:0.049516 1641:0.10226 2229:0.10226 3280:0.049516 3987:0.049516 4064:0.049516 5136:0.049516 6247:0.049516 7662:0.049516 8226:0.049516 10522:0.049516 11759:0.049516 28399:0.049516 34966:0.049516 
0.2652338189926341 276:0.49669 506:0.25166 4338:0.25166 
0.5307759577925636 37:0.047035 51:0.047035 75:0.097136 169:0.097136 198:0.047035 235:0.047035 465:0.047035 475:0.047035 1061:0.047035 1106:0.097136 1277:0.047035 2223:0.047035 2294:0.097136 2517:0.047035 3987:0.047035 6765:0.047035 22738:0.047035 
2.468754164561188 17:0.043233 69:0.043233 75:0.043233 117:0.043233 122:0.043233 169:0.089285 1061:0.043233 1400:0.043233 1471:0.089285 1829:0.043233 2443:0.043233 2506:0.043233 2517:0.043233 3383:0.043233 3987:0.043233 3990:0.043233 5275:0.043233 6501:0.043233 8234:0.043233 9104:0.043233 22738:0.043233 
0.9761035849014443 37:0.049676 131:0.049676 152:0.049676 235:0.049676 372:0.049676 396:0.049676 491:0.10259 564:0.049676 771:0.049676 1425:0.049676 1658:0.049676 1787:0.049676 1858:0.049676 2100:0.049676 2237:0.049676 2408:0.049676 11097:0.049676 13427:0.10259 
1.069847881667365 62:0.042917 117:0.042917 235:0.042917 269:0.042917 443:0.042917 491:0.088631 523:0.042917 564:0.042917 638:0.042917 771:0.042917 854:0.042917 1008:0.088631 1234:0.042917 1787:0.042917 2100:0.13328 11097:0.042917 13427:0.042917 19583:0.088631 
0.000796665740453776 53:0.043112 57:0.043112 60:0.089034 162:0.043112 235:0.089034 771:0.043112 899:0.043112 936:0.043112 1008:0.043112 1197:0.043112 1400:0.043112 1505:0.043112 1681:0.043112 1858:0.043112 2085:0.043112 2094:0.089034 2329:0.043112 2408:0.043112 13427:0.043112 19583:0.043112 
2.740854460895097 28:0.037037 53:0.037037 60:0.037037 62:0.037037 162:0.037037 235:0.037037 493:0.037037 597:0.037037 771:0.037037 835:0.037037 899:0.037037 1008:0.037037 1197:0.037037 1505:0.037037 1858:0.037037 2085:0.037037 2094:0.037037 2408:0.037037 3606:0.037037 3860:0.037037 4702:0.037037 5467:0.037037 6885:0.037037 7297:0.037037 7438:0.037037 12198:0.037037 19583:0.037037 
1.192814622777186 37:0.04532 131:0.04532 299:0.04532 372:0.04532 396:0.04532 491:0.04532 565:0.04532 771:0.04532 835:0.04532 1490:0.04532 1658:0.04532 1787:0.04532 1858:0.04532 2085:0.04532 2094:0.04532 2100:0.04532 2408:0.04532 4702:0.04532 6757:0.04532 13427:0.093595 19583:0.04532 
0.7717798758663381 28:0.037073 62:0.037073 309:0.037073 370:0.037073 493:0.037073 565:0.037073 597:0.037073 608:0.037073 759:0.037073 835:0.037073 2094:0.037073 2585:0.037073 2631:0.037073 3021:0.037073 3606:0.037073 3860:0.037073 4702:0.07317 4703:0.037073 4704:0.037073 5467:0.037073 6885:0.037073 7297:0.037073 7438:0.037073 12198:0.037073 13427:0.037073 24401:0.037073 
1.191491942629146 309:0.037109 370:0.037109 565:0.073242 597:0.037109 608:0.037109 759:0.037109 786:0.037109 835:0.037109 1387:0.037109 1490:0.037109 1858:0.037109 2085:0.037109 2094:0.037109 2175:0.037109 2585:0.037109 2631:0.037109 3021:0.037109 4702:0.037109 4703:0.037109 4704:0.037109 5672:0.037109 8024:0.037109 10484:0.037109 13427:0.073242 24401:0.037109 
3.979495928954715 5:0.043478 46:0.043478 140:0.043478 327:0.043478 341:0.043478 345:0.043478 380:0.043478 470:0.043478 510:0.043478 1387:0.043478 1493:0.043478 1641:0.043478 2029:0.043478 2946:0.043478 3514:0.043478 3637:0.043478 3728:0.043478 4831:0.043478 6381:0.043478 6602:0.043478 9297:0.043478 9764:0.043478 9784:0.043478 
2.110766190012095 30:0.034252 46:0.034252 142:0.070736 145:0.070736 266:0.034252 269:0.034252 327:0.034252 448:0.034252 603:0.034252 649:0.034252 1021:0.034252 1323:0.034252 1541:0.034252 1988:0.034252 2279:0.034252 2851:0.034252 3089:0.034252 3219:0.034252 4311:0.034252 4823:0.034252 5763:0.034252 7242:0.034252 11263:0.034252 11343:0.034252 11772:0.034252 30611:0.070736 
0.06028819541740477 30:0.04532 46:0.04532 142:0.04532 145:0.04532 276:0.04532 327:0.04532 649:0.04532 841:0.04532 1988:0.093595 2851:0.04532 3089:0.04532 3219:0.04532 3947:0.04532 4311:0.04532 4823:0.04532 5788:0.04532 7242:0.04532 7960:0.04532 10308:0.04532 30611:0.04532 35860:0.04532 
0.2889675216763026 14:0.066667 126:0.066667 142:0.066667 622:0.066667 715:0.066667 889:0.066667 1074:0.066667 1506:0.066667 1740:0.066667 2531:0.066667 2840:0.066667 3437:0.066667 7072:0.066667 11929:0.066667 44975:0.066667 
1.778728772071608 126:0.055719 142:0.055719 359:0.055719 450:0.055719 715:0.055719 889:0.055719 963:0.10997 1506:0.055719 1740:0.055719 2531:0.055719 2840:0.055719 3990:0.055719 4587:0.055719 7065:0.10997 7431:0.055719 11929:0.055719 
0.5923648032447988 25:0.055737 359:0.055737 394:0.055737 450:0.055737 853:0.055737 963:0.16542 1730:0.055737 1740:0.055737 2658:0.055737 3990:0.055737 4587:0.055737 4766:0.055737 7065:0.11001 7318:0.055737 7431:0.055737 
1.152771474562962 25:0.055963 394:0.055963 423:0.055963 853:0.055963 963:0.218 1730:0.055963 1740:0.11045 2294:0.055963 2658:0.055963 3990:0.055963 4766:0.055963 6063:0.055963 7318:0.055963 44976:0.055963 
0.9621875353228413 14:0.16667 622:0.16667 1074:0.16667 3437:0.16667 7072:0.16667 44975:0.16667 
0.5371551579767178 115:0.055901 142:0.055901 317:0.055901 417:0.055901 722:0.055901 1140:0.11033 1235:0.055901 1418:0.11033 1730:0.1659 2443:0.055901 7264:0.055901 7953:0.11033 25224:0.055901 
1.027596644756128 43:0.11111 276:0.11111 478:0.11111 1492:0.11111 1597:0.11111 2327:0.11111 2355:0.11111 3928:0.11111 13992:0.11111 
0.4606152905608117 43:0.052632 62:0.052632 86:0.052632 276:0.052632 439:0.052632 478:0.052632 666:0.052632 781:0.052632 1492:0.052632 1597:0.052632 2326:0.052632 2327:0.052632 2355:0.052632 3928:0.052632 4676:0.052632 9232:0.052632 13992:0.052632 16306:0.052632 26550:0.052632 
0.1133080362241183 62:0.097736 67:0.047325 86:0.047325 117:0.047325 435:0.047325 439:0.047325 666:0.047325 781:0.047325 1330:0.047325 1628:0.097736 2186:0.047325 2326:0.047325 3606:0.047325 4676:0.047325 6680:0.047325 9232:0.047325 11231:0.047325 16306:0.047325 26550:0.047325 
1.243077091521102 18:0.039792 62:0.082179 67:0.039792 117:0.039792 260:0.039792 327:0.039792 332:0.039792 435:0.039792 629:0.039792 653:0.039792 787:0.039792 790:0.039792 1330:0.039792 1628:0.082179 1670:0.039792 2186:0.039792 2219:0.039792 2469:0.039792 3320:0.039792 3606:0.039792 6680:0.039792 11231:0.039792 11816:0.039792 
0.4941444042899079 30:0.25 2436:0.25 4743:0.25 6789:0.25 
0.8266808901467596 3593:0.25 7003:0.25 12168:0.25 23875:0.25 
2.476188545944853 62:0.12848 71:0.041372 100:0.041372 154:0.041372 188:0.041372 309:0.041372 341:0.041372 427:0.041372 436:0.041372 468:0.041372 666:0.041372 785:0.041372 786:0.041372 1493:0.041372 1502:0.041372 1544:0.041372 1564:0.041372 1749:0.041372 10818:0.041372 23801:0.085442 40662:0.041372 
2.808576411970995 62:0.097736 71:0.047325 100:0.047325 154:0.047325 183:0.097736 341:0.047325 436:0.047325 468:0.047325 666:0.047325 912:0.047325 1463:0.047325 1464:0.047325 1493:0.047325 1502:0.047325 1544:0.047325 1749:0.047325 3046:0.047325 8111:0.047325 23801:0.047325 
1.811686196793472 152:0.070895 183:0.22016 761:0.070895 912:0.070895 1463:0.070895 1464:0.070895 3046:0.070895 3566:0.070895 4126:0.070895 5716:0.070895 6256:0.070895 8111:0.070895 
1.585629038070948 6:0.045187 71:0.045187 298:0.045187 311:0.093319 439:0.045187 622:0.045187 678:0.045187 1180:0.093319 1236:0.045187 2191:0.045187 2243:0.045187 2247:0.045187 2501:0.045187 2507:0.045187 3987:0.045187 4884:0.045187 10738:0.045187 14643:0.045187 19843:0.045187 35385:0.045187 
2.678635368542423 6:0.10622 40:0.035789 169:0.035789 269:0.035789 298:0.035789 435:0.035789 638:0.035789 1161:0.035789 1319:0.035789 2060:0.035789 2342:0.035789 2501:0.035789 2507:0.070636 2547:0.035789 2635:0.035789 3358:0.035789 3755:0.035789 4048:0.035789 4183:0.035789 4884:0.035789 5590:0.035789 11501:0.035789 11531:0.035789 11773:0.035789 16245:0.035789 
0.6901223766964828 60:0.039689 62:0.039689 155:0.039689 265:0.039689 441:0.039689 698:0.039689 916:0.081966 982:0.039689 1030:0.039689 1106:0.039689 1418:0.039689 2093:0.039689 2563:0.039689 2713:0.039689 2726:0.039689 2743:0.039689 2749:0.039689 3597:0.039689 4887:0.081966 10090:0.039689 14074:0.081966 18913:0.039689 
1.47943047739259 208:0.047146 698:0.047146 982:0.047146 1030:0.047146 1375:0.047146 2093:0.047146 2613:0.047146 3597:0.047146 4887:0.14641 6643:0.047146 6650:0.047146 9489:0.047146 10090:0.047146 11101:0.047146 14074:0.14641 14597:0.047146 18913:0.047146 
1.59344014490459 40:0.04532 43:0.04532 60:0.04532 64:0.04532 544:0.04532 653:0.04532 881:0.04532 1049:0.04532 1124:0.04532 1267:0.093595 1316:0.04532 1322:0.04532 1350:0.04532 1418:0.04532 2054:0.04532 2406:0.04532 2421:0.04532 4155:0.04532 5517:0.04532 11817:0.04532 18598:0.04532 
2.643821173261758 40:0.035748 43:0.035748 60:0.035748 169:0.035748 269:0.035748 462:0.035748 463:0.035748 479:0.035748 544:0.035748 787:0.035748 841:0.035748 881:0.035748 1049:0.035748 1124:0.035748 1322:0.035748 1350:0.035748 1418:0.070555 2406:0.035748 2421:0.035748 2443:0.035748 4155:0.035748 5517:0.035748 8053:0.035748 9519:0.035748 16183:0.035748 18598:0.035748 21849:0.035748 
0.3455823875725581 155:0.037081 169:0.037081 269:0.037081 301:0.037081 418:0.037081 441:0.037081 462:0.037081 463:0.037081 479:0.037081 787:0.037081 841:0.037081 916:0.037081 1180:0.037081 1267:0.037081 1418:0.11005 2443:0.037081 2749:0.037081 5089:0.037081 5090:0.037081 8053:0.037081 9519:0.037081 10484:0.037081 16183:0.037081 21849:0.037081 23746:0.037081 
0.3400433544144166 64:0.049838 125:0.049838 245:0.049838 257:0.049838 276:0.049838 332:0.049838 439:0.049838 787:0.049838 1180:0.049838 1267:0.049838 2093:0.049838 2147:0.10292 2503:0.049838 3735:0.049838 3893:0.049838 4138:0.049838 4884:0.049838 7651:0.049838 10670:0.049838 
1.72296330870776 64:0.052778 125:0.052778 245:0.052778 317:0.052778 1243:0.052778 1267:0.10417 1386:0.052778 1480:0.052778 2093:0.052778 2147:0.052778 3735:0.052778 4138:0.052778 4591:0.052778 4884:0.10417 7651:0.052778 10670:0.052778 12077:0.052778 
1.582360772125417 30:0.047235 62:0.14669 110:0.047235 276:0.047235 431:0.047235 450:0.047235 473:0.047235 478:0.047235 639:0.047235 791:0.047235 1155:0.09755 1335:0.047235 1397:0.047235 1453:0.047235 5735:0.047235 6412:0.047235 6868:0.047235 7428:0.047235 
0.2307706998818258 40:0.15306 1041:0.15306 1335:0.15306 1582:0.077551 1640:0.077551 5216:0.15306 7967:0.077551 10284:0.077551 16336:0.077551 
1.420588440785656 19:0.055637 62:0.055637 78:0.055637 198:0.055637 441:0.055637 770:0.055637 910:0.055637 1041:0.055637 1209:0.10981 1511:0.055637 1640:0.055637 3617:0.055637 3780:0.055637 5481:0.055637 10284:0.055637 10835:0.055637 15571:0.055637 
1.619745829560112 4:0.032429 40:0.032429 62:0.064005 65:0.032429 110:0.064005 155:0.032429 431:0.032429 491:0.096245 523:0.032429 543:0.032429 788:0.032429 791:0.032429 835:0.064005 1041:0.032429 1267:0.032429 1335:0.032429 1756:0.032429 1862:0.032429 2278:0.032429 2632:0.032429 10284:0.032429 18373:0.064005 18374:0.064005 30478:0.032429 
0.4071847792732806 155:0.2 467:0.2 556:0.2 1267:0.2 2716:0.2 
1.186080205930183 268:0.12855 309:0.062246 608:0.062246 718:0.062246 722:0.062246 748:0.062246 979:0.062246 1209:0.062246 1282:0.062246 1384:0.062246 1562:0.062246 1750:0.062246 4380:0.062246 5560:0.062246 14608:0.062246 
0.8795778766465239 244:0.055719 268:0.10997 979:0.055719 1209:0.055719 1282:0.055719 1384:0.055719 1550:0.055719 1562:0.055719 1706:0.055719 3171:0.055719 4380:0.055719 4995:0.055719 5560:0.055719 11830:0.055719 14608:0.10997 42487:0.055719 
3.188372632682417 14:0.047619 126:0.047619 152:0.047619 153:0.047619 188:0.047619 268:0.047619 269:0.047619 853:0.047619 979:0.047619 1152:0.047619 1690:0.047619 2083:0.047619 3103:0.047619 3437:0.047619 4677:0.047619 4943:0.047619 5160:0.047619 5629:0.047619 9442:0.047619 12080:0.047619 13943:0.047619 
1.225971508973833 30:0.043478 84:0.043478 188:0.043478 268:0.043478 475:0.043478 478:0.043478 488:0.043478 548:0.043478 607:0.043478 608:0.043478 1328:0.043478 1418:0.043478 1690:0.043478 1721:0.043478 2041:0.043478 2468:0.043478 2549:0.043478 3335:0.043478 5560:0.043478 6752:0.043478 12080:0.043478 34281:0.043478 42487:0.043478 
0.7514690802645615 53:0.047619 62:0.047619 67:0.047619 260:0.047619 302:0.047619 335:0.047619 544:0.047619 608:0.047619 790:0.047619 791:0.047619 1069:0.047619 1320:0.047619 1743:0.047619 1976:0.047619 3421:0.047619 4884:0.047619 5712:0.047619 6458:0.047619 6950:0.047619 9382:0.047619 20591:0.047619 
2.015716373176253 188:0.089285 218:0.043233 286:0.043233 302:0.043233 309:0.043233 346:0.043233 418:0.043233 427:0.043233 435:0.043233 627:0.043233 705:0.043233 1418:0.043233 2868:0.043233 3974:0.043233 7451:0.043233 7957:0.089285 8837:0.043233 10578:0.043233 13106:0.043233 18983:0.043233 26753:0.043233 
0.02392004050964701 62:0.076314 71:0.038666 132:0.038666 269:0.038666 309:0.038666 419:0.038666 435:0.076314 627:0.038666 650:0.076314 1645:0.038666 2503:0.038666 4884:0.038666 7267:0.11475 7268:0.038666 13649:0.038666 13806:0.038666 15018:0.038666 26216:0.038666 30722:0.076314 30723:0.038666 
1.621582714674768 10:0.071429 14:0.071429 40:0.071429 102:0.071429 126:0.071429 267:0.071429 766:0.071429 783:0.071429 916:0.071429 1239:0.071429 2726:0.071429 3657:0.071429 5136:0.071429 7073:0.071429 
2.876334639832718 102:0.059006 126:0.059006 267:0.059006 283:0.059006 420:0.059006 423:0.059006 449:0.059006 465:0.059006 478:0.11646 666:0.059006 766:0.059006 1582:0.059006 1950:0.059006 3992:0.11646 13626:0.059006 
0.2153526427246114 31:0.2 805:0.2 1694:0.2 3988:0.2 6528:0.2 
0.2248515297553171 40:0.049676 48:0.049676 224:0.049676 436:0.049676 441:0.049676 645:0.049676 750:0.049676 852:0.10259 862:0.049676 1021:0.049676 1138:0.049676 1471:0.049676 2468:0.049676 3657:0.10259 3990:0.049676 6310:0.049676 7065:0.049676 9394:0.049676 
1.215958399415959 9:0.043355 33:0.043355 65:0.043355 78:0.043355 268:0.043355 300:0.043355 341:0.043355 545:0.043355 572:0.043355 663:0.043355 768:0.043355 841:0.043355 1267:0.043355 1345:0.043355 1346:0.043355 1592:0.043355 2479:0.043355 3320:0.089537 3480:0.043355 4425:0.043355 5146:0.043355 35119:0.043355 
0.7676578052803812 65:0.045238 198:0.045238 304:0.045238 341:0.14048 439:0.045238 663:0.045238 841:0.045238 1346:0.045238 1862:0.045238 2479:0.045238 3320:0.045238 3704:0.045238 5146:0.045238 5560:0.045238 7185:0.045238 7957:0.045238 12516:0.045238 13649:0.045238 24231:0.045238 35119:0.045238 
4.07918479793744 28:0.073258 52:0.037117 67:0.037117 79:0.037117 198:0.037117 309:0.037117 341:0.11016 405:0.037117 531:0.037117 746:0.037117 747:0.037117 1489:0.037117 1881:0.037117 2408:0.037117 2748:0.037117 3069:0.037117 3070:0.037117 3320:0.037117 3704:0.037117 4415:0.037117 4790:0.037117 4799:0.037117 4939:0.037117 16798:0.037117 
0.1170678339568132 40:0.04 82:0.04 116:0.04 198:0.04 309:0.04 405:0.04 531:0.04 744:0.04 746:0.04 1386:0.04 1489:0.04 1706:0.04 1881:0.04 2437:0.04 2748:0.04 3070:0.04 3704:0.04 3737:0.04 4415:0.04 4790:0.04 4799:0.04 4987:0.04 5047:0.04 15669:0.04 35120:0.04 
2.551083818524243 40:0.047619 82:0.047619 116:0.047619 332:0.047619 744:0.047619 1328:0.047619 1386:0.047619 1706:0.047619 2151:0.047619 2437:0.047619 2500:0.047619 3674:0.047619 3737:0.047619 3869:0.047619 4255:0.047619 4987:0.047619 5047:0.047619 6865:0.047619 15669:0.047619 26536:0.047619 35120:0.047619 
0.7751994044534207 62:0.125 711:0.125 791:0.125 1217:0.125 2243:0.125 2334:0.125 5813:0.125 38866:0.125 
1.521243061920699 13:0.05 103:0.05 110:0.05 188:0.05 439:0.05 491:0.05 916:0.05 1039:0.05 1078:0.05 1243:0.05 2278:0.05 3566:0.05 3743:0.05 5018:0.05 5491:0.05 11047:0.05 11048:0.05 27719:0.05 27720:0.05 29197:0.05 
3.411071471022859 289:0.043478 295:0.043478 372:0.043478 373:0.043478 486:0.043478 646:0.043478 711:0.043478 771:0.043478 852:0.043478 978:0.043478 1640:0.043478 1701:0.043478 2840:0.043478 2849:0.043478 3873:0.043478 5061:0.043478 5424:0.043478 7286:0.043478 7428:0.043478 13114:0.043478 14577:0.043478 22281:0.043478 30242:0.043478 
9.65494517473034 62:1 
0.2468054852189904 62:0.083517 311:0.083517 450:0.083517 732:0.083517 1020:0.083517 1317:0.083517 1400:0.083517 3104:0.083517 7242:0.16483 11012:0.083517 13805:0.083517 
1.113885800332815 62:0.047472 77:0.047472 103:0.047472 523:0.047472 633:0.047472 663:0.047472 1425:0.047472 2040:0.047472 2357:0.047472 3307:0.047472 5680:0.047472 7242:0.047472 7283:0.098038 7286:0.047472 8778:0.047472 9731:0.047472 11012:0.047472 40961:0.047472 52584:0.047472 52585:0.047472 
0.3163195328863088 77:0.049838 103:0.10292 121:0.049838 633:0.049838 942:0.049838 2040:0.049838 2248:0.049838 2357:0.049838 3307:0.049838 5560:0.049838 5680:0.049838 7242:0.049838 7283:0.049838 7286:0.049838 8778:0.049838 11012:0.049838 13626:0.049838 52584:0.049838 52585:0.049838 
0.2517557147289813 103:0.10431 121:0.052851 126:0.052851 489:0.052851 587:0.052851 732:0.052851 942:0.052851 2248:0.052851 2511:0.052851 5560:0.052851 7242:0.052851 7286:0.052851 8189:0.052851 11012:0.10431 13626:0.052851 38853:0.10431 
0.09055414848562586 103:0.043355 126:0.043355 260:0.043355 489:0.043355 523:0.043355 587:0.043355 629:0.043355 656:0.043355 705:0.043355 732:0.043355 790:0.043355 861:0.043355 1267:0.043355 2511:0.043355 3320:0.043355 7242:0.043355 7283:0.043355 8189:0.043355 11012:0.043355 38853:0.089537 52586:0.043355 52587:0.043355 
0.06583304928878872 56:0.045054 78:0.045054 317:0.045054 735:0.093045 805:0.045054 1120:0.093045 2357:0.093045 2639:0.045054 3008:0.045054 3913:0.045054 3987:0.045054 3988:0.045054 3992:0.045054 5982:0.045054 7072:0.045054 7715:0.045054 8778:0.045054 10214:0.045054 17239:0.045054 
0.9478439358054189 56:0.047472 78:0.047472 295:0.047472 302:0.047472 317:0.047472 449:0.047472 735:0.047472 805:0.047472 852:0.047472 1120:0.047472 2357:0.047472 3008:0.047472 3987:0.047472 3988:0.098038 3989:0.047472 5756:0.047472 7072:0.047472 17239:0.047472 33045:0.047472 48384:0.047472 
0.2290894221468821 295:0.047619 302:0.047619 311:0.047619 449:0.047619 465:0.047619 755:0.047619 777:0.047619 781:0.047619 852:0.047619 1236:0.047619 1425:0.047619 3988:0.047619 3989:0.047619 4949:0.047619 5756:0.047619 7288:0.047619 10214:0.047619 11106:0.047619 13411:0.047619 33045:0.047619 48384:0.047619 
1.719124971491526 161:0.04532 311:0.04532 317:0.04532 465:0.04532 483:0.04532 755:0.04532 767:0.04532 777:0.04532 781:0.04532 853:0.04532 909:0.04532 1120:0.04532 1236:0.04532 1425:0.04532 2639:0.04532 4949:0.04532 7288:0.04532 10214:0.093595 11106:0.04532 13411:0.04532 22534:0.04532 
0.788843334080618 18:0.052705 126:0.052705 267:0.052705 464:0.052705 480:0.052705 744:0.052705 787:0.052705 853:0.052705 1120:0.052705 1574:0.052705 2189:0.052705 2519:0.052705 2639:0.052705 3414:0.052705 6460:0.052705 10214:0.10402 10486:0.052705 11568:0.052705 
2.090456155765339 18:0.058824 126:0.058824 327:0.058824 464:0.058824 480:0.058824 564:0.058824 902:0.058824 1120:0.058824 1574:0.058824 2189:0.058824 2434:0.058824 3414:0.058824 3992:0.058824 10214:0.058824 10486:0.058824 11568:0.058824 17239:0.058824 
0.1400093383554242 7308:1 
1.090220728797369 183:0.090909 439:0.090909 491:0.090909 1463:0.090909 1564:0.090909 1696:0.090909 3270:0.090909 3430:0.090909 4917:0.090909 10620:0.090909 12172:0.090909 
0.6146847323222522 62:0.047325 187:0.047325 188:0.097736 276:0.047325 302:0.047325 627:0.047325 650:0.047325 722:0.047325 1196:0.047325 1375:0.047325 2368:0.097736 3575:0.047325 6844:0.047325 7242:0.047325 7890:0.047325 11388:0.047325 16306:0.047325 27682:0.047325 58585:0.047325 
1.997228659447777 62:0.049838 183:0.049838 188:0.10292 276:0.049838 302:0.049838 650:0.049838 719:0.049838 722:0.049838 933:0.049838 936:0.049838 1375:0.049838 1969:0.049838 2368:0.049838 4675:0.049838 6844:0.049838 7890:0.049838 11388:0.049838 14002:0.049838 16306:0.049838 
1.717711968965116 62:0.04328 183:0.04328 188:0.04328 276:0.04328 302:0.04328 597:0.04328 627:0.04328 719:0.04328 933:0.04328 936:0.04328 955:0.04328 1151:0.04328 1196:0.04328 1969:0.04328 3429:0.04328 4675:0.1344 7392:0.04328 10828:0.04328 14002:0.04328 59841:0.04328 64385:0.04328 
0.2022005175684401 110:0.25 538:0.25 5808:0.25 17057:0.25 
1.471563075571011 14:0.071429 110:0.071429 489:0.071429 538:0.071429 543:0.071429 650:0.071429 1323:0.071429 1374:0.071429 2560:0.071429 4312:0.071429 5808:0.071429 10986:0.071429 17057:0.071429 42974:0.071429 
0.8848028136814753 14:0.055719 198:0.055719 489:0.10997 543:0.055719 650:0.055719 1237:0.055719 1323:0.055719 1374:0.055719 1670:0.055719 2560:0.055719 2692:0.055719 3089:0.10997 4312:0.055719 10986:0.055719 19278:0.055719 42974:0.055719 
0.4329729947372096 198:0.052997 489:0.052997 744:0.052997 931:0.052997 1237:0.052997 1670:0.1046 1862:0.052997 2623:0.052997 2624:0.052997 2692:0.052997 3089:0.20644 8150:0.052997 11952:0.052997 19278:0.052997 27134:0.052997 
1.542253035795754 5:0.034252 246:0.034252 435:0.070736 649:0.034252 744:0.034252 769:0.034252 784:0.034252 931:0.034252 1670:0.034252 1862:0.034252 2270:0.034252 2482:0.034252 2623:0.034252 2624:0.034252 3089:0.070736 7962:0.034252 8150:0.070736 10484:0.034252 10845:0.034252 11343:0.034252 11952:0.034252 19745:0.034252 27134:0.034252 28796:0.034252 32427:0.034252 46079:0.034252 
1.595943048872351 14:0.090909 98:0.090909 188:0.090909 395:0.090909 627:0.090909 1330:0.090909 1723:0.090909 2863:0.090909 5697:0.090909 7256:0.090909 15747:0.090909 
2.300358898248225 14:0.058824 188:0.058824 395:0.058824 627:0.058824 1165:0.058824 1263:0.058824 1330:0.058824 1723:0.058824 2912:0.058824 3103:0.058824 3534:0.058824 6972:0.058824 7256:0.058824 14151:0.058824 15747:0.058824 16980:0.058824 20373:0.058824 
1.496647149821246 19:0.058824 62:0.058824 103:0.058824 308:0.058824 343:0.058824 372:0.058824 717:0.058824 732:0.058824 852:0.058824 1586:0.058824 1670:0.058824 2404:0.058824 2825:0.058824 5721:0.058824 6928:0.058824 7242:0.058824 7271:0.058824 
0.6631801895064308 103:0.070895 343:0.070895 732:0.070895 852:0.22016 1742:0.070895 2431:0.070895 2816:0.070895 2825:0.070895 2897:0.070895 5721:0.070895 6928:0.070895 7271:0.070895 
0.9198828982623778 62:0.055719 264:0.055719 382:0.055719 724:0.055719 732:0.10997 763:0.055719 852:0.10997 1350:0.055719 1451:0.055719 1658:0.055719 1742:0.055719 2431:0.055719 2816:0.055719 2897:0.055719 7242:0.055719 7674:0.055719 
0.3358162569339793 62:0.05 294:0.05 295:0.05 646:0.05 1073:0.05 1381:0.05 1418:0.05 1592:0.05 2251:0.05 2355:0.05 2443:0.05 3161:0.05 3559:0.05 3577:0.05 6587:0.05 6984:0.05 7242:0.05 8947:0.05 22147:0.05 26114:0.05 
0.04776316861378559 254:0.047619 260:0.047619 267:0.047619 294:0.047619 295:0.047619 629:0.047619 646:0.047619 790:0.047619 964:0.047619 1418:0.047619 1723:0.047619 2251:0.047619 3161:0.047619 3320:0.047619 3559:0.047619 4784:0.047619 6587:0.047619 6984:0.047619 7242:0.047619 10166:0.047619 26114:0.047619 
1.719314938171265 84:0.083333 183:0.083333 409:0.083333 427:0.083333 428:0.083333 454:0.083333 1064:0.083333 1197:0.083333 1964:0.083333 3454:0.083333 11037:0.083333 31552:0.083333 
1.790004280173298 62:0.055556 84:0.055556 181:0.055556 183:0.055556 300:0.055556 332:0.055556 373:0.055556 433:0.055556 663:0.055556 767:0.055556 889:0.055556 945:0.055556 1058:0.055556 1209:0.055556 1211:0.055556 1328:0.055556 2181:0.055556 3415:0.055556 
1.703056488835605 13:0.062246 18:0.062246 19:0.062246 86:0.12855 198:0.062246 224:0.062246 395:0.062246 439:0.062246 511:0.062246 698:0.062246 791:0.062246 856:0.062246 3067:0.062246 3657:0.062246 6531:0.062246 
0.4605320574721979 13:0.049838 18:0.049838 19:0.049838 86:0.10292 92:0.049838 122:0.049838 198:0.049838 224:0.049838 244:0.049838 443:0.049838 856:0.049838 1829:0.049838 2517:0.049838 3067:0.049838 3657:0.049838 4338:0.049838 6531:0.049838 7242:0.049838 9104:0.049838 
1.93588623025955 62:0.04532 332:0.04532 696:0.04532 787:0.04532 986:0.04532 1177:0.04532 1269:0.04532 1270:0.04532 1544:0.04532 2585:0.04532 5755:0.04532 5792:0.04532 6930:0.04532 7242:0.04532 8886:0.04532 9398:0.04532 11525:0.04532 12244:0.04532 14955:0.093595 35231:0.04532 53064:0.04532 
1.147574581834888 30:0.041667 62:0.041667 115:0.041667 450:0.041667 589:0.041667 627:0.041667 835:0.041667 986:0.041667 1177:0.041667 1236:0.041667 1269:0.041667 1270:0.041667 2585:0.041667 5755:0.041667 5792:0.041667 6930:0.041667 7242:0.041667 9398:0.041667 10104:0.041667 11525:0.041667 12244:0.041667 14955:0.041667 23925:0.041667 35231:0.041667 
0.1832286604771375 62:0.10292 218:0.049838 359:0.049838 435:0.049838 437:0.049838 627:0.049838 835:0.049838 1209:0.049838 1513:0.049838 1803:0.049838 3492:0.049838 3606:0.049838 4917:0.049838 6106:0.049838 6944:0.049838 7242:0.049838 7962:0.049838 23727:0.049838 28585:0.049838 
1.744338574039774 19:0.037218 30:0.037218 48:0.037218 62:0.037218 111:0.037218 351:0.037218 372:0.037218 389:0.037218 538:0.037218 608:0.037218 668:0.037218 1003:0.14498 1072:0.073455 1104:0.037218 2076:0.037218 2299:0.037218 3553:0.037218 4813:0.037218 4815:0.037218 5518:0.037218 7242:0.037218 8154:0.037218 14545:0.037218 
1.002994525639269 30:0.035718 111:0.035718 154:0.035718 169:0.070496 198:0.070496 351:0.035718 389:0.035718 538:0.035718 608:0.035718 666:0.035718 668:0.035718 823:0.035718 1003:0.14559 1072:0.035718 1073:0.035718 2076:0.070496 2299:0.035718 3880:0.035718 4813:0.035718 4815:0.035718 5518:0.035718 14545:0.035718 
-2.029832365981503 182:0.10664 183:0.070918 188:0.035932 434:0.035932 436:0.035932 615:0.070918 955:0.035932 1104:0.035932 1204:0.035932 1873:0.035932 2408:0.10664 5417:0.035932 6147:0.070918 6869:0.035932 9195:0.035932 10376:0.035932 13311:0.035932 15742:0.035932 16107:0.070918 25507:0.035932 
-0.4544185568715515 67:0.034252 182:0.034252 183:0.070736 434:0.034252 436:0.034252 573:0.034252 615:0.070736 627:0.034252 711:0.034252 945:0.034252 955:0.034252 1822:0.034252 2043:0.034252 2044:0.034252 2408:0.034252 2560:0.034252 3882:0.034252 4667:0.034252 6092:0.034252 6147:0.070736 6869:0.034252 10376:0.034252 13311:0.034252 15742:0.034252 16107:0.034252 25507:0.034252 
-0.03389537170179296 43:0.066667 139:0.066667 805:0.066667 2046:0.066667 2144:0.066667 2474:0.066667 3295:0.066667 4589:0.066667 4603:0.066667 7154:0.066667 9948:0.066667 11858:0.066667 22588:0.066667 39741:0.066667 48946:0.066667 
-3.120587489998266 30:0.055637 40:0.055637 103:0.055637 573:0.055637 787:0.055637 1177:0.055637 2180:0.055637 2474:0.10981 2560:0.055637 2585:0.055637 3040:0.055637 7154:0.055637 22588:0.055637 39741:0.055637 48947:0.055637 48948:0.055637 
-0.641343927569439 110:0.049838 142:0.049838 709:0.049838 747:0.049838 852:0.049838 2468:0.049838 2743:0.049838 3215:0.049838 3238:0.049838 3756:0.049838 4616:0.049838 4816:0.049838 6056:0.049838 6166:0.049838 6264:0.049838 21388:0.10292 21391:0.049838 24257:0.049838 25882:0.049838 
-1.100433402667906 110:0.039792 142:0.039792 608:0.039792 747:0.039792 852:0.039792 944:0.039792 1550:0.039792 2468:0.039792 2582:0.039792 3238:0.039792 4816:0.039792 5809:0.039792 6056:0.039792 6166:0.039792 6449:0.039792 7617:0.039792 7646:0.039792 11098:0.039792 21388:0.082179 21391:0.082179 24257:0.039792 24387:0.039792 46022:0.039792 
-0.459260607227626 19:0.045455 83:0.045455 463:0.045455 608:0.045455 727:0.045455 944:0.045455 1221:0.045455 1550:0.045455 1787:0.045455 2582:0.045455 5809:0.045455 6449:0.045455 7617:0.045455 7646:0.045455 11098:0.045455 21391:0.045455 24387:0.045455 26324:0.045455 46022:0.045455 55239:0.045455 63110:0.045455 63111:0.045455 
-2.505541796134841 71:0.041554 103:0.041554 332:0.041554 696:0.041554 747:0.041554 787:0.041554 1033:0.041554 1221:0.085817 1786:0.041554 2237:0.041554 2815:0.041554 3045:0.041554 3664:0.041554 6679:0.041554 6939:0.041554 7564:0.041554 7617:0.041554 26324:0.041554 39520:0.041554 46354:0.041554 55239:0.041554 63110:0.041554 63111:0.041554 
-0.1177612583444981 1120:1 
-0.3420173859955032 91:0.1 341:0.1 881:0.1 1120:0.1 2812:0.1 2813:0.1 2821:0.1 4594:0.1 7253:0.1 13045:0.1 
-1.144874906929248 91:0.04532 341:0.04532 631:0.04532 639:0.04532 645:0.04532 856:0.04532 881:0.04532 1008:0.04532 1556:0.04532 2089:0.04532 2095:0.04532 2812:0.093595 2813:0.04532 2821:0.04532 3235:0.04532 4594:0.04532 6522:0.04532 7253:0.04532 12977:0.04532 13045:0.04532 24465:0.04532 
-0.5906896895170429 126:0.039384 187:0.039384 631:0.081335 733:0.039384 854:0.039384 881:0.039384 1309:0.039384 1537:0.081335 2079:0.039384 2089:0.081335 2137:0.039384 2221:0.039384 2813:0.039384 3046:0.039384 5695:0.039384 10993:0.039384 19262:0.081335 20180:0.081335 24465:0.081335 
-0.4138796006902822 142:0.076065 404:0.03854 603:0.03854 631:0.03854 639:0.03854 760:0.03854 781:0.03854 788:0.03854 1120:0.03854 1433:0.03854 2812:0.03854 2813:0.076065 2829:0.03854 2830:0.03854 3477:0.03854 3896:0.03854 4049:0.03854 4594:0.03854 4783:0.03854 6455:0.03854 6949:0.03854 14787:0.03854 21930:0.03854 24465:0.03854 
-2.854459242022863 14:0.052705 82:0.052705 183:0.052705 627:0.052705 735:0.052705 945:0.052705 979:0.052705 1039:0.052705 1894:0.052705 2618:0.052705 2978:0.052705 5518:0.052705 5545:0.052705 5993:0.052705 8380:0.052705 8870:0.052705 13243:0.10402 30515:0.052705 
-2.808776605576038 22:0.045187 154:0.045187 183:0.045187 188:0.045187 341:0.045187 427:0.093319 428:0.045187 471:0.093319 569:0.045187 633:0.045187 666:0.045187 698:0.045187 945:0.045187 1104:0.045187 1153:0.045187 1217:0.045187 1224:0.045187 2981:0.045187 3103:0.045187 8157:0.045187 
-0.2662291137405633 62:0.052632 103:0.052632 153:0.052632 183:0.052632 341:0.052632 350:0.052632 427:0.052632 471:0.052632 495:0.052632 711:0.052632 945:0.052632 1104:0.052632 1217:0.052632 1224:0.052632 1234:0.052632 1789:0.052632 3103:0.052632 3979:0.052632 8498:0.052632 
-2.010321201354194 62:0.047619 103:0.047619 153:0.047619 154:0.047619 350:0.047619 414:0.047619 427:0.047619 448:0.047619 489:0.047619 495:0.047619 666:0.047619 711:0.047619 804:0.047619 863:0.047619 1234:0.047619 1670:0.047619 1789:0.047619 3553:0.047619 3979:0.047619 8498:0.047619 27966:0.047619 
-1.47040137052989 132:0.047381 183:0.047381 437:0.047381 462:0.047381 463:0.047381 489:0.047381 499:0.047381 564:0.047381 623:0.047381 653:0.047381 666:0.047381 724:0.047381 732:0.047381 863:0.047381 1039:0.047381 1335:0.047381 1349:0.047381 2824:0.047381 8157:0.14714 
-1.514883114601691 18:0.04532 19:0.04532 86:0.04532 99:0.04532 142:0.04532 327:0.04532 372:0.04532 1822:0.04532 1959:0.04532 2006:0.04532 2075:0.04532 3854:0.04532 4100:0.04532 4103:0.04532 5245:0.04532 5986:0.04532 6968:0.093595 13341:0.04532 19251:0.04532 22110:0.04532 53451:0.04532 
-0.7872262838225096 60:0.043478 299:0.043478 462:0.043478 540:0.043478 618:0.043478 687:0.043478 1106:0.043478 1422:0.043478 1959:0.043478 1974:0.043478 2704:0.043478 3854:0.043478 5009:0.043478 6306:0.043478 6968:0.043478 7486:0.043478 9619:0.043478 9953:0.043478 13341:0.043478 19360:0.043478 27340:0.043478 34516:0.043478 36913:0.043478 
-1.432675300088839 86:0.039792 218:0.039792 248:0.039792 269:0.039792 345:0.039792 747:0.039792 1316:0.039792 1386:0.039792 1480:0.039792 1862:0.039792 1959:0.082179 2053:0.039792 2927:0.039792 3212:0.039792 3811:0.039792 6968:0.082179 7573:0.039792 8414:0.039792 9093:0.039792 13267:0.039792 13341:0.039792 22110:0.039792 34659:0.039792 
-0.6891476975494157 103:0.14286 711:0.14286 2675:0.14286 2752:0.14286 2823:0.14286 10370:0.14286 38376:0.14286 
-0.2017455912656359 103:0.055556 430:0.055556 711:0.055556 1310:0.055556 1823:0.055556 2050:0.055556 2484:0.055556 2675:0.055556 2752:0.055556 2823:0.055556 4792:0.055556 5773:0.055556 7011:0.055556 7890:0.055556 9414:0.055556 10370:0.055556 24941:0.055556 38376:0.055556 
-0.9589005312977198 86:0.052632 100:0.052632 103:0.052632 131:0.052632 152:0.052632 183:0.052632 384:0.052632 430:0.052632 731:0.052632 969:0.052632 1823:0.052632 2050:0.052632 4526:0.052632 6241:0.052632 6844:0.052632 7890:0.052632 8656:0.052632 12480:0.052632 17751:0.052632 
-0.3683297728952483 86:0.093319 131:0.045187 154:0.045187 183:0.045187 344:0.045187 666:0.045187 711:0.045187 731:0.045187 906:0.045187 2041:0.045187 2421:0.045187 2675:0.045187 2752:0.045187 4117:0.045187 4526:0.045187 6241:0.045187 6844:0.045187 12480:0.045187 17751:0.093319 17763:0.045187 
-2.289726747327999 6:0.041667 96:0.041667 113:0.041667 188:0.041667 260:0.041667 414:0.041667 906:0.041667 1201:0.041667 1493:0.041667 1658:0.041667 1823:0.041667 1881:0.041667 2050:0.041667 2060:0.041667 2217:0.041667 2334:0.041667 4228:0.041667 4392:0.041667 4743:0.041667 4791:0.041667 4801:0.041667 6068:0.041667 7890:0.041667 17875:0.041667 
-1.093861399238897 14:0.055637 65:0.055637 276:0.055637 458:0.055637 572:0.055637 807:0.055637 1059:0.055637 1074:0.055637 1709:0.055637 1862:0.055637 1949:0.055637 3939:0.055637 6744:0.10981 14589:0.055637 21172:0.055637 47084:0.055637 60261:0.055637 
-0.8344253106608897 14:0.052632 65:0.052632 276:0.052632 369:0.052632 446:0.052632 458:0.052632 572:0.052632 807:0.052632 841:0.052632 1332:0.052632 1862:0.052632 1949:0.052632 2041:0.052632 2592:0.052632 3939:0.052632 5671:0.052632 6744:0.052632 7760:0.052632 8099:0.052632 
-0.516081794833039 14:0.047472 125:0.098038 327:0.047472 369:0.047472 446:0.047472 841:0.047472 1045:0.047472 1332:0.047472 1490:0.047472 2041:0.047472 2592:0.047472 4064:0.047472 5376:0.047472 5671:0.047472 6744:0.047472 7760:0.047472 8099:0.047472 55627:0.047472 60262:0.047472 60263:0.047472 
-0.6730822662784738 14:0.047472 125:0.098038 327:0.047472 448:0.047472 592:0.047472 603:0.047472 1045:0.047472 1490:0.047472 4064:0.047472 4334:0.047472 5376:0.047472 6744:0.047472 7735:0.047472 12433:0.047472 14589:0.047472 17162:0.047472 55627:0.047472 60262:0.047472 60263:0.047472 60264:0.047472 
-1.249017190829117 123:0.047472 203:0.047472 332:0.047472 448:0.047472 566:0.047472 592:0.047472 601:0.047472 603:0.047472 4334:0.098038 4335:0.047472 7177:0.047472 7735:0.047472 9962:0.047472 12433:0.047472 14589:0.047472 17162:0.047472 18703:0.047472 60264:0.047472 60265:0.047472 60266:0.047472 
-0.8522258053205227 332:0.04532 446:0.04532 458:0.04532 472:0.04532 546:0.04532 964:0.04532 1255:0.04532 1374:0.04532 2077:0.04532 2217:0.04532 2396:0.04532 2692:0.04532 4334:0.04532 5790:0.04532 6364:0.04532 7590:0.04532 11378:0.093595 15757:0.04532 17162:0.04532 22944:0.04532 60265:0.04532 
-0.7150277301136822 176:0.2 904:0.2 2093:0.2 2858:0.2 13250:0.2 
-1.428176898396845 276:0.1 552:0.1 608:0.1 956:0.1 1263:0.1 1730:0.1 2743:0.1 3063:0.1 8258:0.1 16168:0.1 
-0.7494502068357681 215:0.052632 228:0.052632 640:0.052632 986:0.052632 1263:0.052632 1366:0.052632 1384:0.052632 1546:0.052632 2130:0.052632 2743:0.052632 4872:0.052632 7925:0.052632 9110:0.052632 12009:0.052632 21853:0.052632 22807:0.052632 38934:0.052632 48911:0.052632 53892:0.052632 
-3.524666319835467 53:0.045455 62:0.045455 171:0.045455 276:0.045455 332:0.045455 423:0.045455 787:0.045455 1005:0.045455 1463:0.045455 2041:0.045455 2468:0.045455 2704:0.045455 3270:0.045455 4848:0.045455 6037:0.045455 10780:0.045455 10900:0.045455 12375:0.045455 22369:0.045455 23706:0.045455 23727:0.045455 53893:0.045455 
-0.3748043550435445 71:0.061995 285:0.061995 313:0.12803 385:0.061995 423:0.061995 475:0.061995 645:0.061995 926:0.061995 1346:0.061995 1443:0.061995 1984:0.061995 3968:0.061995 6219:0.061995 6255:0.12803 
-0.2413072756857812 22:0.049838 46:0.049838 71:0.049838 423:0.049838 766:0.049838 1346:0.049838 1443:0.049838 1447:0.049838 1455:0.049838 1521:0.049838 1522:0.049838 1658:0.049838 2041:0.049838 2862:0.049838 5470:0.049838 6217:0.10292 6219:0.049838 13416:0.049838 17324:0.049838 
-0.4257933826982146 92:0.055637 110:0.055637 267:0.055637 475:0.055637 614:0.055637 1346:0.055637 1364:0.055637 1443:0.055637 1760:0.055637 2501:0.055637 2556:0.055637 3968:0.055637 4054:0.055637 4294:0.055637 6132:0.055637 6217:0.10981 6222:0.055637 
-0.2821005122882727 92:0.043233 102:0.043233 110:0.043233 176:0.043233 245:0.043233 614:0.043233 1215:0.043233 1346:0.089285 1364:0.043233 1443:0.043233 1447:0.043233 1455:0.043233 3968:0.043233 4054:0.043233 6132:0.043233 6217:0.089285 6222:0.043233 6844:0.043233 10522:0.043233 13416:0.043233 13823:0.043233 
-0.1341726657051663 174:0.052632 624:0.052632 709:0.052632 1346:0.052632 1455:0.052632 1795:0.052632 2041:0.052632 2245:0.052632 2429:0.052632 2614:0.052632 3442:0.052632 3443:0.052632 4263:0.052632 5722:0.052632 6132:0.052632 6216:0.052632 6217:0.052632 13416:0.052632 14251:0.052632 
-0.2556645636692049 71:0.049838 285:0.049838 313:0.049838 423:0.049838 709:0.049838 926:0.049838 1346:0.049838 1443:0.049838 1455:0.049838 1795:0.049838 1984:0.049838 2429:0.049838 2614:0.049838 4263:0.049838 6132:0.049838 6217:0.049838 6255:0.10292 13416:0.049838 14251:0.049838 
-0.8725217182350357 97:0.043355 102:0.043355 176:0.043355 245:0.043355 490:0.043355 1215:0.043355 1346:0.043355 1441:0.043355 1443:0.043355 1447:0.043355 1455:0.043355 1788:0.043355 1790:0.043355 3559:0.043355 5470:0.043355 6132:0.043355 6217:0.043355 6219:0.043355 6844:0.043355 10522:0.043355 13416:0.089537 13823:0.043355 
-0.004364319121818965 6:0.043158 60:0.043158 97:0.043158 381:0.043158 490:0.043158 558:0.043158 587:0.043158 1346:0.043158 1441:0.043158 1556:0.043158 1788:0.043158 1790:0.043158 1984:0.043158 3559:0.043158 5470:0.13403 6132:0.043158 6217:0.08913 6219:0.043158 7470:0.043158 13416:0.043158 
-0.8699979764252723 183:0.5 774:0.5 
-1.228476117138948 38:0.047619 62:0.047619 64:0.047619 103:0.047619 126:0.047619 179:0.047619 291:0.047619 305:0.047619 316:0.047619 372:0.047619 608:0.047619 617:0.047619 714:0.047619 945:0.047619 1240:0.047619 1386:0.047619 1984:0.047619 2139:0.047619 4317:0.047619 5667:0.047619 8872:0.047619 
-0.4598973516980487 38:0.045238 337:0.045238 714:0.045238 749:0.045238 933:0.045238 1058:0.045238 1240:0.14048 1471:0.045238 2234:0.045238 2642:0.045238 2773:0.045238 3009:0.045238 4295:0.045238 6094:0.045238 6252:0.045238 6602:0.045238 8872:0.045238 12992:0.045238 16117:0.045238 18463:0.045238 
-1.754527852657639 436:0.04532 475:0.04532 478:0.04532 589:0.04532 607:0.04532 714:0.04532 774:0.04532 912:0.04532 933:0.04532 947:0.04532 1240:0.04532 1461:0.04532 1471:0.093595 1984:0.04532 2234:0.04532 2642:0.04532 3639:0.04532 6252:0.04532 6602:0.04532 8872:0.04532 16117:0.04532 
-0.814905307946063 69:0.061745 117:0.061745 478:0.061745 564:0.12752 788:0.061745 1050:0.061745 1234:0.061745 1590:0.061745 3509:0.061745 4380:0.061745 10891:0.12752 12564:0.061745 24194:0.12752 
-1.925475685356115 62:0.047619 96:0.047619 117:0.047619 246:0.047619 269:0.047619 478:0.047619 715:0.047619 788:0.047619 974:0.047619 1050:0.047619 1234:0.047619 1590:0.047619 1676:0.047619 1750:0.047619 3215:0.047619 3509:0.047619 4380:0.047619 11210:0.047619 12564:0.047619 22567:0.047619 24194:0.047619 
-2.583218406317726 62:0.052632 171:0.052632 174:0.052632 450:0.052632 466:0.052632 485:0.052632 788:0.052632 852:0.052632 853:0.052632 972:0.052632 1023:0.052632 1120:0.052632 1740:0.052632 1750:0.052632 2079:0.052632 5241:0.052632 7690:0.052632 8885:0.052632 15962:0.052632 
-0.9272171354420308 14:0.055719 62:0.055719 126:0.055719 311:0.055719 499:0.055719 778:0.055719 1350:0.055719 1891:0.055719 2065:0.055719 3046:0.055719 4189:0.055719 7298:0.055719 7578:0.055719 10891:0.10997 24194:0.10997 24731:0.055719 
-0.1470990946062439 96:0.047619 158:0.047619 311:0.047619 499:0.047619 698:0.047619 778:0.047619 1350:0.047619 1891:0.047619 1939:0.047619 1944:0.047619 2065:0.047619 2426:0.047619 3046:0.047619 3509:0.047619 7298:0.047619 7578:0.047619 8174:0.047619 9411:0.047619 10891:0.047619 24194:0.047619 24731:0.047619 
-0.4580504920924038 14:0.04709 62:0.04709 126:0.04709 457:0.04709 641:0.04709 1243:0.04709 1282:0.04709 1655:0.09725 1656:0.09725 1657:0.14624 1658:0.04709 1659:0.04709 1660:0.04709 1661:0.04709 1662:0.04709 1663:0.04709 1664:0.04709 
-1.214515173839625 62:0.13328 346:0.042917 688:0.042917 843:0.042917 853:0.042917 879:0.042917 1049:0.042917 1655:0.088631 1656:0.042917 1657:0.088631 1659:0.042917 1666:0.088631 1670:0.042917 1671:0.042917 1672:0.042917 1673:0.042917 1674:0.042917 1675:0.042917 
-0.2439403192780547 62:0.085585 346:0.041442 349:0.041442 395:0.041442 462:0.041442 463:0.041442 843:0.041442 853:0.041442 879:0.041442 1049:0.041442 1226:0.041442 1268:0.085585 1366:0.041442 1655:0.041442 1657:0.041442 1674:0.041442 1675:0.041442 1676:0.041442 1677:0.041442 1678:0.041442 1679:0.041442 1680:0.041442 
-0.1983532045264562 62:0.083701 409:0.083701 480:0.083701 722:0.083701 2295:0.1652 4812:0.083701 4858:0.1652 5796:0.083701 7888:0.083701 21147:0.083701 
-1.493778288786926 6:0.04 110:0.04 185:0.04 470:0.04 727:0.04 868:0.04 881:0.04 894:0.04 902:0.04 939:0.04 1223:0.04 2654:0.04 3331:0.04 3415:0.04 3644:0.04 3743:0.04 4812:0.04 4831:0.04 4858:0.04 6314:0.04 7008:0.04 7259:0.04 10348:0.04 16468:0.04 21147:0.04 
-1.846593841741482 63:0.0625 188:0.0625 309:0.0625 480:0.0625 719:0.0625 727:0.0625 1267:0.0625 1521:0.0625 2354:0.0625 2868:0.0625 4812:0.0625 4858:0.0625 5338:0.0625 5596:0.0625 21147:0.0625 23513:0.0625 
-0.127981307329879 63:0.052705 188:0.052705 304:0.052705 309:0.052705 450:0.052705 480:0.052705 719:0.052705 722:0.052705 856:0.052705 1267:0.052705 2868:0.052705 3511:0.052705 4812:0.052705 4858:0.052705 5338:0.052705 5596:0.052705 21147:0.10402 23513:0.052705 
-0.6312699288803056 62:0.037073 470:0.037073 881:0.037073 902:0.037073 916:0.037073 939:0.037073 940:0.037073 1223:0.037073 1584:0.037073 1990:0.037073 2388:0.037073 3089:0.07317 3215:0.037073 3331:0.037073 3415:0.037073 3787:0.037073 4158:0.037073 4831:0.037073 4858:0.037073 7259:0.037073 10348:0.037073 12567:0.037073 16468:0.037073 18725:0.037073 21147:0.037073 30896:0.037073 
-3.679838711511111 62:0.070888 64:0.035917 496:0.035917 916:0.070888 940:0.035917 1267:0.035917 1584:0.035917 1990:0.035917 2388:0.070888 3089:0.070888 3215:0.070888 3787:0.035917 4158:0.070888 5560:0.035917 5596:0.035917 5796:0.035917 7297:0.035917 12567:0.035917 14067:0.035917 18725:0.035917 23513:0.035917 30896:0.035917 
-0.02920846984694345 374:0.1 647:0.1 820:0.1 1115:0.1 1461:0.1 1496:0.1 1636:0.1 3995:0.1 7256:0.1 7290:0.1 
-1.401686996292515 374:0.052632 619:0.052632 647:0.052632 703:0.052632 712:0.052632 820:0.052632 877:0.052632 1115:0.052632 1223:0.052632 1267:0.052632 1340:0.052632 1461:0.052632 1496:0.052632 1636:0.052632 3995:0.052632 4932:0.052632 7256:0.052632 7290:0.052632 9018:0.052632 
-0.09084643616405343 416:0.041667 475:0.041667 660:0.041667 679:0.041667 807:0.041667 1586:0.041667 1592:0.041667 1653:0.041667 1682:0.041667 1695:0.041667 1726:0.041667 1794:0.041667 3498:0.041667 4113:0.041667 4129:0.041667 6047:0.041667 6107:0.041667 6379:0.041667 6423:0.041667 6928:0.041667 7597:0.041667 8242:0.041667 9003:0.041667 9019:0.041667 
-0.9428501786797123 254:0.04532 432:0.04532 475:0.04532 679:0.04532 732:0.04532 1120:0.04532 1586:0.04532 1682:0.04532 1726:0.04532 1794:0.04532 3002:0.04532 3498:0.04532 3928:0.04532 4825:0.04532 6047:0.04532 6107:0.04532 6423:0.04532 6928:0.093595 7898:0.04532 9003:0.04532 9019:0.04532 
-0.6992036100719303 254:0.052632 306:0.052632 432:0.052632 732:0.052632 1115:0.052632 1120:0.052632 1743:0.052632 2257:0.052632 3002:0.052632 3928:0.052632 4251:0.052632 4825:0.052632 6928:0.052632 7898:0.052632 8875:0.052632 8994:0.052632 9003:0.052632 9020:0.052632 9021:0.052632 
-0.004564514027358278 254:0.047619 306:0.047619 343:0.047619 400:0.047619 712:0.047619 823:0.047619 1115:0.047619 1223:0.047619 1339:0.047619 1726:0.047619 1743:0.047619 2257:0.047619 2525:0.047619 4251:0.047619 8875:0.047619 8994:0.047619 9003:0.047619 9019:0.047619 9020:0.047619 9021:0.047619 9022:0.047619 
-0.8039891319600289 254:0.043233 343:0.043233 400:0.043233 712:0.043233 823:0.043233 1223:0.043233 1246:0.043233 1339:0.043233 1726:0.089285 2525:0.043233 3928:0.043233 4414:0.043233 4825:0.043233 5694:0.043233 6383:0.043233 6887:0.043233 6928:0.043233 8984:0.043233 9003:0.043233 9019:0.089285 9022:0.043233 
-0.3452063888293961 1217:0.25 2560:0.25 14156:0.25 19583:0.25 
-0.5183637201844248 264:0.090909 499:0.090909 556:0.090909 672:0.090909 1217:0.090909 1330:0.090909 2560:0.090909 4308:0.090909 8540:0.090909 14156:0.090909 19583:0.090909 
-2.078851377090722 264:0.05 499:0.05 522:0.05 556:0.05 672:0.05 771:0.05 787:0.05 991:0.05 1330:0.05 1881:0.05 2077:0.05 2370:0.05 2464:0.05 2544:0.05 2585:0.05 2851:0.05 4308:0.05 7913:0.05 8540:0.05 26985:0.05 
-0.9342443875390001 87:0.041667 248:0.041667 489:0.041667 640:0.041667 719:0.041667 852:0.041667 942:0.041667 1052:0.041667 1117:0.041667 1217:0.041667 1316:0.041667 1592:0.041667 1881:0.041667 2109:0.041667 2175:0.041667 2560:0.041667 2592:0.041667 2692:0.041667 2851:0.041667 3580:0.041667 4954:0.041667 6100:0.041667 17051:0.041667 26986:0.041667 
-0.2969313853784479 31:0.33333 1218:0.33333 2743:0.33333 
-1.948911940185301 46:0.041554 62:0.041554 71:0.041554 86:0.041554 110:0.041554 142:0.041554 169:0.041554 770:0.041554 807:0.041554 841:0.041554 873:0.041554 1328:0.041554 1577:0.041554 1619:0.041554 1670:0.041554 2045:0.041554 2240:0.041554 4382:0.041554 5040:0.085817 6123:0.041554 7976:0.041554 17835:0.041554 28537:0.041554 
-1.128045777023367 46:0.042991 62:0.088784 71:0.042991 86:0.042991 110:0.042991 169:0.042991 770:0.042991 807:0.042991 841:0.042991 873:0.042991 941:0.088784 1154:0.088784 1670:0.042991 2237:0.042991 5040:0.042991 6123:0.042991 7976:0.042991 26778:0.088784 28537:0.042991 
-1.547904170405982 6:0.044922 43:0.044922 62:0.092773 69:0.044922 86:0.044922 169:0.092773 700:0.092773 772:0.044922 1619:0.044922 1854:0.044922 2981:0.044922 3434:0.044922 4818:0.044922 5040:0.044922 8103:0.044922 9785:0.092773 13251:0.044922 26778:0.044922 
-0.1463463434261087 62:0.15267 152:0.049161 169:0.049161 700:0.10153 982:0.049161 1577:0.049161 1619:0.049161 3597:0.049161 4382:0.049161 6683:0.049161 9785:0.10153 15528:0.049161 17835:0.15267 24817:0.049161 
-1.022991990797933 53:0.047325 62:0.097736 152:0.047325 169:0.047325 622:0.047325 1297:0.047325 1577:0.047325 1584:0.047325 1619:0.047325 2040:0.047325 2240:0.047325 2314:0.047325 3597:0.047325 4382:0.047325 4671:0.047325 6683:0.047325 15969:0.047325 17835:0.097736 24817:0.047325 
-0.6355071917605699 627:0.14286 1172:0.14286 1536:0.14286 1700:0.14286 5672:0.14286 6538:0.14286 6665:0.14286 
-0.624879802727992 103:0.059006 126:0.11646 304:0.059006 372:0.059006 644:0.059006 648:0.059006 708:0.059006 1597:0.059006 2606:0.059006 3307:0.059006 6614:0.059006 6652:0.059006 9268:0.059006 10569:0.059006 30186:0.11646 
-2.515024131543868 14:0.05 62:0.05 126:0.05 154:0.05 263:0.05 296:0.05 302:0.05 313:0.05 332:0.05 383:0.05 465:0.05 631:0.05 648:0.05 696:0.05 708:0.05 769:0.05 1055:0.05 1341:0.05 3492:0.05 9268:0.05 
-0.2171169751088249 14:0.043355 126:0.043355 162:0.043355 188:0.043355 233:0.043355 263:0.043355 291:0.043355 292:0.043355 313:0.043355 315:0.043355 332:0.089537 372:0.043355 455:0.043355 465:0.043355 631:0.043355 696:0.043355 707:0.043355 708:0.043355 730:0.043355 1341:0.043355 22723:0.043355 30186:0.043355 
-1.291261168052462 18:0.031149 30:0.031149 110:0.031149 119:0.061477 449:0.15926 633:0.031149 722:0.031149 963:0.061477 1045:0.092445 1233:0.031149 1733:0.031149 1945:0.12696 2535:0.031149 3307:0.031149 4223:0.031149 4406:0.031149 5680:0.031149 7274:0.031149 12978:0.031149 13251:0.031149 26375:0.031149 
-0.3162468541249906 18:0.032396 110:0.032396 449:0.063938 463:0.032396 633:0.032396 963:0.063938 1045:0.063938 1233:0.032396 1733:0.032396 1898:0.032396 1945:0.032396 2535:0.032396 2804:0.032396 3307:0.032396 3583:0.032396 4196:0.032396 4223:0.063938 4406:0.032396 5435:0.032396 5680:0.032396 12978:0.063938 14952:0.032396 26085:0.032396 26375:0.032396 30345:0.032396 56572:0.032396 
-0.1492691532337835 18:0.070364 289:0.035651 436:0.035651 449:0.035651 463:0.035651 963:0.035651 1045:0.14531 1263:0.035651 1898:0.035651 2582:0.035651 2804:0.035651 3536:0.035651 3583:0.035651 4135:0.035651 4196:0.035651 4223:0.035651 5435:0.035651 7274:0.035651 12978:0.035651 14952:0.035651 20564:0.035651 26085:0.035651 30345:0.035651 56572:0.035651 
-1.336668552988581 420:0.049838 449:0.10292 465:0.049838 928:0.049838 999:0.049838 1045:0.049838 1253:0.049838 1614:0.049838 2341:0.049838 2405:0.049838 3437:0.049838 4135:0.049838 4223:0.049838 6018:0.049838 7444:0.049838 8351:0.049838 8737:0.049838 11950:0.049838 12927:0.049838 
-0.408576748490841 293:0.076923 449:0.076923 464:0.076923 545:0.076923 802:0.076923 843:0.076923 999:0.076923 1381:0.076923 2981:0.076923 4223:0.076923 4814:0.076923 8351:0.076923 15888:0.076923 
-0.7932005329372405 18:0.052705 91:0.052705 246:0.052705 466:0.052705 715:0.052705 722:0.052705 808:0.052705 999:0.052705 1045:0.10402 1295:0.052705 1475:0.052705 2821:0.052705 3338:0.052705 4135:0.052705 7339:0.052705 8351:0.052705 15085:0.052705 20564:0.052705 
-0.444178915992078 453:0.33333 771:0.33333 1980:0.33333 
-0.5842682423003529 394:0.083333 453:0.083333 771:0.083333 1244:0.083333 1709:0.083333 1898:0.083333 1944:0.083333 1980:0.083333 2355:0.083333 8625:0.083333 8854:0.083333 31753:0.083333 
-0.2397045722674259 117:0.062246 394:0.062246 1217:0.062246 1244:0.062246 1395:0.062246 1582:0.062246 1709:0.062246 1898:0.062246 1944:0.062246 2355:0.062246 3046:0.062246 5832:0.062246 8625:0.062246 8854:0.062246 31753:0.12855 
-0.7756152255896796 117:0.046627 524:0.096294 1191:0.046627 1395:0.046627 1582:0.1448 1944:0.046627 2821:0.096294 3046:0.1448 3270:0.046627 8346:0.1448 10911:0.046627 18456:0.046627 31753:0.046627 
-0.01533050202565763 62:0.04447 117:0.04447 936:0.04447 1191:0.04447 1395:0.1381 1582:0.1381 1700:0.04447 2821:0.091839 3046:0.1381 3270:0.04447 4097:0.04447 8346:0.1381 18456:0.04447 
-0.7707872935323066 62:0.045187 126:0.093319 456:0.045187 545:0.045187 708:0.045187 936:0.045187 1395:0.093319 1582:0.045187 1700:0.045187 1944:0.045187 1961:0.045187 1980:0.045187 2446:0.045187 2821:0.045187 3046:0.045187 3270:0.045187 4097:0.045187 8346:0.045187 18456:0.045187 31753:0.045187 
-3.544086240433646 183:0.066667 198:0.066667 341:0.066667 478:0.066667 746:0.066667 979:0.066667 2189:0.066667 2891:0.066667 3873:0.066667 3922:0.066667 4415:0.066667 4801:0.066667 7208:0.066667 10203:0.066667 19598:0.066667 
-3.11419421092755 183:0.049838 188:0.049838 341:0.10292 395:0.049838 462:0.049838 463:0.049838 468:0.049838 494:0.049838 514:0.049838 719:0.049838 796:0.049838 986:0.049838 1397:0.049838 1697:0.049838 3067:0.049838 3510:0.049838 6381:0.049838 9368:0.049838 16311:0.049838 
-0.2327197111666811 162:0.05 450:0.05 485:0.05 556:0.05 705:0.05 708:0.05 856:0.05 1161:0.05 1345:0.05 1673:0.05 2053:0.05 2072:0.05 3737:0.05 4189:0.05 4301:0.05 8872:0.05 14154:0.05 30245:0.05 39069:0.05 39070:0.05 
-0.6489172293085888 485:0.045455 675:0.045455 705:0.045455 708:0.045455 754:0.045455 763:0.045455 856:0.045455 1345:0.045455 1397:0.045455 1584:0.045455 1673:0.045455 1787:0.045455 2053:0.045455 3737:0.045455 4189:0.045455 4704:0.045455 5110:0.045455 14154:0.045455 29610:0.045455 30245:0.045455 39070:0.045455 39071:0.045455 
-0.5708809910937708 466:0.047472 616:0.047472 675:0.047472 754:0.047472 763:0.047472 1175:0.047472 1345:0.047472 1397:0.047472 1479:0.047472 1584:0.047472 1669:0.098038 1787:0.047472 3737:0.047472 4704:0.047472 5110:0.047472 9742:0.047472 14154:0.047472 29610:0.047472 39070:0.047472 39071:0.047472 
-0.1229299560213041 466:0.049838 505:0.049838 545:0.049838 616:0.049838 706:0.049838 951:0.049838 1175:0.049838 1191:0.049838 1479:0.049838 1489:0.049838 1669:0.10292 1698:0.049838 3509:0.049838 4704:0.049838 4733:0.049838 5110:0.049838 6051:0.049838 9742:0.049838 14154:0.049838 
-0.1249632124238563 181:1 
-0.3445047666995837 62:0.19789 64:0.10026 181:0.10026 345:0.10026 843:0.10026 1982:0.10026 2731:0.10026 3868:0.10026 21159:0.10026 
-0.6959727097968406 62:0.089285 64:0.043233 332:0.043233 345:0.043233 395:0.043233 843:0.043233 1050:0.043233 1317:0.043233 1355:0.043233 1368:0.089285 1369:0.043233 1461:0.043233 1982:0.043233 2731:0.043233 3868:0.043233 4138:0.043233 9452:0.043233 9783:0.043233 13414:0.043233 21159:0.043233 24650:0.043233 
-1.767188056457896 14:0.055637 22:0.055637 23:0.055637 64:0.055637 78:0.055637 276:0.055637 465:0.055637 597:0.10981 615:0.055637 792:0.055637 843:0.055637 1209:0.055637 1505:0.055637 2147:0.055637 5811:0.055637 6588:0.055637 7614:0.055637 
-0.781851323959636 64:0.055719 78:0.055719 276:0.055719 321:0.055719 341:0.055719 346:0.055719 376:0.10997 597:0.10997 792:0.055719 843:0.055719 1209:0.055719 1505:0.055719 2046:0.055719 3104:0.055719 5200:0.055719 6588:0.055719 
-1.343103832182826 111:0.066954 133:0.066954 134:0.066954 188:0.066954 359:0.066954 478:0.066954 1463:0.19871 1464:0.19871 13822:0.066954 30907:0.066954 55593:0.066954 
-0.7989331274532594 104:0.041108 112:0.041108 145:0.041108 289:0.041108 409:0.041108 414:0.084897 1122:0.084897 1400:0.041108 1544:0.041108 1658:0.041108 1696:0.041108 1914:0.041108 1982:0.041108 3549:0.084897 5182:0.041108 8619:0.084897 21191:0.041108 24340:0.041108 55594:0.084897 
-0.8413679406167571 131:0.043112 133:0.043112 134:0.043112 145:0.043112 289:0.089034 315:0.043112 414:0.043112 453:0.043112 1122:0.089034 1400:0.043112 1510:0.043112 1544:0.089034 1696:0.043112 1914:0.043112 2610:0.043112 3549:0.043112 8619:0.043112 30907:0.043112 55593:0.043112 55594:0.043112 
-0.04326015538657231 414:0.11111 728:0.11111 1122:0.11111 1400:0.11111 1544:0.11111 1696:0.11111 3549:0.11111 8619:0.11111 32552:0.11111 
-1.309514964691015 64:0.066667 142:0.066667 414:0.066667 728:0.066667 1122:0.066667 1343:0.066667 1400:0.066667 1510:0.066667 1544:0.066667 1696:0.066667 2540:0.066667 2560:0.066667 3549:0.066667 8619:0.066667 32552:0.066667 
-0.3128805208557244 36:0.041151 41:0.041151 48:0.041151 142:0.041151 767:0.041151 902:0.041151 1002:0.041151 1135:0.041151 1304:0.084984 1432:0.041151 2236:0.041151 2466:0.084984 2622:0.041151 3900:0.12779 4946:0.041151 8803:0.041151 12718:0.041151 12719:0.084984 12720:0.041151 
-0.1548318371611606 41:0.032408 46:0.063963 48:0.032408 100:0.032408 188:0.032408 235:0.032408 626:0.032408 825:0.032408 933:0.032408 1140:0.032408 1154:0.063963 1164:0.032408 1304:0.032408 2583:0.032408 2722:0.032408 3282:0.032408 3778:0.032408 3900:0.096181 4477:0.032408 5094:0.063963 10149:0.032408 12719:0.096181 12723:0.032408 12724:0.032408 
-0.5951163999289811 46:0.035857 48:0.035857 149:0.035857 188:0.035857 235:0.035857 825:0.035857 933:0.035857 1106:0.035857 1140:0.035857 1154:0.035857 1164:0.035857 2522:0.035857 2722:0.035857 2964:0.035857 3282:0.070769 3778:0.035857 3900:0.10642 4477:0.070769 5025:0.035857 5094:0.035857 5110:0.035857 10149:0.035857 12719:0.070769 
-0.5304944549820787 11:0.045054 12:0.045054 88:0.093045 161:0.045054 198:0.045054 235:0.045054 254:0.045054 372:0.045054 439:0.045054 945:0.045054 1304:0.093045 1384:0.045054 1668:0.045054 3900:0.045054 5025:0.045054 10164:0.045054 10732:0.045054 11814:0.045054 12719:0.093045 
-3.026380945617793 11:0.063775 12:0.032313 20:0.032313 53:0.032313 79:0.032313 88:0.032313 186:0.032313 188:0.032313 198:0.032313 301:0.032313 439:0.032313 943:0.032313 1164:0.032313 1304:0.032313 1859:0.032313 1882:0.032313 2635:0.032313 3900:0.032313 5025:0.063775 5030:0.032313 5031:0.032313 5032:0.032313 5094:0.032313 5112:0.032313 9493:0.032313 10164:0.032313 12719:0.032313 12721:0.032313 12724:0.032313 
-0.4896293661213106 19:0.125 372:0.125 1383:0.125 1506:0.125 3916:0.125 11657:0.125 14184:0.125 14451:0.125 
-0.7825561397182884 14:0.049676 40:0.049676 43:0.049676 48:0.049676 185:0.049676 805:0.049676 854:0.049676 1297:0.049676 1401:0.049676 1731:0.049676 2127:0.049676 2771:0.049676 3084:0.049676 3285:0.10259 5290:0.049676 7884:0.049676 14451:0.10259 19880:0.049676 
-1.589010754793559 14:0.055556 40:0.055556 48:0.055556 344:0.055556 409:0.055556 766:0.055556 805:0.055556 1297:0.055556 1332:0.055556 2177:0.055556 2771:0.055556 3084:0.055556 3102:0.055556 3285:0.055556 7884:0.055556 9506:0.055556 14451:0.055556 19880:0.055556 
-1.037947079810399 807:0.039792 1177:0.039792 1418:0.039792 1706:0.039792 1853:0.039792 2107:0.039792 2177:0.039792 2322:0.039792 2332:0.039792 2394:0.039792 3068:0.039792 3191:0.039792 3285:0.082179 3297:0.039792 3575:0.039792 5427:0.039792 7267:0.039792 7268:0.039792 7884:0.039792 11657:0.039792 14451:0.039792 19880:0.082179 19881:0.039792 
-1.502149908776704 28:0.11111 62:0.11111 474:0.11111 622:0.11111 1039:0.11111 2046:0.11111 5699:0.11111 14763:0.11111 15234:0.11111 
-1.814620848634812 100:0.039792 182:0.039792 183:0.039792 197:0.082179 231:0.039792 330:0.039792 464:0.039792 496:0.039792 722:0.082179 866:0.039792 902:0.039792 936:0.039792 1061:0.039792 1242:0.039792 1666:0.039792 2237:0.039792 3462:0.039792 4331:0.039792 7757:0.039792 8000:0.039792 8041:0.039792 10160:0.039792 45339:0.039792 
-1.790574956943867 19:0.039729 62:0.082048 276:0.039729 299:0.039729 350:0.039729 372:0.039729 373:0.039729 491:0.039729 995:0.039729 1387:0.039729 1425:0.039729 2028:0.039729 2063:0.039729 2690:0.039729 3720:0.039729 4708:0.039729 6667:0.039729 6852:0.039729 7477:0.039729 8490:0.039729 12198:0.039729 19614:0.12338 
-0.4235487943927058 62:0.12848 110:0.041372 111:0.041372 178:0.041372 276:0.041372 373:0.041372 395:0.041372 491:0.041372 615:0.041372 708:0.041372 995:0.041372 1425:0.041372 1982:0.041372 2063:0.041372 3021:0.041372 4708:0.041372 6301:0.041372 6852:0.041372 8490:0.041372 14116:0.041372 19614:0.085442 
-1.075058234981909 62:0.093319 110:0.045187 111:0.045187 178:0.045187 276:0.045187 395:0.045187 491:0.045187 615:0.045187 708:0.045187 770:0.045187 1425:0.045187 1982:0.093319 2028:0.045187 3021:0.045187 4708:0.045187 6301:0.045187 8479:0.045187 14116:0.045187 19614:0.045187 21173:0.045187 
-1.776600023326167 62:0.058915 378:0.058915 523:0.058915 564:0.11628 620:0.058915 995:0.058915 1415:0.058915 1951:0.058915 2109:0.058915 2690:0.058915 3739:0.058915 3883:0.058915 7469:0.058915 7477:0.058915 12512:0.058915 13396:0.058915 
-1.292091920513179 62:0.11017 276:0.11017 350:0.055819 395:0.055819 491:0.055819 603:0.055819 622:0.055819 704:0.055819 930:0.055819 1982:0.055819 2164:0.055819 4671:0.055819 6754:0.16566 19614:0.055819 
-10 62:1 
-0.331134278547024 19:0.071429 62:0.071429 276:0.071429 299:0.071429 350:0.071429 372:0.071429 1387:0.071429 2028:0.071429 2690:0.071429 3720:0.071429 6667:0.071429 7477:0.071429 12198:0.071429 19614:0.071429 
-0.8160684791376857 48:0.093045 111:0.045054 115:0.045054 134:0.045054 233:0.045054 343:0.045054 364:0.045054 611:0.045054 746:0.045054 805:0.093045 1169:0.045054 1194:0.045054 1463:0.045054 1464:0.045054 4208:0.045054 5678:0.093045 10688:0.045054 11950:0.045054 39592:0.045054 
-0.120154135104787 13496:0.5 37025:0.5 
-0.3649469197128012 5:0.039689 466:0.039689 615:0.039689 708:0.039689 746:0.039689 805:0.081966 1188:0.039689 1194:0.081966 1233:0.039689 1297:0.039689 1336:0.039689 1837:0.039689 1982:0.039689 2440:0.039689 2488:0.039689 2725:0.039689 3968:0.039689 4054:0.039689 5678:0.081966 6224:0.039689 11382:0.039689 12665:0.039689 
-0.2580265123350556 5:0.041554 134:0.041554 364:0.041554 473:0.041554 615:0.085817 708:0.041554 805:0.041554 862:0.041554 995:0.041554 1188:0.041554 1194:0.041554 1233:0.041554 1982:0.041554 2147:0.041554 2488:0.041554 2725:0.041554 2804:0.041554 4212:0.041554 5678:0.041554 6224:0.041554 8498:0.041554 10716:0.041554 11382:0.041554 
-1.403349608588987 40:0.085125 198:0.041219 231:0.085125 372:0.041219 608:0.041219 644:0.041219 817:0.041219 821:0.041219 1069:0.085125 1124:0.041219 1155:0.041219 1550:0.041219 1798:0.041219 3284:0.041219 3817:0.041219 5051:0.041219 5351:0.041219 5614:0.041219 24018:0.041219 41393:0.085125 
-1.88505623845358 18:0.032817 40:0.10191 180:0.067774 198:0.032817 231:0.032817 303:0.032817 395:0.032817 1069:0.032817 1080:0.032817 1124:0.067774 1150:0.032817 1772:0.067774 1854:0.032817 2170:0.032817 2530:0.032817 2856:0.032817 3005:0.032817 4635:0.032817 5351:0.032817 11782:0.032817 20393:0.067774 41393:0.10191 
-1.590114344447817 31:0.039626 40:0.081836 116:0.039626 144:0.039626 180:0.039626 198:0.039626 395:0.039626 650:0.039626 1124:0.081836 1129:0.039626 1150:0.039626 1400:0.039626 1772:0.039626 2127:0.039626 2170:0.039626 2482:0.039626 2530:0.039626 2856:0.039626 4472:0.039626 5351:0.039626 41393:0.12306 
-1.316925572456122 28:0.041484 33:0.041484 40:0.041484 198:0.041484 231:0.041484 286:0.041484 304:0.041484 372:0.041484 644:0.041484 1098:0.041484 1124:0.041484 1383:0.041484 1389:0.041484 2007:0.041484 2055:0.041484 3215:0.041484 3699:0.041484 4390:0.041484 5051:0.041484 5351:0.12883 5923:0.041484 21837:0.041484 
-1.244859304630781 62:0.045455 130:0.045455 225:0.045455 311:0.045455 462:0.045455 463:0.045455 479:0.045455 1039:0.045455 1058:0.045455 1061:0.045455 1192:0.045455 1348:0.045455 1696:0.045455 2027:0.045455 2043:0.045455 2181:0.045455 2403:0.045455 3199:0.045455 4019:0.045455 4793:0.045455 7356:0.045455 9586:0.045455 
-0.4884360188744982 62:0.058824 103:0.058824 224:0.058824 722:0.058824 1320:0.058824 1513:0.058824 1669:0.058824 1941:0.058824 1982:0.058824 2043:0.058824 2044:0.058824 2265:0.058824 4343:0.058824 4991:0.058824 6259:0.058824 8476:0.058824 9586:0.058824 
-0.7669652004814312 62:0.16566 373:0.055819 722:0.055819 783:0.055819 1582:0.055819 2027:0.11017 2747:0.055819 3335:0.055819 4248:0.055819 4249:0.055819 7206:0.055819 7946:0.055819 9586:0.11017 26385:0.055819 
-1.894293271823987 62:0.17518 269:0.059027 373:0.059027 464:0.059027 722:0.059027 1225:0.059027 1310:0.059027 1582:0.059027 2027:0.1165 4248:0.059027 4249:0.059027 6964:0.059027 7946:0.059027 26385:0.059027 
-1.496453652868037 14:0.055901 62:0.1659 87:0.055901 276:0.055901 382:0.055901 711:0.11033 1669:0.055901 1951:0.055901 2043:0.11033 2044:0.11033 3350:0.055901 4343:0.055901 37496:0.055901 
-0.8366950865565724 188:0.05 325:0.05 376:0.05 395:0.05 1317:0.05 1895:0.05 2754:0.05 3894:0.05 4683:0.05 6043:0.05 6588:0.05 8960:0.05 12036:0.05 14860:0.05 15027:0.05 17470:0.05 20611:0.05 27523:0.05 27524:0.05 27525:0.05 
-0.2848767398425096 122:0.052778 188:0.052778 325:0.052778 395:0.10417 591:0.052778 817:0.052778 1317:0.052778 1346:0.052778 1564:0.052778 2754:0.052778 3894:0.052778 4228:0.052778 6043:0.052778 6588:0.052778 9594:0.10417 14860:0.052778 20611:0.052778 
-1.311963775587465 122:0.049838 395:0.049838 591:0.049838 817:0.049838 1046:0.049838 1175:0.049838 1317:0.049838 1330:0.049838 1346:0.049838 1386:0.049838 1564:0.049838 2050:0.049838 2492:0.049838 4228:0.049838 4362:0.049838 6569:0.049838 9594:0.10292 9823:0.049838 
-0.2666754921797464 7003:1 
-0.6118030215864665 62:0.041554 84:0.041554 188:0.041554 300:0.041554 545:0.041554 712:0.041554 1204:0.041554 1205:0.041554 1223:0.041554 1322:0.041554 1348:0.041554 1489:0.041554 1822:0.041554 1894:0.041554 2341:0.041554 3121:0.041554 3509:0.041554 3737:0.041554 4296:0.041554 6051:0.085817 7590:0.041554 10410:0.041554 12105:0.041554 
-1.040130354746158 62:0.039729 84:0.039729 103:0.039729 540:0.039729 1322:0.039729 1348:0.039729 1489:0.039729 1769:0.039729 1822:0.039729 2341:0.039729 3509:0.039729 4296:0.082048 6051:0.12338 6964:0.039729 7353:0.039729 7367:0.039729 7590:0.039729 8111:0.039729 10097:0.039729 12105:0.039729 13047:0.039729 33939:0.039729 
-0.5655658626109887 14:0.043233 103:0.043233 409:0.043233 540:0.043233 698:0.043233 712:0.043233 841:0.043233 1177:0.043233 1225:0.043233 1769:0.043233 3509:0.089285 4289:0.043233 4296:0.089285 6051:0.043233 6964:0.043233 7353:0.043233 7367:0.043233 8111:0.043233 10097:0.043233 13047:0.043233 33939:0.043233 
-1.387766385276674 52:0.0625 64:0.0625 67:0.0625 83:0.0625 121:0.0625 126:0.0625 224:0.0625 244:0.0625 276:0.0625 370:0.0625 506:0.0625 1332:0.0625 2130:0.0625 5392:0.0625 6398:0.0625 7152:0.0625 
-2.161449654073576 6:0.047472 14:0.047472 52:0.047472 62:0.047472 117:0.047472 276:0.047472 370:0.047472 478:0.047472 588:0.047472 629:0.047472 914:0.047472 1236:0.047472 1496:0.047472 2085:0.047472 2522:0.047472 4093:0.047472 4991:0.047472 5392:0.098038 7152:0.047472 7707:0.047472 
-0.8196660816040975 6:0.052632 52:0.052632 62:0.052632 117:0.052632 267:0.052632 276:0.052632 370:0.052632 395:0.052632 478:0.052632 597:0.052632 629:0.052632 1236:0.052632 1294:0.052632 1496:0.052632 2522:0.052632 4093:0.052632 5392:0.052632 7152:0.052632 10831:0.052632 
-1.912439608318594 52:0.045187 62:0.045187 67:0.045187 121:0.045187 123:0.045187 126:0.045187 155:0.045187 650:0.045187 715:0.045187 1829:0.045187 2091:0.093319 2092:0.045187 2107:0.093319 2482:0.045187 2648:0.045187 3310:0.045187 5392:0.045187 7152:0.045187 8416:0.045187 10832:0.045187 
-0.4793674908566429 62:0.045455 91:0.045455 140:0.045455 304:0.045455 305:0.045455 333:0.045455 335:0.045455 396:0.045455 480:0.045455 1282:0.045455 2851:0.045455 2930:0.045455 3215:0.045455 4790:0.045455 4875:0.045455 4878:0.045455 6381:0.045455 7243:0.045455 9320:0.045455 18244:0.045455 21063:0.045455 21632:0.045455 
-1.203859758833296 62:0.04532 91:0.04532 140:0.04532 304:0.04532 305:0.04532 335:0.04532 396:0.04532 437:0.04532 480:0.04532 627:0.04532 675:0.04532 777:0.04532 1177:0.04532 1282:0.093595 1803:0.04532 2707:0.04532 2930:0.04532 4813:0.04532 4831:0.04532 6381:0.04532 7243:0.04532 
-4.219369161235565 62:0.047472 91:0.047472 100:0.047472 185:0.047472 188:0.047472 269:0.047472 304:0.047472 327:0.047472 433:0.047472 450:0.047472 480:0.047472 627:0.047472 631:0.047472 663:0.098038 894:0.047472 1282:0.047472 1597:0.047472 10754:0.047472 12009:0.047472 19774:0.047472 
-2.266318126309642 62:0.041554 85:0.041554 185:0.041554 269:0.041554 292:0.041554 304:0.041554 327:0.041554 332:0.041554 433:0.041554 456:0.041554 631:0.041554 663:0.085817 894:0.041554 902:0.041554 1597:0.041554 2388:0.041554 2851:0.041554 3224:0.041554 3728:0.041554 4790:0.041554 4842:0.041554 7955:0.041554 18244:0.041554 
-1.068715868549997 126:0.03892 152:0.03892 290:0.03892 384:0.19017 676:0.03892 728:0.03892 761:0.076816 961:0.19017 4875:0.076816 4878:0.076816 7756:0.03892 9617:0.03892 21063:0.03892 21632:0.03892 25418:0.03892 
-1.031598299567183 126:0.076159 267:0.11452 335:0.038587 494:0.038587 578:0.076159 2231:0.038587 2851:0.038587 3103:0.038587 4399:0.038587 4790:0.038587 4831:0.038587 4932:0.038587 6130:0.038587 13673:0.038587 15791:0.038587 17294:0.038587 18244:0.038587 19283:0.038587 22120:0.038587 25432:0.038587 33353:0.038587 35852:0.038587 
-0.376816093947469 6:0.071429 19:0.071429 106:0.071429 346:0.071429 358:0.071429 381:0.071429 592:0.071429 639:0.071429 1366:0.071429 1522:0.071429 2489:0.071429 6259:0.071429 11327:0.071429 19175:0.071429 
-0.07104851145946156 48:0.15337 106:0.077706 351:0.077706 1474:0.077706 1522:0.30269 1582:0.077706 2659:0.077706 6132:0.077706 32472:0.077706 
-0.04384795523961872 6:0.043037 104:0.043037 106:0.13365 346:0.043037 350:0.043037 351:0.043037 358:0.08888 592:0.043037 760:0.043037 1368:0.043037 1471:0.043037 1474:0.08888 1635:0.043037 1891:0.043037 2480:0.043037 3009:0.043037 6259:0.043037 8201:0.043037 11190:0.043037 
-0.4599594677609362 106:0.08467 114:0.08467 350:0.08467 351:0.08467 358:0.08467 649:0.040998 760:0.040998 1471:0.08467 1474:0.040998 1635:0.040998 1680:0.040998 1891:0.040998 3009:0.040998 6132:0.040998 6259:0.040998 8190:0.040998 8201:0.040998 29228:0.040998 
-1.799370352480343 62:0.055556 80:0.055556 110:0.055556 372:0.055556 489:0.055556 608:0.055556 771:0.055556 1243:0.055556 1670:0.055556 1889:0.055556 2284:0.055556 2813:0.055556 2829:0.055556 2830:0.055556 4813:0.055556 6675:0.055556 7046:0.055556 35787:0.055556 
-1.302948189716006 80:0.037182 224:0.037182 295:0.037182 494:0.073385 631:0.037182 646:0.037182 713:0.037182 732:0.037182 771:0.037182 805:0.037182 852:0.037182 1375:0.037182 1803:0.037182 1889:0.037182 1905:0.037182 3104:0.037182 4677:0.037182 4813:0.073385 6614:0.037182 6675:0.073385 18686:0.037182 31184:0.073385 35787:0.037182 
-0.28017842432292 372:0.16667 731:0.16667 4695:0.16667 11441:0.16667 12815:0.16667 25232:0.16667 
-0.3577749848703249 102:0.043478 185:0.043478 384:0.043478 385:0.043478 412:0.043478 414:0.043478 475:0.043478 615:0.043478 666:0.043478 691:0.043478 701:0.043478 812:0.043478 1510:0.043478 1597:0.043478 1873:0.043478 2236:0.043478 3004:0.043478 4755:0.043478 9060:0.043478 9873:0.043478 11444:0.043478 13323:0.043478 56133:0.043478 
-0.02269537256499716 43:0.047472 185:0.047472 384:0.047472 385:0.047472 412:0.047472 414:0.047472 615:0.047472 688:0.047472 812:0.047472 1510:0.047472 1873:0.047472 2236:0.047472 6300:0.047472 6334:0.047472 6770:0.047472 6873:0.047472 9060:0.098038 9873:0.047472 13323:0.047472 56133:0.047472 
-0.2131481354445389 43:0.042797 412:0.088384 615:0.088384 688:0.042797 812:0.042797 1438:0.042797 1873:0.088384 6300:0.042797 6334:0.042797 6770:0.042797 6873:0.1329 7398:0.042797 7456:0.042797 9060:0.088384 13323:0.042797 14382:0.042797 62791:0.042797 
-0.8848164377128891 43:0.058915 145:0.058915 427:0.058915 472:0.058915 708:0.058915 986:0.058915 1177:0.058915 2488:0.058915 3571:0.058915 4928:0.058915 6300:0.058915 7040:0.058915 11433:0.058915 11978:0.058915 14779:0.058915 18387:0.11628 
-0.4787880497461469 168:0.10452 776:0.15717 853:0.10452 1304:0.052958 1438:0.052958 1603:0.052958 2002:0.052958 2075:0.052958 4802:0.052958 6276:0.15717 7039:0.052958 9913:0.052958 11592:0.052958 
-0.08193530019391057 38:0.055719 114:0.055719 152:0.055719 401:0.10997 409:0.055719 719:0.055719 776:0.10997 932:0.055719 1078:0.055719 1148:0.055719 1522:0.055719 1803:0.055719 2219:0.055719 6276:0.055719 7039:0.055719 10698:0.055719 
-0.7319258691964572 114:0.13328 155:0.042917 168:0.042917 169:0.042917 401:0.042917 587:0.042917 776:0.088631 914:0.042917 1522:0.088631 1603:0.088631 2002:0.042917 2537:0.042917 3531:0.042917 4885:0.042917 5489:0.042917 6276:0.042917 19136:0.042917 37045:0.042917 
-0.02386631636302615 3443:1 
-0.09586442118111009 433:0.090909 639:0.090909 776:0.090909 1522:0.090909 2002:0.090909 2219:0.090909 2245:0.090909 3442:0.090909 3443:0.090909 6276:0.090909 11592:0.090909 
-0.7379549970283238 301:0.052632 341:0.052632 343:0.052632 414:0.052632 608:0.052632 644:0.052632 755:0.052632 776:0.052632 899:0.052632 932:0.052632 1072:0.052632 1304:0.052632 1618:0.052632 1619:0.052632 1628:0.052632 2418:0.052632 2522:0.052632 5284:0.052632 9444:0.052632 
-0.9669715339095266 62:0.090909 153:0.090909 474:0.090909 894:0.090909 1039:0.090909 1052:0.090909 1058:0.090909 1665:0.090909 3896:0.090909 7575:0.090909 11817:0.090909 
-0.5214294023328331 62:0.043478 70:0.043478 149:0.043478 153:0.043478 264:0.043478 474:0.043478 499:0.043478 894:0.043478 1039:0.043478 1052:0.043478 1058:0.043478 1479:0.043478 1665:0.043478 1697:0.043478 2778:0.043478 2821:0.043478 3151:0.043478 3507:0.043478 3896:0.043478 7369:0.043478 7575:0.043478 8090:0.043478 11817:0.043478 
-1.312475985275318 414:0.083333 491:0.083333 1328:0.083333 4040:0.083333 4950:0.083333 6610:0.083333 6630:0.083333 6647:0.083333 8095:0.083333 19911:0.083333 22272:0.083333 24508:0.083333 
-0.8611994610163571 191:0.041667 414:0.041667 635:0.041667 787:0.041667 1215:0.041667 1233:0.041667 1792:0.041667 1994:0.041667 2604:0.041667 2648:0.041667 2817:0.041667 4084:0.041667 4950:0.041667 6630:0.041667 7900:0.041667 9345:0.041667 10615:0.041667 13362:0.041667 14735:0.041667 15713:0.041667 15769:0.041667 16572:0.041667 20657:0.041667 41998:0.041667 
-0.5447396517935802 87:0.03854 414:0.03854 491:0.03854 635:0.03854 787:0.03854 894:0.03854 1177:0.03854 1233:0.03854 1792:0.03854 2648:0.076065 3540:0.03854 3673:0.03854 4950:0.03854 5370:0.03854 6630:0.03854 6637:0.03854 9345:0.076065 10615:0.03854 12954:0.03854 15710:0.03854 15713:0.03854 15769:0.03854 34521:0.03854 41998:0.03854 
-1.131086543974069 641:0.047619 1234:0.047619 1356:0.047619 1769:0.047619 1886:0.047619 2289:0.047619 2420:0.047619 2840:0.047619 3246:0.047619 3357:0.047619 4254:0.047619 4332:0.047619 5200:0.047619 5417:0.047619 6655:0.047619 7131:0.047619 9488:0.047619 13323:0.047619 14735:0.047619 14800:0.047619 31482:0.047619 
-1.353832593934536 171:0.052778 556:0.052778 604:0.052778 635:0.052778 952:0.052778 1209:0.052778 2921:0.052778 4084:0.10417 5417:0.052778 6338:0.052778 6614:0.10417 6637:0.052778 6745:0.052778 10090:0.052778 16572:0.052778 18692:0.052778 26655:0.052778 
-1.215823889631005 38:0.03854 102:0.03854 105:0.03854 255:0.076065 309:0.03854 335:0.03854 706:0.03854 941:0.03854 963:0.03854 1154:0.03854 1224:0.03854 1891:0.03854 2189:0.03854 4113:0.03854 5363:0.03854 5962:0.03854 6382:0.03854 6888:0.076065 7475:0.03854 9278:0.03854 11773:0.03854 20350:0.03854 38427:0.03854 49441:0.03854 
-0.9399700139905735 6:0.052778 43:0.052778 255:0.10417 306:0.052778 727:0.052778 941:0.052778 963:0.052778 1039:0.052778 1154:0.052778 1335:0.052778 1670:0.052778 1726:0.052778 2511:0.052778 6383:0.052778 6888:0.052778 8815:0.10417 9627:0.052778 
-2.593904503839657 188:0.04718 265:0.04718 416:0.097435 732:0.04718 747:0.04718 896:0.04718 963:0.097435 1690:0.04718 1695:0.04718 2406:0.04718 2443:0.04718 2482:0.097435 2525:0.04718 3899:0.04718 4174:0.04718 6679:0.04718 7955:0.04718 9274:0.04718 
-0.2029915501917167 38:0.097736 255:0.097736 309:0.047325 335:0.047325 894:0.047325 1490:0.047325 2189:0.047325 2245:0.047325 3442:0.047325 3443:0.047325 4113:0.047325 5962:0.047325 6888:0.047325 7475:0.047325 9278:0.047325 11773:0.047325 33056:0.047325 38427:0.047325 49441:0.047325 
-1.139079271216982 6:0.049838 102:0.049838 255:0.10292 317:0.049838 449:0.049838 658:0.049838 711:0.049838 717:0.049838 963:0.049838 2204:0.049838 2243:0.049838 2247:0.049838 3979:0.049838 4805:0.049838 5980:0.049838 6901:0.049838 7708:0.049838 9627:0.049838 14091:0.049838 
-1.671162829974191 100:0.058915 111:0.058915 185:0.058915 267:0.058915 433:0.058915 928:0.058915 978:0.058915 1322:0.11628 1898:0.058915 2294:0.058915 3529:0.058915 5136:0.058915 5137:0.058915 6063:0.058915 10754:0.058915 12710:0.058915 
-2.049043629073002 6:0.043233 103:0.043233 198:0.043233 304:0.043233 442:0.043233 712:0.043233 714:0.043233 803:0.043233 826:0.043233 856:0.089285 1138:0.043233 1234:0.089285 2191:0.043233 2294:0.043233 2341:0.043233 2473:0.043233 3756:0.043233 5205:0.043233 6063:0.043233 9815:0.043233 23477:0.043233 
-0.5773401135035176 103:0.047619 267:0.047619 311:0.047619 315:0.047619 383:0.047619 409:0.047619 435:0.047619 714:0.047619 760:0.047619 905:0.047619 928:0.047619 1224:0.047619 1322:0.047619 1492:0.047619 1530:0.047619 1898:0.047619 2191:0.047619 2372:0.047619 2473:0.047619 3338:0.047619 3529:0.047619 
-1.231395924682606 62:0.047619 100:0.047619 103:0.047619 267:0.047619 311:0.047619 383:0.047619 712:0.047619 760:0.047619 893:0.047619 928:0.047619 1135:0.047619 1223:0.047619 1322:0.047619 1492:0.047619 2191:0.047619 2473:0.047619 3529:0.047619 3553:0.047619 11058:0.047619 13929:0.047619 31502:0.047619 
-0.02062575297428762 62:0.073242 100:0.037109 126:0.037109 162:0.037109 233:0.037109 267:0.037109 290:0.037109 383:0.037109 455:0.037109 456:0.037109 708:0.037109 712:0.037109 728:0.037109 893:0.037109 1135:0.037109 1223:0.037109 2191:0.037109 3158:0.037109 3409:0.037109 3529:0.037109 3553:0.037109 8020:0.037109 11058:0.037109 13929:0.037109 31502:0.073242 
-0.5260075772976284 123:0.125 649:0.125 1988:0.125 2077:0.125 2186:0.125 2778:0.125 3298:0.125 22965:0.125 
-0.5410133216742407 123:0.05 224:0.05 564:0.05 649:0.05 1239:0.05 1988:0.05 2077:0.05 2186:0.05 2778:0.05 2851:0.05 3064:0.05 3298:0.05 3896:0.05 4419:0.05 5841:0.05 7662:0.05 17051:0.05 22212:0.05 22965:0.05 23813:0.05 
-1.307022292165796 62:0.06184 317:0.06184 564:0.12771 1239:0.19204 1415:0.06184 1493:0.06184 4307:0.06184 4403:0.06184 4689:0.06184 8001:0.06184 17051:0.06184 23813:0.06184 36519:0.06184 
-1.168125191189329 62:0.05 317:0.05 457:0.05 564:0.05 1239:0.05 1245:0.05 1489:0.05 2560:0.05 2692:0.05 3348:0.05 4307:0.05 4403:0.05 4689:0.05 4766:0.05 5961:0.05 7177:0.05 8001:0.05 17051:0.05 23813:0.05 36519:0.05 
-1.900662688573844 19:0.045455 48:0.045455 62:0.045455 71:0.045455 87:0.045455 102:0.045455 104:0.045455 110:0.045455 117:0.045455 457:0.045455 666:0.045455 770:0.045455 914:0.045455 935:0.045455 978:0.045455 985:0.045455 1845:0.045455 4301:0.045455 4320:0.045455 4552:0.045455 18866:0.045455 22177:0.045455 
-0.8053879428517127 62:0.047325 71:0.047325 102:0.047325 104:0.097736 110:0.047325 178:0.047325 373:0.047325 457:0.047325 666:0.047325 761:0.047325 914:0.047325 978:0.047325 985:0.097736 2384:0.047325 4301:0.047325 4320:0.047325 4552:0.047325 15964:0.047325 22177:0.047325 
-1.331080285937807 91:0.039485 102:0.039485 104:0.039485 117:0.039485 178:0.039485 373:0.039485 491:0.039485 666:0.039485 761:0.039485 914:0.081544 985:0.039485 1845:0.039485 1943:0.039485 2384:0.039485 2931:0.039485 4206:0.081544 4209:0.081544 4552:0.081544 6063:0.039485 15964:0.081544 
-0.0144200811173203 6970:1 
-0.5915953881691405 117:0.077079 171:0.077079 450:0.077079 808:0.077079 935:0.15213 1020:0.077079 3453:0.077079 6970:0.077079 8622:0.077079 15968:0.077079 16244:0.077079 20788:0.077079 
-0.258942362381911 117:0.041484 171:0.041484 299:0.041484 335:0.041484 450:0.041484 672:0.041484 808:0.041484 935:0.12883 1020:0.041484 1165:0.041484 1988:0.041484 2442:0.041484 3443:0.041484 3453:0.041484 4393:0.041484 6556:0.041484 8622:0.041484 15968:0.041484 16244:0.041484 20788:0.041484 22088:0.041484 31219:0.041484 
-1.878088649626121 62:0.039792 185:0.039792 346:0.039792 436:0.039792 491:0.082179 543:0.039792 649:0.039792 667:0.039792 1021:0.039792 1039:0.039792 1429:0.039792 1518:0.039792 1794:0.039792 1895:0.039792 1898:0.039792 2046:0.039792 2234:0.039792 3391:0.039792 4917:0.039792 11967:0.039792 14095:0.039792 14934:0.082179 32207:0.039792 
-1.139726971890576 62:0.04 127:0.04 346:0.04 382:0.04 436:0.04 543:0.04 667:0.04 761:0.04 1021:0.04 1039:0.04 1064:0.04 1429:0.04 1518:0.04 1895:0.04 2046:0.04 2518:0.04 2952:0.04 3391:0.04 5086:0.04 11967:0.04 14934:0.04 15753:0.04 17125:0.04 31504:0.04 32207:0.04 
-1.500973404957819 103:0.041554 127:0.041554 295:0.041554 382:0.041554 668:0.041554 748:0.041554 761:0.041554 1064:0.041554 1244:0.041554 1898:0.041554 2299:0.041554 2518:0.041554 2952:0.041554 4917:0.041554 5086:0.041554 5479:0.041554 6930:0.041554 8165:0.041554 14934:0.085817 15753:0.041554 17125:0.041554 25579:0.041554 31504:0.041554 
-1.061569081783252 43:0.038501 103:0.038501 233:0.038501 291:0.038501 295:0.038501 315:0.038501 455:0.038501 466:0.038501 667:0.038501 668:0.038501 748:0.038501 963:0.038501 1177:0.038501 1244:0.038501 1898:0.038501 2299:0.038501 4393:0.075987 4917:0.038501 5479:0.038501 6930:0.038501 8165:0.038501 9394:0.038501 12798:0.038501 14934:0.038501 25579:0.038501 
-0.1155011917250376 71:0.052705 152:0.10402 188:0.052705 309:0.052705 705:0.052705 706:0.052705 760:0.052705 1135:0.052705 1513:0.052705 1703:0.052705 1741:0.052705 1975:0.052705 2525:0.052705 5712:0.052705 10883:0.052705 23122:0.052705 34125:0.052705 60724:0.052705 
-2.100672708366053 71:0.052705 152:0.10402 188:0.052705 341:0.052705 841:0.052705 1493:0.052705 1513:0.052705 1741:0.052705 3255:0.052705 4977:0.052705 5712:0.052705 6548:0.052705 10883:0.052705 23122:0.052705 34125:0.052705 35107:0.052705 60724:0.052705 61305:0.052705 
-3.375768579624168 71:0.10239 84:0.049577 117:0.049577 145:0.15396 267:0.049577 315:0.049577 349:0.049577 407:0.049577 408:0.049577 437:0.049577 767:0.049577 964:0.049577 2270:0.049577 2368:0.049577 28774:0.049577 34125:0.049577 60724:0.049577 
-0.748546707642097 71:0.061745 84:0.061745 131:0.061745 145:0.12752 267:0.061745 315:0.061745 349:0.061745 359:0.061745 436:0.061745 437:0.12752 767:0.061745 2368:0.12752 4019:0.061745 
-0.7481066471756058 84:0.055637 131:0.10981 145:0.055637 292:0.055637 359:0.055637 436:0.055637 437:0.055637 760:0.055637 853:0.055637 978:0.055637 1135:0.055637 1472:0.055637 2270:0.055637 2368:0.055637 3255:0.055637 4019:0.055637 30367:0.055637 
-0.9696008165438198 311:0.14286 928:0.14286 986:0.14286 2270:0.14286 2657:0.14286 5672:0.14286 9624:0.14286 
-0.5912794864464477 126:0.052705 131:0.052705 162:0.052705 384:0.052705 418:0.052705 434:0.052705 899:0.052705 939:0.052705 940:0.052705 2270:0.052705 3986:0.052705 4977:0.052705 6207:0.052705 6502:0.052705 7429:0.052705 11012:0.10402 34125:0.052705 60724:0.052705 
